0.06594939,-0.13690275,0.20541082,0.04838892,0.21617295,0.07272954,-0.10888586,0.16345753,-0.0089758765,0.026500762,-0.234492,0.0063476157,-0.25885376
0.061094858,0.2083383,-0.14385895,-0.06685964,0.19865076,-0.113552816,0.10152037,-0.24321385,0.07572759,0.18030213,-0.26334643,-0.25494513,0.08709422
0.061202228,0.04425199,0.11989995,0.20479195,-0.1987965,0.06443927,-0.124419905,0.12934357,-0.24257399,-0.050185557,-0.055115603,-0.20213142,0.054232944
-0.03136864,-0.08278727,0.24380475,-0.16003196,-0.15752198,-0.030728482,0.07646342,-0.059609044,0.18752034,-0.11323944,-0.13193095,0.17861229,-0.23751031
0.09514062,-0.018441519,0.21259321,0.21659516,0.20997594,0.006025513,-0.002107979,-0.15310675,0.14691378,-0.11407369,-0.23504022,0.175517,-0.1454484
-0.118944675,-0.05644807,0.2735111,0.14380813,0.078577034,-0.058202848,0.0042736526,-0.07867374,0.2529496,0.24843283,-0.14386205,0.11676802,-0.21557838
0.01298762,-0.24790792,0.19652092,-0.1593975,-0.12833618,-0.11157778,-0.15557048,0.024345081,-0.27459082,0.19222064,0.010877135,0.23410404,-0.15643038
0.27313462,0.093262084,0.14045504,-0.19062954,-0.2430054,0.095544,-0.2533573,-0.08470162,-0.18769152,-0.2424209,0.20068221,0.059598852,0.09461391
0.03779642,-0.041406468,-0.02527292,0.13128303,-0.23709175,-0.09500415,0.06533825,0.25094464,0.027946431,0.20595494,0.18047984,-0.2471755,-0.25572976
-0.12498835,0.064918265,0.22540511,-0.122436,-0.12082135,-0.20479997,0.0054203,-0.037914827,-0.13610683,0.1499656,-0.014624429,-0.16167873,-0.26458174
-0.016322345,0.08140331,-0.18388027,-0.011535795,0.07862218,0.058519047,0.14160284,0.19616434,0.2584109,0.14278872,0.033414043,-0.18324122,0.07272286
-0.22135429,-0.25675943,-0.18424593,-0.2031442,-0.24851012,-0.031735547,-0.16298985,-0.26956165,0.21279375,-0.14052776,-0.13922602,0.025270969,0.14535967
-0.040131316,0.071735494,0.033969983,0.10814352,0.15613917,0.011080702,0.24512814,0.13046132,0.099293396,0.0007488042,-0.069121525,-0.23900685,0.1373414
0.011434605,-0.17639117,-0.14000262,0.16220386,0.010639248,-0.23213251,0.24669333,-0.101955146,0.046912476,-0.059155434,0.22654584,-0.13635415,-0.10666106
0.14226772,0.17716618,0.13785794,0.12337955,-0.018584656,0.06453904,-0.0073170396,0.08009166,0.10514337,0.054134693,0.16453367,0.24813576,0.026887335
-0.06089791,0.09193152,0.42525247,0.38817325,0.04068945,0.36886647,0.18089277,-0.077067345,0.17834175,0.044415727,0.08587941,-0.19283897,-0.08136817
-0.25088733,-0.13645545,0.18529783,0.15734498,-0.15425481,0.1769324,-0.11541223,0.053704437,-0.058512475,0.095147416,0.2611806,0.13180213,-0.18128932
-0.05349084,-0.13469262,0.27552396,0.14775987,0.16884093,-0.14069109,-0.2290901,0.1686492,0.15898795,0.035080243,0.13175492,0.21013524,-0.08423319
-0.047013618,0.24161027,0.03812967,0.09245768,-0.20487304,-0.12057335,0.022575812,-0.024405735,0.11769058,-0.03766289,0.077897064,0.14330648,-0.05888647
0.14770341,0.2559378,-0.1543057,-0.10514385,0.21230796,0.185156,-0.17320871,-0.077263124,-0.25108418,0.19580248,0.016277142,0.122418396,-0.20133205
-0.15720868,0.20061933,0.027535185,0.014151798,0.15778904,-0.036566462,-0.06462288,0.021097412,0.029763876,0.22731441,-0.27025536,0.10969304,0.20362502
0.078422,-0.029318191,0.070012964,-0.13779558,-0.18829936,0.20432797,0.030337185,0.06279167,0.013542287,-0.13559628,-0.23530062,-0.22331865,0.019969776
0.108943835,0.10238175,0.12542754,0.027474284,0.27090272,-0.018153477,0.24523315,-0.25307474,-0.14809008,0.08066521,-0.1937233,0.12664425,-0.14077497
-0.09392722,-0.1388855,-0.14640243,-0.053792495,-0.16738243,-0.18606949,0.22078203,0.14479862,-0.04280447,0.10844313,-0.1696924,-0.056150395,-0.112105325
0.04362965,-0.2713251,0.24767615,-0.09592579,0.0119095845,0.11556514,-0.12688267,-0.26604837,0.10061022,0.14254534,-0.027010446,-0.12309428,0.15582462
-0.109724075,-0.059744757,-0.19304839,0.25816467,0.14905483,0.22294432,-0.043512985,0.10657792,-0.11773459,0.11406339,0.06922519,0.034448158,0.0627797
0.12415151,0.26599225,-0.020325014,-0.10988904,-0.060191367,-0.14441106,0.24741033,-0.18591344,-0.10159651,0.023672024,0.21606283,0.038494892,-0.024062322
-0.13172485,0.17356423,0.08058166,-0.11957308,0.25001925,0.18501784,0.09657641,0.03580567,0.085796125,0.13031873,-0.10386649,0.21856786,0.054729674
0.13020337,-0.13164522,0.21181466,0.16066198,0.111608624,-0.23566175,-0.27914104,0.23495296,0.047194574,-0.044426363,-0.22530574,-0.18857925,0.24553534
-0.113171265,-0.1059707,-0.12788619,0.08666795,-0.25197923,-0.12141001,0.24726203,0.08376065,-0.19251825,0.14469919,0.11177164,0.23073253,-0.01905159
0.100616574,-0.07373244,-0.031626716,-0.15183297,-0.2480317,0.17074633,0.072914906,0.17635779,-0.22248192,0.055803034,-0.22614586,-0.11660359,-0.23586307
-0.05479939,0.1603741,-0.06703795,0.10035411,-0.0010342015,-0.21062331,-0.26261276,0.18868051,-0.26989663,-0.11743199,-0.10461199,-0.07114953,0.22821072
0.24984673,0.19669949,0.086019695,-0.03141371,-0.23616572,0.19428504,0.094154134,0.2038794,0.028309982,-0.05705914,-0.16470109,0.24323165,-0.2649972
0.26636538,0.17199235,0.17005016,-0.20475659,-0.08910649,0.13789998,-0.2171564,0.1642658,0.07282039,-0.1532868,0.070126355,0.16393253,0.06779873
0.050684802,0.23600766,-0.18084864,0.061936934,-0.060204018,0.005458554,-0.20813027,-0.031653013,0.060605,0.088418245,-0.052009128,0.15945905,-0.16171923
-0.09220854,-0.09933852,-0.17946419,0.018023597,0.088326424,-0.036155228,-0.0888439,0.04444628,-0.16883506,0.21351245,0.12208229,-0.17376989,-0.23486091
0.14586993,-0.24633639,-0.25804663,-0.069772385,-0.19103257,0.20464417,-0.24769938,0.25837418,0.020343833,0.25731453,-0.05094926,0.10371106,0.14968096
-0.17116491,0.25602168,0.11502073,0.16637062,-0.013666239,-0.1659005,-0.16013834,-0.015361001,0.20562151,-0.22380005,0.18153165,-0.17249624,-0.12641007
0.09908413,-0.24306746,-0.18140967,-0.02954898,0.14543797,0.021464521,-0.11105747,-0.06423946,0.06738905,0.23009914,-0.18442537,-0.16547313,-0.18089168
0.23913254,-0.25397083,0.24643472,-0.047818746,0.19952369,-0.20008972,-0.21071348,-0.15349531,-0.16581579,0.027425287,0.04028736,0.14012153,0.041788276
0.14224899,-0.2782093,0.08942365,-0.17566669,0.24205273,-0.0048908303,0.2519182,0.12094798,0.14024338,-0.013363668,0.09064462,-0.083827525,-0.022503477
-0.1955097,-0.23033899,-0.0005399883,0.21073218,0.13324831,-0.013321205,-0.033962052,0.0660536,0.25392145,0.059339084,-0.19618554,0.2026746,0.22292238
-0.15797178,0.03272065,-0.11448657,-0.13446283,-0.23817776,-0.27374268,0.10053215,-0.23612994,-0.0037975179,0.1910947,-0.16535974,0.24535395,0.14359103
-0.24454978,0.16161412,0.017080637,0.19436458,-0.005531146,0.14834426,-0.24410501,-0.05558338,-0.012202395,-0.12309937,0.28768086,0.09334755,-0.09192387
-0.25449076,0.03662202,0.0045771534,0.20291856,0.15375423,-0.25930816,-0.060494576,0.23896067,-0.15702838,0.2214493,-0.05070137,0.21041413,0.18362026
0.07881746,-0.24136771,0.19378927,0.11122782,-0.180932,0.06535501,-0.06222275,0.24004567,0.16312344,0.17341043,0.06262499,-0.24501576,0.14608102
0.28413352,-0.23590122,-0.15251756,-0.035147544,-0.121030934,0.22357392,0.097017564,0.22798285,0.011444498,-0.15214768,0.101389356,-0.007597708,0.23940296
-0.24905424,0.1727428,0.0212375,0.10896487,0.2585649,0.17471254,0.054494947,-0.22219548,-0.14635727,0.26887307,-0.20356475,-0.005383072,0.1980198
-0.21618661,0.13531035,-0.24257319,-0.1865305,-0.20785125,0.13104047,0.14850083,-0.016560093,0.23913093,0.21396106,-0.17930779,0.09422974,-0.21033852
-0.19023639,0.07090025,-0.0316528,-0.1737296,0.12579334,0.21003515,-0.09324882,-0.08308265,0.064172655,0.2442415,-0.19346903,-0.099363856,0.2295301
-3.7874557e-05,-0.16550119,0.19002083,-0.031583548,-0.022044433,-0.20499171,0.12251198,-0.07746567,-0.17459965,-0.18278112,0.22912857,-0.20728599,0.122963995
0.06232031,-0.15046918,0.010863009,0.19823271,-0.2455823,0.090667315,0.15919963,0.24236433,-0.007124378,0.23386833,-0.11935596,-0.22363609,0.08248089
-0.162345,0.0017940033,0.2172157,0.23962714,0.044950593,0.08715096,-0.14811501,0.091746345,-0.19909461,-0.054826666,-0.01037365,0.018415973,-0.14932366
0.28340077,-0.13097674,-0.020408692,0.2435204,-0.15099603,-0.19369459,-0.12184931,-0.25582165,-0.17893921,0.22517014,0.2265334,0.15990123,0.12590824
0.14388768,0.23974031,0.0107413465,0.25337753,0.11890494,-0.0644738,-0.18152644,0.26005533,-0.26099873,0.19993287,-0.044957876,0.10133128,0.21333937
0.026547765,0.27834684,-0.15309341,0.09435823,0.057768982,0.21298954,0.12779331,0.103356875,0.11177037,0.0735278,0.03429904,-0.2149779,0.027943205
-0.13363804,0.2546129,-0.23801152,-0.029050482,0.2302686,-0.24768426,0.0027879798,-0.061067253,0.07020919,-0.037034232,0.2767637,0.04991662,0.17264272
0.1950309,0.3609637,0.22213136,0.22919123,0.37136814,-0.1361077,-0.44051078,0.10567408,0.21863489,0.5985098,0.24441034,0.28966185,-1.1400806
0.0028699678,-0.15349956,-0.18586956,-0.04480728,-0.2786234,0.12254294,-0.11742605,-0.012585731,-0.27569994,0.08034207,0.13196671,-0.17611264,-0.2595175
-0.04542955,-0.005719734,-0.080155425,-0.25795436,-0.23361316,0.11179247,-0.16099171,0.04132809,0.17943291,0.061083946,0.16254026,-0.0504995,-0.07997229
-0.03317532,-0.20111378,0.05908749,-0.27606058,-0.12282472,-0.18212582,0.23981456,0.22134094,-0.036915243,0.2568737,-0.21474202,-0.14724325,-0.16533566
-0.0104885,0.20755719,-0.22418858,0.26346406,0.2658438,-0.26076403,0.1507196,0.10682221,-0.07943954,0.18497597,-0.07991745,0.25355825,0.11294883
-0.12591621,-0.09025359,-0.1877647,-0.086043715,0.06157328,0.0043359757,0.15796208,-0.21957305,0.03610213,-0.1829357,-0.22517496,0.029315082,0.083754025
-0.12860376,-0.19477423,0.08491072,0.2142073,0.11403275,0.10219531,0.26283076,-0.119121894,-0.07114255,0.09943394,0.015862992,-0.030813485,0.15511975
0.1587657,-0.09689966,0.21840015,0.17961231,-0.10120112,-0.26888222,-0.16547666,0.15720399,0.27463788,-0.25862643,-0.046022564,-0.19449198,-0.052080806
-0.14235218,-0.14916955,-0.19407688,0.1525483,-0.010221931,-0.20885706,0.11924922,0.21440691,-0.03702203,-0.24353403,-0.050751224,-0.13494389,0.17781177
-0.04649549,-0.16279413,0.10626761,0.113722555,0.24317797,-0.123806484,0.16315801,-0.031659957,-0.14630169,-0.00051524927,-0.09235317,-0.19737445,-0.029226905
-0.09938776,-0.13143753,0.19297202,-0.19708003,0.14135164,-0.099656224,-0.05028967,-0.1522583,0.24583727,-0.23762949,0.051786583,0.058233347,0.055324756
-0.27630547,-0.2504927,0.16547355,0.21081394,0.03665252,0.01946911,-0.0786215,0.07227904,-0.1404356,0.2301377,0.052244276,0.04221322,0.013591251
-0.25130177,-0.1747108,-0.026961515,-0.2139805,-0.17760533,-0.24989559,0.08934251,-0.08167943,0.11153371,0.0033475,0.13614313,-0.20792991,0.08488176
0.10660366,0.21609072,-0.1665959,-0.010778509,0.22295734,0.21294405,-0.073863775,-0.1277386,0.12087905,0.0716902,0.27448496,0.021468377,0.017190129
-0.19190174,-0.07246265,-0.123994164,-0.107230924,-0.21857108,-0.16775107,0.24291466,-0.081386365,-0.24528524,0.075157814,-0.25482625,0.13477407,-0.25793156
-0.10348245,0.06529998,0.031668875,0.05508443,0.15697078,0.06597285,0.23878877,-0.001829458,0.07957293,-0.01749655,-0.13023171,0.2512452,0.27063924
0.22520891,-0.22821565,-0.16166823,0.0123093715,0.16960102,-0.17260619,-0.16307507,0.19920516,0.18712859,5.121572e-06,-0.12107057,-0.20908009,-0.23010917
0.06146948,0.17419074,-0.08484123,0.18965456,0.21140566,0.15181802,-0.20492518,0.27443945,0.25543022,-0.21423271,-0.0409811,0.05916086,0.09428885
-0.13550378,0.12448696,0.114658855,-0.17593524,0.034522317,0.18244791,0.11744133,-0.052209,-0.27006212,0.011170371,0.010430761,-0.04453607,0.010296008
0.065946475,-0.092370465,0.16605315,0.14970478,-0.097909205,-0.26255143,-0.2687973,-0.049440205,-0.10769703,0.09116995,-0.091962114,-0.21211782,0.23107089
-0.10671897,-0.15919481,-0.08142752,0.19304557,-0.11081211,0.01821932,-0.27914077,-0.17082615,0.06521559,-0.05812543,0.08602435,0.2015089,0.020429654
-0.12779221,0.11355301,0.13731246,0.16404042,0.13440768,0.23097937,-0.14062712,-0.26279598,0.16206105,0.07376498,0.16043314,-0.25922108,0.059296783
-0.00045607163,0.062075466,0.031035146,-0.034281086,-0.032184735,0.4001171,0.23236872,0.08864329,0.2065233,-0.056187306,-0.421074,-0.6566858,0.34388778
0.17125212,-0.17600371,0.020811161,-0.13115051,0.18629976,-0.22276317,0.016292233,-0.24152239,0.25701723,0.16704726,-0.20168942,-0.17263226,0.20089972
0.069319494,0.020849539,-0.12541206,0.1549879,0.19983116,-0.101873584,0.26999873,0.09817246,0.26358837,0.055648863,0.1152095,-0.0926963,-0.21311636
-0.07538548,-0.050069712,0.1573774,0.38611376,0.047287337,-0.16614532,0.017812207,-0.2007157,-0.018405778,0.19634683,-0.073774226,0.18616135,-1.0468475
0.10671506,-0.17033215,-0.08040994,0.16371715,0.18499862,-0.10985934,-0.121113345,0.028022675,-0.029673899,-0.05551163,0.22542639,0.06334291,0.25222278
-0.1004053,0.19079606,-0.1393479,-0.1610135,0.032436572,-0.24029206,0.27326578,-0.13593744,0.01167139,-0.057149295,-0.21202889,0.14330932,-0.18446895
0.035581727,0.20753588,-0.26985672,-0.043902915,-0.07701364,-0.13087851,-0.15863106,-0.21149954,0.21329993,0.1453761,-0.13543533,0.0659701,-0.20689747
0.096228726,-0.20662123,0.19569829,-0.2549455,-0.18036422,-0.09438688,-0.23849627,-0.164002,0.06703566,-0.14366527,-0.10305784,0.21113859,0.058376756
0.049035072,-0.2373139,-0.0054351743,-0.242391,-0.21074754,0.045300957,0.26026914,-0.08925472,0.26455748,-0.002200936,-0.25287,-0.21067366,-0.18138345
-0.1927126,-0.03415662,-0.22926082,-0.2492139,-0.25040632,-0.17058073,0.07067818,0.054713823,0.076110885,-0.10129508,-0.04943189,0.14860481,0.067321725
0.18913677,0.13307951,-0.09198437,-0.25161436,-0.19110592,-0.04186993,-0.247909,-0.23008415,0.13099234,-0.039063364,0.23299551,-0.14751507,-0.26708144
0.13206951,-0.09389084,-0.22997406,-0.20607744,-0.1399584,0.26600602,-0.19662353,-0.20518231,0.1649553,-0.16671857,0.05385664,-0.11506751,-0.1532374
0.101644084,-0.17702824,0.1523308,0.012542173,0.25636306,-0.0047308924,-0.24925464,0.062102094,0.08447262,0.25548244,0.20777807,-0.006105852,-0.24547361
-0.097129345,-0.1025513,-0.20923983,-0.22266884,-0.011474909,-0.25996473,0.14170693,-0.122955084,0.06761337,-0.040792175,-0.21576092,-0.26751244,-0.081093304
-0.055134084,0.22087984,0.024147559,0.15745582,-0.12953356,0.18785691,0.1755976,0.019782769,0.21440892,0.26416498,-0.10695117,0.23179176,-0.06834462
-0.17748407,-0.053761527,0.14685349,-0.031176936,0.06429748,-0.14743732,-0.087761976,-0.022964591,0.008299862,0.04718092,-0.11607076,0.03454839,0.1544586
0.2691657,0.092649564,0.28414872,-0.18968023,-0.01365675,-0.0017130307,-0.03848097,0.11737807,-0.23158723,-0.18356545,-0.050771017,0.05810579,0.16064394
0.21833958,-0.2480869,0.25151497,0.13719973,0.17779954,-0.18791665,0.2564055,0.11658628,0.06696426,0.0047419374,0.23799372,0.13852863,0.15047403
-0.10923149,0.021631993,-0.035286702,-0.14276907,0.15664218,0.16651098,-0.16817975,0.1461404,0.037377495,-0.23111436,0.11708896,-0.17946169,-0.17842327
0.017985314,0.031755175,0.16264498,-0.23584518,0.02505757,-0.17831141,0.09781904,-0.23380247,0.2695815,-0.26918185,-0.2109823,0.28540528,0.14775217
0.08692578,-0.0525065,-0.26202488,0.20091204,0.06720855,-0.22019103,0.27076548,-0.07398353,0.011556651,0.17798413,-0.2513527,0.19370253,0.1414793
0.19024871,-0.2253661,0.15554582,-0.26352215,0.013098282,-0.05168484,-0.17124534,-0.13766612,0.23630883,0.17169806,-0.026413389,0.028963884,0.12876068
0.17127918,-0.046785384,-0.07194118,-0.25187567,0.0129426615,0.19660822,-0.22091818,-0.019560924,-0.09794715,-0.032760516,0.023028607,0.19143473,0.1501197
0.17695351,-0.26107222,-0.17057101,0.013851075,-0.003060837,0.18720375,0.1860158,0.23725872,0.02278452,-0.2517425,0.16958432,-0.24432218,0.016824124
0.19465949,-0.19764026,0.13585037,0.104914196,-0.017064806,0.06362311,0.045333646,-0.11441773,0.25522974,-0.24366458,-0.22174174,0.023706071,-0.02791947
-0.083113134,0.056645017,-0.028626684,0.019241437,-0.14602111,-0.00039873627,0.13895056,0.19818287,-0.17585109,0.01921965,0.25838947,0.16622223,0.077363364
-0.050972935,0.017166646,0.009765221,-0.15831035,-0.0874365,0.24363187,-0.103880495,0.14500856,-0.07966286,0.17440015,-0.2812977,0.028937794,-0.23640023
0.22491401,0.11102401,0.12589255,0.20835522,-0.16816993,-0.06693747,-0.19817479,-0.087430276,-0.2477773,-0.13095947,0.031286493,0.053742513,0.230471
0.10382306,0.025980102,-0.2408106,0.08917797,0.21285912,0.1713543,-0.008165881,0.18094392,-0.08668886,0.084195316,-0.019341242,-0.0321268,0.23149844
0.2440398,0.11752996,0.23895979,-0.080212995,-0.060994737,-0.14715572,-0.073921815,0.10553682,-0.19232209,-0.09368698,-0.07701045,-0.09282231,0.0023614482
0.029176882,0.20611295,0.010375639,0.25723705,-0.24176832,-0.0027752838,-0.054719973,0.053246003,-0.09443516,-0.037186023,-0.011386234,-0.062176507,-0.26088458
0.095983155,-0.016258223,-0.20782802,0.2768865,0.2589768,-0.25341678,-0.086797744,-0.22891611,0.26860398,0.21409614,0.09211452,0.19532238,-0.008553488
-0.23233426,-0.1774992,0.2509219,-0.15674564,-0.20555754,-0.23708849,0.17481424,-0.0654025,0.1297335,0.06805287,-0.21250592,-0.12786387,-0.05062909
0.19125712,-0.22887222,0.0784822,-0.030112356,0.13061607,0.07705368,-0.17656279,-0.12437875,-0.2345942,0.1218864,-0.15849778,0.05326004,-0.07596332
-0.06390795,0.09664112,-0.0035341303,-0.1820279,-0.1954708,0.19565016,-0.24379,0.16652319,0.16911341,0.11844778,-0.15310772,-0.048757497,0.13343166
0.02631657,-0.17238079,-0.19923677,-0.13752635,-0.07614542,-0.023801584,0.13697329,0.25660342,0.063898034,-0.056379046,0.2789577,0.15954024,0.21373478
0.080680355,0.18942876,0.020947404,-0.19486514,0.1485294,-0.029748363,0.112034135,0.152776,-0.118071474,-0.16353737,-0.28815556,0.062244006,0.22301805
-0.17947033,0.17340133,-0.099637166,0.053154025,0.015645219,-0.100231975,-0.039119676,0.07418234,0.042236015,0.21879123,0.020414824,-0.13014948,0.18309584
0.20136657,-0.07836064,0.089235805,-0.1456288,-0.24748611,-0.20642638,0.05560517,-0.20783667,-0.05634339,-0.23116314,0.094321005,0.11428591,-0.1739809
0.011454772,0.23255326,0.055695545,0.30467504,0.052284993,0.45072523,-0.056854367,0.3317916,0.18168996,0.02420069,-0.17332438,-0.26085255,-0.24528629
-0.17686306,0.15252982,-0.13544632,-0.11232113,0.24990836,0.15186328,0.17278379,0.06966722,0.24759558,-0.14027728,0.13854758,-0.04993651,0.13239166
0.059731252,0.022636406,-0.061907493,0.19943926,-0.13610135,0.103072405,0.041914888,0.08682866,-0.0051507135,0.036682118,-0.15920396,-0.12766959,-0.06326748
0.10772201,-0.20996577,0.04128166,-0.02610946,-0.22135164,-0.023745753,0.062045127,0.08435354,-0.20021997,0.26827642,-0.01099116,-0.13249049,0.14176613
-0.071471326,0.04719642,-0.24199367,-0.24722838,-0.1975429,0.16731076,-0.04352507,0.18314195,-0.05987055,-0.06577075,0.115298755,-0.26115108,0.16353166
0.14655812,0.1476479,-0.13179472,-0.21155891,-0.15539318,0.24492495,0.031154437,-0.029627392,-0.024445476,0.03969846,-0.15500797,0.22521481,-0.11694396
-0.036699135,-0.16032925,-0.19034351,-0.15233156,0.12643759,-0.109813504,-0.22245508,-0.24878725,0.003239651,0.07460056,0.08749893,0.23081227,0.18426332
-0.18669891,0.19243704,-0.23040801,0.13855612,0.13926692,-0.19322224,-0.24710883,-0.20747405,-0.14754698,0.07341084,0.280305,0.2138774,0.14376488
-0.19654837,0.23311865,-0.081105575,-0.059636913,-0.19524144,0.19879979,-0.004623892,-0.23549724,-0.25420603,-0.121810205,0.07125775,0.0030043514,0.121673584
-0.001297579,-0.040122688,-0.1058462,-0.18689883,-0.26713392,-0.082185,-0.17579736,-0.17370585,0.14117406,-0.14163284,0.18558839,-0.2526807,0.26049274
0.16330707,-0.12800165,0.25282115,-0.015406553,-0.15356481,-0.17852896,-0.0027314525,0.13910076,0.05748478,-0.2732691,-0.17020543,0.002051471,0.007035072
-0.048250493,-0.18466136,0.029525599,-0.17574552,0.266069,0.17154457,0.26864985,0.031218193,-0.107782066,-0.15848383,0.21770315,-0.101196274,0.22140399
0.11151199,-0.23455659,0.2559771,0.15109582,0.043520246,-0.21401142,-0.06611656,-0.29720017,-0.1627325,-0.04393739,0.031575747,0.21905205,-0.23373576
0.009533004,-0.17850679,0.24750546,0.12315482,-0.22717753,-0.22944775,-0.25676394,-0.013919698,-0.014606708,-0.15752059,0.061774496,0.16510683,0.1935612
-0.012728154,-0.003948444,-0.09734453,-0.19742554,-0.086480826,-0.04127307,-0.15465568,0.079143815,0.1920338,-0.13378525,-0.08422071,0.0099830115,0.182601
0.21053158,0.07989859,0.04379653,-0.097218156,0.2327879,0.07386417,0.21566099,0.082282044,-0.25004452,0.04862787,0.27831477,0.17459692,-0.10296633
-0.0860867,-0.17662203,0.16400531,0.19353159,0.1515051,-0.22273768,0.083578184,-0.17212413,-0.16683099,0.053537864,0.017953664,0.23011373,0.16218203
-0.14579363,0.20343305,-0.18301307,-0.26405576,-0.280481,0.03859797,-0.13849732,-0.22191176,0.20713243,-0.09395513,0.23869501,0.23092027,0.07733734
0.049408004,-0.21643524,0.26333264,-0.17329037,0.15236114,-0.04373616,0.24411193,-0.23950322,0.24673702,-0.16945562,0.22563578,-0.17280845,-0.17912799
-0.078863926,0.2106312,-0.07561562,0.16429159,0.10722265,0.22762693,-0.1595048,0.24693324,0.17839062,0.0007954126,0.19176735,-0.16170196,0.069645286
0.011957412,-0.1518642,-0.0029726746,-0.12876338,0.18338612,0.26146263,0.24871196,0.044258703,-0.06488961,0.1114373,0.07207002,0.21258147,-0.030683076
0.21345833,-0.003930335,0.075877436,0.08436144,-0.09295126,-0.13133104,-0.19037117,0.11246033,-0.26086172,-0.091148,0.13610105,-0.026586954,-0.10492714
0.06358713,-0.16725789,-0.268033,-0.16375698,0.051545653,-0.22379234,0.14308344,-0.052532975,-0.27710608,-0.15963383,-0.18124801,0.05301093,-0.20971341
0.23029603,-0.024614893,-0.2112445,0.024636418,-0.15623583,0.27176398,-0.13844964,0.12411726,-0.10002226,0.1541578,0.016865702,0.13451488,0.047467697
-0.22335663,0.20850697,0.20273845,-0.2466954,-0.16713773,0.0750016,-0.25687027,-0.17976862,-0.07643794,0.10389893,0.064003244,0.098759025,0.13467348
-0.057804648,-0.2453275,0.012301139,0.09414053,0.228857,0.14804438,-0.0040342333,-0.07705945,-0.12992698,-0.036332082,-0.15725935,-0.18047296,-0.10135684
-0.077805966,-0.21074086,-0.27360338,-0.05330405,-0.023892721,0.22384083,-0.0045699957,-0.246188,0.1523857,-0.016471677,0.12608238,0.22285908,-0.1245077
0.13406964,-0.119186625,0.19474524,-0.1582848,0.24923438,-0.2647614,0.18577887,-0.27189034,-0.062268235,-0.012591254,-0.028364157,0.23558688,0.059250902
0.07564723,-0.11740384,0.034563683,-0.0546956,0.18217933,-0.10468118,0.15659268,-0.0957406,-0.20945588,0.23998065,-0.23694502,0.11124128,0.23691174
0.0666505,-0.072399884,0.1857267,-0.16935623,0.044304162,-0.081149034,0.08097683,-0.0110844225,0.23310132,-0.15580544,-0.19267419,-0.3022322,-0.19276516
0.14142174,0.075545594,-0.20574205,0.030078117,0.14757574,-0.2529758,0.14614059,0.24180047,-0.07597755,-0.17188248,0.07656356,0.2092734,0.17026582
0.1541977,-0.11328962,0.20417613,-0.25249532,0.2509856,-0.06310885,0.24835578,-0.1733218,-0.07447071,-0.18564409,-0.289628,-0.13645835,0.13049775
0.19219981,0.2294828,-0.17092168,0.19567455,0.13553996,-0.27465987,-0.17462003,0.18794852,-0.23217654,-0.12983024,-0.14926587,-0.059387382,-0.24264325
-0.09870453,0.14769179,0.25173348,-0.15741612,0.12202387,-0.24972901,0.17901045,0.1408145,0.012067888,-0.29841715,-0.21250343,-0.2253955,-0.16901648
0.089363605,0.2720505,-0.15938954,0.056259826,-0.23673627,0.07312245,-0.1389041,-0.1334042,0.13515282,0.23655865,-0.22101551,0.04902004,-0.1145653
-0.20430984,0.21138646,0.1359179,-0.0015015197,0.19452192,0.024593487,0.009005361,-0.028844696,0.26729077,0.13097677,-0.26067072,-0.0186002,0.04215312
0.1526083,-0.22192319,0.21164073,0.21619484,0.039576635,-0.11159338,0.25352445,-0.12400031,0.0592133,0.26260737,-0.19509298,0.24357638,-0.2610168
0.18766175,0.17409596,-0.0908108,0.2531976,-0.0036798464,0.2235033,-0.081249855,-0.042485017,0.016353114,-0.26397687,0.18760528,-0.08179631,-0.0623072
0.07737528,0.22080578,-0.24175015,-0.12611587,0.07610042,0.08322161,0.035746,-0.16785796,-0.047459442,-0.14789422,-0.036488507,0.15272945,0.26045865
0.098631695,-0.040550817,-0.10460648,-0.27426085,-0.24329649,-0.14072688,-0.015927115,0.124902956,0.27140406,0.15598649,-0.19556277,-0.15108591,-0.05613228
0.06848173,0.21555768,-0.050852064,0.2064895,-0.04917539,-0.12905112,-0.06967013,-0.003758271,-0.045338463,0.19713765,-0.12068593,-0.093510136,-0.20011462
-0.2637654,-0.26514235,-0.0028322232,-0.11243806,-0.044018414,-0.19552052,-0.20480354,-0.15240386,-0.050780125,-0.036880914,0.12853286,0.09348521,-0.22343323
-0.19403383,-0.10202058,0.117055446,0.23313461,-0.032413125,-0.05626367,-0.07248665,-0.2324437,0.036916796,-0.05011351,0.042703167,-0.21741107,0.18985596
0.20431268,0.0832217,-0.19476081,0.111175865,0.21207093,0.0675808,-0.09214939,-0.2761877,-0.07540474,-0.11871073,-0.16482057,-0.159808,0.15223561
0.1968601,-0.14264129,0.17502296,0.03368176,0.17959966,0.0947504,-0.11010348,-0.13435936,-0.2039924,0.004112249,0.24010704,-0.032487378,0.11445162
0.06286821,-0.035615645,0.12618881,0.003571566,0.08767116,-0.18319471,0.21032028,0.17318864,0.19274154,-0.072986655,0.11307324,-0.2583269,-0.27038932
0.17937289,-0.13419718,0.27212656,0.022725755,-0.06914337,0.024267267,-0.081709586,0.20351714,-0.2625045,-0.294363,0.21327557,-0.2749596,0.121016406
0.25628385,0.0752452,0.116973214,-0.09200657,0.11532829,-0.21719629,0.14581193,0.022885507,0.19129534,0.23542303,-0.2544248,0.06421176,0.07067999
0.07313815,-0.19639632,-0.27560237,0.19776806,0.10409195,-0.024449475,0.033141825,0.23302619,-0.21409796,0.21511814,0.19067939,-0.1272503,-0.1654376
-0.23964544,0.050802115,-0.065388925,-0.059998047,0.1155386,0.25858805,0.22117458,0.08376149,0.21335885,-0.12859969,0.21326096,0.20241001,-0.19590855
0.008259891,-0.17213032,0.2528369,-0.13974454,-0.029866602,-0.003169259,0.21402198,0.25669906,0.1076529,-0.044969846,0.16475719,-0.18013367,-0.23945458
-0.039633796,0.13817628,0.14862852,0.11412536,-0.22176974,-0.14708056,0.06283891,-0.14114547,0.30487034,0.11555726,-0.43581474,-0.4177226,-0.3835056
-0.009180758,-0.008437672,-0.16386884,0.028095635,0.27683344,-0.19432376,0.1369906,0.13397786,0.08332805,0.13519736,0.28657827,0.25256962,-0.2632348
0.2509117,-0.0632929,-0.15717852,-0.038338453,-0.1896044,-0.14842251,0.26601523,-0.24225117,0.17968747,0.004340434,-0.16344747,-0.25354463,0.24665397
0.07873969,-0.0051336973,0.25533408,0.09757208,-0.2763076,-0.106584676,-0.17787476,0.16640374,0.0075318534,0.08560199,-0.2841347,0.20344377,0.19610308
-0.23145671,-0.22748761,-0.12278857,-0.16334829,0.057692528,-0.16345735,-0.07644994,0.038449075,-0.25847706,-0.11006342,0.113931015,-0.20732716,0.19368154
0.24096006,0.02178008,0.20479381,-0.04744541,0.032574262,-0.16805764,0.24606287,0.14737254,0.1042185,-0.15357976,-0.1389342,-0.052871972,0.28315383
0.112952456,0.270427,-0.24124362,-0.1316453,0.15411642,-0.044222426,0.10898222,-0.26718274,-0.18721756,-0.23291919,-0.1827451,0.23791932,-0.21206038
-0.25036007,-0.16210428,0.054637115,0.25224638,0.089628175,0.15346065,0.026113389,0.01145431,-0.18792817,0.1802969,-0.08002339,-0.15262735,-0.10676084
-0.14765951,0.023657108,-0.121819384,0.23469381,0.25660595,-0.123967074,-0.023919363,-0.22363055,0.042922005,-0.02402116,0.24844119,0.18743972,-0.0135190785
-0.114186704,-0.05008798,-0.18305054,0.10764379,0.18090013,0.17954816,-0.25597873,-0.2620987,0.057288293,-0.27532268,-0.15124631,0.21113116,0.28912973
0.100057445,-0.19924234,0.027786067,-0.012878121,0.27342883,0.18856388,0.1479775,-0.25844762,-0.19792087,0.038709994,-0.0790996,-0.12822114,0.14951399
-0.2380285,0.031110933,0.028640194,0.23448135,-0.05614427,-0.23668139,-0.23764254,-0.14331278,-0.16689348,0.19892132,0.11980123,0.08184756,0.2493915
-0.23214018,0.21844009,0.014657822,-0.19057547,-0.16675425,-0.117470115,0.08375062,-0.15449575,-0.16960676,-0.092674874,-0.12801692,-0.27620482,0.10611678
0.1174584,0.13888499,0.10138035,0.1898683,0.10173781,-0.03282458,-0.056188896,-0.08409983,0.30199394,0.14583161,0.2596237,0.3117091,-0.91042155
0.16522852,-0.07859992,-0.28464508,0.011896168,0.22710027,0.05547844,0.20229638,0.2633169,-0.12355355,-0.20772442,0.26155314,0.16973415,0.01251077
-0.20103,0.12916492,-0.22946373,-0.033707827,-0.2116899,-0.034223244,0.1757278,-0.0997409,0.12874615,-0.25120378,0.0833534,0.16386685,-0.044621132
-0.010811216,-0.2195081,0.013827441,-0.013168505,-0.024967408,-0.05385153,0.0942962,0.12517068,-0.0151153635,-0.045148864,0.17971174,-0.07767696,0.07808881
-0.08169788,0.16056515,-0.17105211,-0.095101036,0.1707638,0.08333733,-0.2383882,-0.12612808,-0.2581167,-0.024834743,0.2770687,0.07262606,0.24102527
0.25439987,-0.12726113,-0.26109007,-0.24970129,0.15102488,0.047775507,-0.24311379,-0.19892623,-0.22072764,0.19112848,-0.053512163,0.20285515,0.06213636
0.033447262,-0.27489063,0.17235963,-0.073568925,-0.15192853,-0.18699451,-0.2072062,0.21258418,-0.07003696,0.02780329,-0.20945212,-0.018555552,0.10147937
-0.11798698,-0.23624189,0.07622301,-0.028432772,0.013813742,-0.121974826,0.18806128,0.045998577,0.11964946,-0.111235626,0.25192177,-0.007884836,-0.18154803
-0.10407787,0.2177295,-0.11543692,-0.037520368,0.015036684,0.19026616,0.2014028,0.21900347,-0.05390326,0.1282178,-0.2009952,0.2556302,0.08988993
-0.18528107,0.09954677,0.17486364,-0.25738475,-0.14279433,0.034102056,0.12117515,-0.078300014,0.28108898,0.2511383,-0.034421887,-0.24155055,0.26436153
0.28081498,0.019178364,-0.24232014,0.125936,-0.04218609,-0.1254009,-0.25211778,-0.14247634,0.026997939,-0.03413067,-0.03390717,-0.056138616,0.030568218
0.034821775,-0.10125939,0.007208685,-0.14616348,0.022967879,0.1362448,0.22514112,-0.17187618,-0.27777576,-0.14655082,-0.23813476,-0.14161888,-0.25946903
0.12850587,0.08877086,0.16732481,0.12541845,0.20964217,0.22633332,0.0056673186,-0.042276703,0.1583111,0.07889356,0.23877007,0.06654259,-0.1228027
-0.24330744,-0.27163008,0.069927506,0.039676618,0.014648545,0.097476065,-0.19081576,0.20678501,0.21764278,0.23529467,-0.16101956,-0.25736558,0.23881075
-0.10992789,0.24605078,-0.16401832,-0.27337912,0.015438504,0.18781047,0.131962,-0.25204024,0.17749874,-0.06130626,-0.05334213,-0.039346557,0.22116835
0.05338374,-0.14540139,-0.10963822,0.18484871,-0.08956572,0.1765579,0.17910813,0.08073375,-0.22385216,-0.18127562,-0.25906554,0.032690786,0.24379858
-0.19495717,-0.042809423,0.18841843,-0.10633852,-0.05222473,0.045467593,-0.2496474,0.25813183,0.22088827,0.06897464,-0.1606958,-0.101556174,0.12888734
0.21892275,0.17998679,-0.07166922,-0.102708235,0.17920297,0.2667092,0.034642007,0.17574151,0.18505798,-0.27410904,0.24782671,0.2082838,-0.1960321
0.060064092,-0.023017187,-0.05403049,-0.06742995,-0.03604635,0.097059414,0.110911146,0.20154367,-0.26423287,0.23688799,-0.18140249,-0.082321174,-0.24021292
-0.2056229,0.17584035,-0.019246265,-0.17464721,-0.109697506,-0.016108613,-0.08044434,-0.1981214,-0.021268513,-0.17446014,0.11771855,0.0005227545,0.062016517
-0.041208327,-0.11016001,0.197384,0.1743498,0.016696194,0.26873422,-0.08654116,-0.15371825,0.28078678,-0.040004842,-0.053521886,0.05904822,0.0345405
0.22398226,0.09978739,0.16361158,0.0004694792,-0.040768966,-0.04506594,0.0032118135,0.11515793,-0.17295963,-0.12380253,-0.24327141,-0.20634925,-0.10977701
-0.14525387,-0.06773174,0.26677835,0.20591077,0.05899098,-0.098945744,-0.19275893,-0.25184894,-0.0727123,0.15286897,-0.27334946,0.043022055,-0.14038222
-0.11331143,-0.19076891,0.16238809,-0.05093407,0.14897558,-0.061352022,0.18438303,-0.050610602,0.01256847,0.16382855,-0.032870784,0.20328683,0.059780627
0.15664719,0.26337332,-0.101147056,-0.25765222,-0.09843088,-0.10771811,0.1230553,0.2682053,-0.1299589,-0.067193426,-0.118142545,0.06144331,-0.16504951
-0.048362475,0.016309103,-0.1521578,0.19690885,-0.050628528,-0.18939905,-0.21067269,-0.15989858,-0.09487512,-0.27221093,-0.14255139,-0.13515154,0.03318543
-0.23061351,0.25600013,0.2763564,-0.0069231326,-0.20809434,0.1548641,-0.12383581,0.21436465,-0.24599895,0.1697782,-0.06957888,0.09854158,-0.2422909
-0.039211974,0.11733041,0.2695933,-0.08352445,-0.24665612,-0.23823614,-0.17893876,-0.07456562,0.2531918,-0.1070803,-0.05351983,-0.10556371,0.21039233
-0.14189932,-0.26844594,0.0699718,0.16080917,-0.27532703,-0.037812036,0.22539777,-0.23641889,-0.12392362,0.028542837,0.13114217,-0.23616864,-0.03984668
0.17864047,0.22857419,-0.17454498,-0.10713129,0.21779287,-0.2043703,0.14807802,0.15400387,-0.13550565,-0.20861956,-0.20579216,0.18845886,-0.07210458
-0.25686955,0.21804808,-0.18032312,0.18783803,0.021475125,0.19347148,-0.10551633,0.061141096,0.21581377,0.008313831,-0.052787405,-0.1761778,-0.05793233
-0.029120045,-0.060248394,-0.044838917,-0.04611413,0.12494413,0.069750756,-0.019499866,-0.22321157,-0.10723664,0.024623752,-0.2504971,0.25319734,-0.0032479633
0.0463561,0.20903322,-0.024463296,-0.030472608,-0.07160285,-0.0294555,-0.109383106,0.15378544,-0.20218097,0.27535704,-0.058871195,-0.06959287,-0.18735132
-0.19963421,0.09693443,0.13764788,-0.057380047,0.18634558,0.22759734,-0.07810948,-0.14644822,-0.15504579,-0.25829735,0.14140224,-0.1324431,-0.009078325
-0.2569872,0.045174167,0.2343969,0.10144144,-0.0074469624,0.10785473,0.18649225,-0.06891804,-0.083156236,-0.0990652,-0.18415724,-0.2678013,-0.23217978
-0.066769116,0.13678136,0.053472355,0.20681868,-0.15059169,0.022309432,-0.05087561,-0.06336428,0.031128524,0.06744458,0.17842352,-0.016886212,-0.27689123
0.111911215,-0.1363512,-0.15976535,-0.18474096,-0.1775099,0.12154301,0.11554024,-0.2306038,-0.11306289,-0.20969996,-0.13780329,0.00045900958,-0.0035464384
0.13493623,-0.006020166,0.006450877,0.024219422,-0.25902137,-0.22913131,0.117187105,0.032474753,0.13479209,-0.008379901,-0.008533457,-0.008541389,0.008641185
0.06550873,-0.14252652,0.22600597,0.15996118,0.22227892,0.24508676,-0.2526837,-0.10205336,-0.18439713,0.13290274,-0.05291544,0.13655414,0.1088232
0.09357652,0.23407918,-0.13502657,0.13325472,-0.23077047,0.2545254,0.0919995,-0.16746272,-0.00047395393,-0.15179476,-0.2232928,0.21818686,-0.18472013
0.2404881,-0.12727259,-0.22918499,0.21589309,-0.10664552,-0.2735919,-0.1648446,-0.27484706,0.01573957,-0.09171087,0.13197482,-0.17609209,-0.24834113
-0.062292404,0.14625241,0.19199693,-0.04478298,-0.11688535,0.052858602,0.12285873,0.13699667,0.006076975,0.25097236,-0.17433827,-0.06593891,-0.048378564
-0.21199577,0.09865616,-0.22625951,-0.1460244,0.11332931,0.28245842,0.1573444,0.1927603,-0.030530041,-0.21023555,0.037084233,0.014078293,0.096624896
-0.26607272,-0.115754195,-0.098437935,0.0068862014,0.19323279,-0.23922585,0.0334831,-0.20574698,-0.27487466,-0.06836092,-0.14132796,-0.054133672,0.16826181
0.083077826,0.17597128,0.2569167,-0.098448604,0.09088225,-0.07837742,-0.0750324,0.1841921,0.089427836,-0.010158556,-0.09265175,0.13816707,0.14228106
0.12751576,-0.08688939,-0.113681756,-0.014580588,-0.1394259,0.045605045,-0.030460112,0.2524774,0.20939066,0.16330402,-0.17223935,0.07010498,0.10521681
0.08889063,0.033175066,-0.1807939,-0.16081887,0.1930403,0.06610568,0.0009101265,-0.035840876,-0.18040398,-0.13782923,0.23825297,-0.21334675,0.12439225
0.0018599981,-0.009777222,0.03162373,-0.13780326,0.18133079,0.03752419,-0.22718827,0.2631824,-0.23865193,-0.019242892,-0.078849524,0.10794967,-0.116313614
0.00066520815,0.24825834,0.028014032,-0.0045691556,-0.2258904,-0.2507444,-0.21856564,-0.0059663015,0.18592715,0.022042835,-0.1505097,0.16695724,-0.07918678
-0.0940475,0.22740409,-0.15711802,0.19155818,-0.15054202,-0.13154449,0.01746468,-0.19521561,0.15222435,-0.1936588,0.005767988,-0.25078335,0.1682595
-0.022090385,0.16866986,-0.12625267,-0.16765696,-0.21425101,-0.11742234,-0.1448255,-0.08186809,-0.2717582,-0.07689086,-0.012817188,0.021685632,0.109105974
0.23827289,0.2365391,-0.076279216,0.23050517,-0.2820076,-0.13389982,-0.00016299332,-0.13873681,0.16374767,0.17953528,-0.19682015,-0.028055241,0.23772784
-0.23381114,0.052922156,0.16927165,0.28254718,0.06888908,0.04501184,-0.24263006,-0.07584515,-0.17407851,-0.0757491,0.18508057,0.030411758,0.051598392
-0.21072477,-0.0839424,-0.21145317,0.16539474,0.13472469,0.028362818,0.19965634,-0.084047295,-0.095441975,0.2280822,0.1534062,0.06866531,-0.03410883
-0.18543124,-0.078804895,-0.17591573,0.03722355,0.094949186,-0.057653956,0.057053372,-0.2057747,-0.19564791,-0.041700672,0.106268965,-0.23415053,-0.17354189
-0.1092294,-0.087297305,0.22381437,0.2607808,0.084165715,-0.26758894,-0.2540609,-0.06865843,0.24504137,0.13263665,0.16777407,0.053846616,0.08173243
-0.062727466,0.13661213,0.07985596,0.09130528,0.098945215,-0.1267737,0.21462941,-0.15283851,-0.17826748,0.101708494,-0.07744136,0.07662653,-0.03255199
0.259357,0.38130173,0.11754964,0.061521534,0.073753156,0.03972682,0.25108063,0.097260855,0.19189134,0.19773388,-0.15234713,0.33034062,0.1264571
0.2438187,-0.24637665,-0.16094683,0.1444465,0.011358557,0.27306238,-0.1801869,-0.06222272,0.0024976737,0.11832402,0.04215724,0.16713351,-0.23616964
-0.16010432,-0.013710626,-0.088700935,0.1682289,0.21124475,0.12297079,0.11642862,-0.16739339,-0.05651686,-0.2505887,-0.17680405,-0.14242305,0.044445626
0.10465722,0.032928832,-0.21160552,0.07133697,0.049988598,-0.24250662,-0.04326208,-0.10023975,-0.11549535,0.18088713,0.0648008,-0.24364513,-0.06923942
-0.06335629,-0.019365326,0.0910186,0.08192438,0.0944024,-0.27274996,0.012365729,0.04942556,-0.15282258,0.09840555,-0.17344442,0.2822502,0.16566844
-0.23055364,0.080489315,-0.17506063,-0.14809062,-0.08891409,-0.19928662,-0.25521958,-0.19703764,0.07385518,0.10976363,-0.2408324,0.09314737,-0.031074714
-0.086453184,-0.10602301,0.093334295,0.22502586,-0.117000036,0.20788714,-0.07872807,0.041965198,0.03318835,0.042697616,-0.22799711,-0.13716047,-0.20099336
-0.05146495,-0.13401538,0.26460317,-0.19120678,-0.20947264,0.073068246,0.2201177,0.1594216,0.13204744,-0.22295575,-0.2026982,0.15902126,-0.13000491
0.20136711,-0.12217413,-0.039339367,0.017894836,0.27690127,0.08240647,0.14667961,-0.24198456,-0.10665146,0.23841031,0.06794653,0.23124248,-0.22550255
0.118047245,0.067803584,0.20534973,0.030806249,-0.21588093,0.023488756,0.14814797,0.25212112,-0.2605183,-0.17203692,-0.024439456,0.017209917,0.009313775
0.18944864,-0.24822316,-0.18679535,-0.14628719,-0.1572894,0.029290164,-0.056772523,-0.14520647,0.10920923,0.10385028,0.09777459,-0.09711535,-0.23631573
-0.05020473,-0.022844281,0.13145608,0.071071826,0.2071373,0.21888405,0.11891254,-0.06876706,0.057557445,0.015940655,0.08057789,-0.03627376,-0.15267718
0.23560485,0.08348056,0.1014722,-0.2863542,-0.27715313,-0.2836369,-0.10912569,-0.069881216,0.04538809,0.104446575,-0.18622172,0.21667945,0.24786454
0.25075233,-0.14754614,0.07056581,0.059421808,0.28107646,0.17811227,0.22745968,-0.23465377,0.10596642,0.23780596,0.2382254,0.11353462,0.26388532
0.23742448,-0.03730724,-0.14873147,-0.19451514,0.13602272,0.12555183,0.072670236,0.021216406,-0.15397386,0.1065461,-0.1822547,0.124860644,-0.107257396
0.2392335,-0.24026851,0.18095802,0.004825512,0.22275482,0.08923938,-0.054333236,-0.18663064,0.22786598,-0.19416107,-0.07927007,-0.08096673,-0.1214692
0.01019922,0.0035498522,-0.167852,-0.04095543,-0.15652612,0.20519455,0.08770112,-0.26278245,-0.25177014,-0.1626025,0.11539731,0.034378998,0.11130742
