0.025135545,0.0055401176,-0.017733326,0.006911162,-0.038069278,-0.03964637,-0.031151524,-0.016500788,0.00234347,0.057473443,-0.04850031,0.063186176,-0.019705258,0.039853334,-0.022693304,-0.08374346,-0.0057198615,0.043814577,-0.00023661554,0.054219823,0.012052439,0.0005448237,0.052857473,-0.008902982,0.03404297,0.023060163,0.012273576,-0.01634304,-0.03440209,0.019453976,0.038679413,0.0058378726,-0.002031732,0.06286306,0.015746132,-0.014834718,0.041805156,-0.025929227,-0.008498674,0.006762372,0.03365998,0.010892,0.034973267,0.02876368,-0.011651249,-0.02218232,0.034228597,-0.05802568,0.028207356,0.0014148279,0.055680066,0.028453304,0.030176625,0.0669348,0.00018642098,0.05390675,-0.031675242,-0.2699529,-0.04246141,-0.020427033,-0.04799936,0.017543674,0.061226793,-0.026168287,-0.008555293,0.00041440874,0.05748742,0.059744716,-0.041223697,0.04347633,-0.036506407,0.049660455,0.008512045,-0.015877482,0.06180111,0.012214347,-0.039704733,-0.03838438,-0.028798409,-0.23880033,0.059151962,-0.023933522,-0.15395814,0.049405605,-0.015961615,-0.01375798,0.06993195,0.046199974,0.0060338303,0.03435815,0.004179,-0.046276424,0.038990363,0.059407745,0.046295043,0.05733494,-0.032325268,-0.0036906227,0.024282478,-0.045625746,0.04600749,-0.03614395,0.037392102,-0.00461432,-0.029061168,0.041975446,-0.03058644,0.014709936,-0.044716112,0.045157045,0.038325846,0.041217446,0.05074794,-0.021802263,0.03952168,0.042215977,-0.01980837,-0.047062974,-0.14805745,0.028011099,-0.003020004,0.029846705,-0.012823254,-0.022267532,0.033574626,0.065717936,0.063442826,0.057536185,0.051144104,0.022731535,0.04306794,0.043334663,-0.027317986,0.054078106,-0.0058527426,-0.022636548,-0.009016828,0.02810502,0.0520925,0.026025252,0.030861072,0.023895025,-0.03284267,0.0025621408,0.026847748,-0.026978718,0.021817697,-0.005673829,0.017502341,0.04101488,-0.047510616,-0.08628886,-0.04950305,-0.008084937,-0.020207008,0.031127699,-0.040536974,0.071984574,0.048465446,-0.0024789744,0.061506435,-0.025895873,-0.007129857,-0.04037478,0.05035772,0.014796935,-0.047427595,0.03569284,-0.033199683,-0.0014226947,0.056663472,0.0032808785,-0.04726065,-0.04331139,0.06938269,0.0500222,0.041992627,0.010024192,0.013323632,-0.034094114,0.00181395,0.055886775,-0.25789106,0.03981083,0.05076327,0.054767847,0.06851662,-0.039085962,-0.049065523,-0.03633685,0.03922221,-0.045768507,0.040812522,0.036503665,0.02239408,0.016525302,0.07122182,0.038208403,0.056190826,0.030253844,-0.02876907,-0.04773338,0.03666993,0.032742124,-0.04231356,0.013504334,0.038605068,0.022778785,0.029835135,-0.016537102,-0.061034404,0.0031936998,0.008761583,0.037177105,0.05508983,0.02184073,0.0474917,0.0010882439,-0.039087757,0.05330487,-0.03807017,0.0584777,-0.04856899,-0.003775804,-0.0024929184,0.06101708,0.06421176,0.026752993,-0.046002038,0.05533617,0.06554759,0.030502632,-0.00081213564,-0.022489049,0.057442397,-0.03125024,-0.021801881,-0.009357431,0.036049627,-0.02879441,-0.015175699,0.055671155,-0.017040381,-0.0123881325,-0.04509171,0.0072789225,-0.04016443,0.044091195,0.018533751,-0.045598295,0.0029851273,-0.021328773,0.028564649,0.037863612,0.016358525,-0.0501892
-0.023127649,0.01632604,-0.017965253,-0.026222974,0.03209324,-0.008458563,0.02859073,-0.013715122,-0.012066076,0.01666116,-0.01778328,-0.04911105,-0.00091183186,-0.034044378,0.041571856,-0.04917339,-0.053593088,0.04543718,0.029712036,0.04325823,-0.0048582256,-0.056513183,-0.013453886,-0.05411183,-0.059987172,-0.028248282,-0.026513904,0.045498583,-0.034510206,-0.049979147,0.04347752,0.038814396,0.003701613,0.03722522,0.009431794,0.021619426,-0.007177621,-0.040278018,-0.028639732,-0.03801831,0.013574116,0.00813573,0.02246765,-0.010310281,0.002282684,0.043243796,0.04726266,-0.0525786,0.02400698,-0.06448647,-0.03254971,-0.018355146,-0.03499886,-0.020082751,-0.019107178,-0.044551346,0.011961557,0.0464972,-0.022027804,-0.06348328,0.05747068,-0.05222784,7.8223646e-05,0.014498875,0.035552032,0.04561504,-0.011154719,-0.059328735,-0.02255572,0.014744826,0.009940736,0.046466723,-0.059719868,-0.042925324,-0.038929608,0.024735998,-0.040567387,-0.067759424,-0.03097412,-0.023801804,0.03445924,-0.020930031,-0.031079743,0.030437471,0.028944533,-0.004226588,-0.018123364,0.005684286,-0.01648049,0.035894208,0.05135304,-0.04042851,0.011999935,0.046273228,0.0379189,-0.060508393,-0.04883253,0.05203682,-0.027396198,0.030520711,0.0027774367,0.052460335,-0.05148767,0.014205477,-0.008824348,-0.01915904,0.032477915,-0.022387788,0.0027985985,-0.022849225,-0.0479277,-0.03413535,0.01667351,-0.024101527,-0.01281026,0.031216731,0.023662176,-0.030375408,0.0452982,-0.006944156,0.034638647,-0.011389682,0.007416919,-0.004991277,0.04131794,-0.06519624,-0.011385058,0.044734687,0.054040633,-0.06872154,0.020404704,-0.052573264,0.018437028,-0.026108205,-0.0012482345,0.018764256,0.056306064,-0.06641098,-0.032003596,-0.009451597,-0.0020558834,-0.01759682,-0.017784009,-0.023973396,-0.006047956,-0.030806487,-0.053638887,0.068789564,-0.014989723,-0.0500975,-0.009308762,0.048531234,-0.009503888,-0.032693967,0.019896759,0.04500723,-0.035723593,-0.062432885,-0.022787616,-0.050791755,-0.016132064,0.020594537,0.017048731,0.00297945,0.029890208,-0.0029783186,-0.035083994,-0.062249362,-0.060021274,0.0018360623,0.021030143,-0.0012860311,-0.038194306,0.037465446,-0.016654646,-0.005553789,0.0015267134,-0.051080503,-0.036027335,-0.037404783,-0.021092487,0.018228814,-0.015197234,-0.0080929985,-0.011398695,0.03148291,-0.070517436,0.01724101,-0.030592792,0.040480964,-0.0044114958,-0.069848165,0.009155498,0.0071476125,-0.011174153,-0.012007049,0.031249555,0.021114178,0.024086602,0.020306151,-0.013178651,0.021584623,0.053176768,-0.04204447,0.04051628,-0.025110839,0.04368087,-0.00853921,-0.05477412,-0.0052950587,0.003344506,-0.04212564,-0.049817197,-0.053898074,0.0077646524,-0.010344714,-0.030891038,0.004992117,0.058167182,0.0060385335,0.050933216,-0.04680495,-0.03348259,-0.032999326,-0.0059223035,-0.04264251,0.016679203,0.04899344,-0.006778872,0.05130922,-0.034742136,0.036268093,0.00602524,0.02183398,0.00027353613,-0.018018063,0.035567164,0.0019164246,-0.05088798,-0.012120458,0.049487423,0.04979457,0.0048545366,-0.052218903,0.05461345,-0.014603752,0.054083344,-0.067780204,0.04379322,0.0022687071,0.040216565,-0.012962386,0.052052554,-0.04147593,-0.033040687,-0.010354527
0.011553037,-0.045025483,-0.053697553,-0.060072955,0.031554453,0.011015602,-0.030999396,-0.026288794,-0.04063017,-0.013997398,-0.063660026,0.06298182,0.010930896,-0.0027714223,0.00928048,-0.02150322,0.021330196,-0.057469945,0.057677627,-0.016500004,0.021693073,-0.03584353,0.032647036,-0.032530263,-0.019963078,-0.054636367,0.048782706,-0.0013627945,-0.03137899,-0.004609326,0.05368721,0.040520944,-0.06265083,-0.051365696,0.0133437365,-0.066413976,0.04608543,-0.00812804,-0.014241083,-0.06415536,-0.022381218,-0.0052688145,0.034849208,0.01698395,0.009191621,0.04783534,-0.0066924356,-0.00816036,-0.02164945,-0.01733936,0.031222763,0.01724114,0.0050384654,-0.024633855,-0.019828841,-0.036004074,-0.06004203,-0.0136422645,-0.00092940487,-0.0052559976,0.012531646,0.052407105,-0.01565633,0.04425426,0.037198924,-0.058405124,0.012207754,-0.018361948,-0.050701883,-0.04362733,0.062417984,0.0043762214,-0.020106167,0.0063104853,0.013247568,-0.050138596,0.022494743,0.03676538,-0.051527973,0.024904916,-0.005001456,0.034071542,0.014460543,0.04769758,0.0048017777,0.031675495,0.027053216,-0.0013552867,-0.031066664,-0.062116653,0.000315875,0.029137524,-0.04484786,-0.02687175,-0.03589323,-0.02527447,0.027437791,-0.016738895,0.023537315,0.03225976,0.014482202,-0.055317536,-0.00323425,-0.022553148,0.040801615,0.03918981,0.046019424,0.03524854,0.00062139693,0.05608645,-0.037331603,0.009662159,0.0007758291,0.03667176,0.0069797128,-0.044748317,0.0068789143,0.03770318,-0.013050412,-0.068605915,-0.05993696,-0.029042598,-0.025558218,0.050161824,0.009515547,0.008331307,-0.00661827,0.0014820471,0.01791556,0.046130262,-0.06760079,0.01167988,0.050854534,-0.035836615,-0.043138407,-0.055770945,0.005414135,0.036820058,0.0014700564,0.022716688,0.041388452,-0.022182787,-0.05543259,-0.059828494,-0.061167166,-0.027616415,-0.0042973133,0.02509642,0.021946184,0.024476591,-0.04971097,-0.053451784,0.05169817,0.010702196,-0.008530378,-0.0077804923,-0.030589722,0.0029034202,0.036664665,-0.03450788,0.037580863,-0.021556947,0.027555892,-0.047477864,-0.068741776,-0.06497806,0.0214933,-0.048001207,0.03232333,-0.0040177465,0.0051905126,-0.027236907,0.05111831,0.03730363,0.044342574,-0.054857966,-0.06027277,0.027069665,-0.0198666,-0.055970494,-0.013953253,0.019243494,-0.027239844,-0.052098803,0.019678317,-0.028341709,-0.049728982,0.026770582,-0.055525757,-0.04674479,0.016029166,-0.052295048,-0.019660875,0.04701865,0.036533173,-0.009691864,0.007678181,0.056447,-0.068040684,-0.044328593,-0.013997004,0.00014857948,0.013846577,0.05393095,0.05148381,-0.0017438742,0.035387885,0.041563854,-0.010061644,0.04060191,0.052451283,-0.04940531,0.041246053,0.0014227326,0.005354598,0.053403594,0.04126679,-0.004975019,-0.06204199,-0.010873333,-0.002784577,-0.02977889,-0.05721072,-0.026973609,0.036632624,0.012742437,-0.015613922,-0.051117085,0.008521294,0.011775487,-0.0050167846,-0.011125557,0.00851956,-0.04567661,0.040279176,-0.039267696,0.016843542,-0.028577343,-0.032786243,-0.044963904,-0.05043544,-0.049929317,-0.019691274,0.003931907,-0.023336649,-0.0017163549,0.03157971,0.012272919,-0.026190639,0.034808654,-0.06213978,-0.069330856,-0.039743192,0.04974504,0.05185297,0.021718064
-0.066689506,-0.009594902,-0.03894986,0.045883667,-0.022643276,-0.01143549,-0.06582345,-0.010989142,-0.060626466,-0.029599488,-0.050849512,0.041548796,0.042827897,0.040571578,0.057301592,0.044701613,-0.002494279,0.010340403,0.011201814,0.004579506,0.035169967,0.0034274086,-0.0617989,0.011616781,0.057820722,-0.05543143,0.020264767,-0.038969554,0.023086883,-0.01891877,-0.012026914,0.017710567,0.015968597,-0.063295946,-0.029166892,-0.007018673,-0.011860076,0.056748293,-0.04273828,0.016050452,-0.03947595,-0.057989873,0.029445615,0.012798259,0.02442387,-0.051040262,-0.03179485,-0.0052176565,0.008574748,-0.031431686,-0.03893604,0.035628833,-0.015068332,0.05241746,-0.05934149,0.05513137,0.055439822,0.064468905,-0.0023619586,0.061973244,0.021544732,0.023378678,0.061922185,-0.047393702,-0.004649259,-0.027593985,-0.001555346,-0.019597962,0.026822759,0.05943688,-0.0018621534,-0.0479895,-0.021387504,-0.037883572,0.00065274973,-0.041202784,-0.04344594,0.030103171,0.023592532,-0.036774255,-0.054949537,0.026683724,-0.050944425,0.008533131,-0.015046913,0.043500274,-0.018737972,0.047088355,0.032934584,-0.05313664,0.051051907,-0.045385383,0.04343611,-0.05623417,0.05098396,0.050050158,-0.012959726,-0.007086532,0.051924262,0.0015662792,-0.013738417,-0.05071278,0.004362678,0.0012238177,0.034218267,-0.020486042,-0.035939503,0.02218005,0.018078825,0.061092645,-0.05744771,0.03742463,0.018354718,-0.03023533,0.05689565,-0.06287831,0.037042633,0.03883421,-0.005856678,-0.06609451,-0.017507805,-0.03063942,-0.027091704,0.0054742154,-0.032748327,-0.06620035,-0.049546555,0.042948864,-0.06195659,-0.042341713,0.03321962,0.048758782,0.004471518,-0.051315606,0.020153096,0.056346785,-0.027932785,0.049983364,-0.009233999,0.008742961,0.030233115,0.050633326,0.03419199,-0.048621893,-0.033115443,0.053393427,-0.018418932,0.0031575486,0.0071939635,-0.011313811,0.03640946,-0.013548568,-0.03792648,-0.036001403,-0.04570782,0.047656976,0.04846112,-0.052606504,0.04007984,0.02718472,-0.052354984,0.0035128742,-0.01121592,0.003979586,0.019513167,0.04939563,0.032125704,-0.04777537,0.02403678,-0.027717032,0.033180565,0.017184943,-0.058261197,0.024674514,-0.050716173,0.056081742,0.03915552,0.038593326,0.0543066,-0.02232151,-0.023391556,0.046181716,-0.014107572,-0.003204943,0.046701156,-0.05099247,0.019572917,-0.015917538,-0.014761426,0.04518554,0.055144873,-0.03931875,-0.0034998006,-0.027983325,-0.0012193858,-0.011706531,-0.045918852,0.0014091209,0.0065318123,-0.054349296,-0.010844,0.011195853,-0.06143089,0.015982538,-0.052478634,0.032582186,-0.060645085,0.05338614,0.023041911,-0.052327707,-0.05315101,0.034311622,0.059042357,-0.039225906,-0.0343806,-0.056592006,0.03411195,-0.06059344,0.029705793,-0.0019262444,-0.031208871,0.054460816,-0.05807087,-0.03895603,0.01126991,-0.029251881,0.04945586,-0.06079819,-0.05585987,-0.052212656,-0.041265856,-0.026796892,-0.03445404,-0.030058084,0.030450799,0.04675174,0.017113395,-0.041684877,-0.014131516,0.050671294,-0.047520284,-0.04086684,0.042325024,-0.018682167,0.06155003,-0.035722632,0.05365315,0.052647103,0.060587887,-0.008092998,0.04732839,0.020508215,-0.025183903,-0.0006295344,-0.0004314438,0.017891683
-0.04573284,0.028952926,-0.022873763,-0.03949464,0.012218222,0.0043958114,-0.0013540508,-0.025961688,-0.03481333,0.0011076555,-0.03768397,-0.024385177,0.014941305,-0.042914763,0.028271025,-0.0072187143,-0.020229248,0.019196615,0.060247496,0.033415865,-0.0025764704,-0.04543566,0.038015217,0.058805503,-0.036480024,-0.015077198,-0.035637397,0.0005646935,-0.036178906,-0.050852172,0.018383285,-0.021500692,0.022056555,0.020979121,0.06150978,-0.037969273,0.06072345,0.04911679,0.047887646,0.007924041,0.0689902,-0.0054760263,0.034390878,-0.015163662,0.04998149,0.018042145,0.012629719,0.053169116,0.06714267,0.056760564,-0.034814324,0.011907034,-0.036401104,-0.04858028,0.05209352,0.04371584,-0.03352602,-0.44400784,-0.018560404,0.15978001,-0.035800084,0.031446386,-0.036089264,0.053628013,-0.012318738,0.023701556,0.057688445,0.04541087,0.0017683629,0.013787247,-0.04240714,0.002404341,0.051427286,0.011689791,-0.048112903,0.046529245,0.028312666,0.008531747,-0.03413735,0.013711963,-0.015128392,-0.028717328,-0.2408545,-0.051796634,0.017589226,-0.03775392,-0.053832553,0.03538353,-0.033232875,-0.040948417,-0.026937187,-0.015619938,-0.032321945,-0.052181773,-0.0053207558,-0.012972922,0.00906672,0.031914208,-0.014542616,0.034234833,-0.006074509,0.050460614,-0.02762567,-0.051976673,-0.0012685508,-0.01767052,-0.0044753207,0.060116902,0.021476349,0.028299116,0.031093664,-0.01705283,-0.028545855,-0.049202472,0.031661697,0.061765272,0.066176124,0.003006376,-0.15516402,0.05118695,0.047487706,-0.020491386,0.02515003,0.06667159,0.042965967,-0.003781569,0.03441814,0.018716767,0.01063693,0.021061515,-0.021530027,-0.022129834,-0.0111413235,0.04065445,0.026734147,-0.0380131,-0.041697226,0.014155957,-0.027093263,0.060631495,-0.055244915,0.043696176,-0.03627796,0.016794713,0.05655193,0.062212206,-0.009640819,0.035761945,0.01478058,0.054587644,0.042007603,-0.15840212,0.03437371,0.016854417,-0.02149019,0.05021228,0.010346633,0.039009064,0.03914801,-0.016911548,-0.038066156,0.034279622,-0.040945016,-0.022527777,0.031575177,0.069690436,0.036852866,0.055831492,0.05325476,0.02780499,0.024049606,0.040681593,0.028556658,-0.022697696,0.06796806,-0.010281247,-0.04476533,-0.03804655,0.0010009917,0.03100679,0.053958226,0.029214181,-0.2505997,-0.001860812,0.029552735,-0.043716136,-0.05211023,0.05560133,-0.003099814,0.07215622,0.045237843,-0.02073482,-0.040130194,0.05611612,0.04871122,-0.026733348,-0.0023263854,-0.03616205,-0.015689174,-0.008633047,-0.01784831,-0.059463292,0.008775578,-0.011339663,-0.0074173957,-0.010338047,-0.010507193,0.03376183,-0.01709126,0.040475722,0.03366694,0.021442696,-0.03835284,-0.010071681,-0.053849787,-0.032880362,-0.013520984,0.035458963,-0.016822673,0.015120645,0.02221377,-0.011474088,-0.00618541,-0.037571266,0.05479143,0.028863609,-0.013822833,-0.0029418692,-0.03564575,0.027472686,-0.05143257,0.03666038,0.0028875545,-0.028994836,-0.022638787,-0.001288732,0.009795323,0.007868501,0.010431416,-0.25525415,0.056187335,0.045489002,-0.030254733,-0.0043949885,0.008994818,-0.00057274307,-0.0111628175,-0.0025722727,0.034962706,-0.036225963,0.010870226,0.04439952,-0.049805056,-0.017239217,-0.023848746,-0.020985685
-0.057620965,-0.01176136,-0.0078057647,0.0003471747,-0.034834698,-0.011826418,0.03447576,0.0057781413,0.03473703,0.033811137,0.021188878,0.029113151,0.05969239,0.03216297,-0.045750685,0.0036129653,0.03651084,-0.056987204,0.029512927,0.056075566,-0.009825759,-0.00926774,0.034494765,-0.022440553,0.018602021,-0.037306234,-0.04991661,0.0341416,0.0038615838,-0.054440096,-0.055304497,0.032982737,0.042505883,-0.012488939,0.036795475,0.04717412,0.007243529,-0.05258991,-0.009664819,0.026567176,-0.032952018,-0.010731518,0.044293992,0.040695824,-0.038644843,-0.014445059,0.053818896,-0.0005965829,-0.010883436,0.031905703,-0.01257287,0.048514165,-0.019760251,-0.044121303,0.061135635,-0.020532243,-0.05845666,-0.035370745,0.004336871,0.01912845,-0.04913032,0.031192794,-0.008374609,0.037772007,0.04139419,-0.019685157,0.05645985,-0.014143631,0.018317573,-0.030821078,-0.029152118,0.055558383,0.028063498,-0.03740251,0.057200104,0.010443985,0.04757797,-0.05553866,0.056074567,-0.00082501024,-0.059827954,-0.00422851,-0.011008561,0.005959712,-0.05967155,0.048579477,0.00649897,-0.058623098,-0.046347335,-0.05633375,0.033174597,-0.0020513684,-0.062041953,0.052004375,0.026027188,0.040561773,-0.016763844,-0.04084263,-0.019671611,-0.031732835,-0.04679787,-0.017545566,-0.03310024,-0.013602495,0.022948138,0.0107552335,-0.056944966,-0.0070065036,0.051585525,0.026762836,-0.039355986,-0.04265316,-0.017576367,-0.032075576,0.044904396,0.005222887,-0.0037346408,-0.017643057,-0.02560205,-0.013756797,-0.022293635,-0.04197357,0.0021957383,-0.033529088,-0.01081834,-0.011460558,-0.023071416,-0.011505701,0.014824718,0.03425669,0.05762524,-0.059543468,0.021025449,-0.059322394,0.046315968,-0.03334575,-0.026756607,-0.037040368,0.051845185,0.05258792,0.050255485,-0.03421033,0.025951765,0.033206247,-0.038925573,0.009785749,-0.0380499,-0.021142371,0.012403533,0.027291536,-0.012165248,-0.0073291287,0.015059181,-0.037959106,-0.008038841,-0.013169944,0.013199307,0.017602414,0.000246495,-0.024417952,0.01700677,0.003115654,-0.009953462,0.056524523,0.02999831,0.05941868,-0.053738475,-0.0058954507,0.016000919,-0.02386678,-0.01261051,0.04495821,0.008315876,0.053091764,0.0091944635,0.00819952,0.012767278,-0.042650104,-0.0267407,0.004260294,-0.04069429,0.05778908,0.021702506,0.0050552636,0.0114004165,0.055051222,0.0037545934,-0.02149859,-0.028284699,-0.03756938,0.032533303,-0.032843903,0.04145635,0.031423792,0.047688298,0.05993507,0.011137955,0.049717993,0.029910736,0.05998972,0.012463778,-0.014277808,0.055204496,0.0016000122,-0.033461377,0.023372293,-0.018520512,-0.055579394,0.041925393,-0.04422859,0.03214843,-0.047916874,0.051159278,-0.04189127,-0.033745684,0.0093608275,0.033962995,0.016222388,0.041914538,0.011481032,-0.054606155,0.0104974285,0.05271115,-0.004645519,-0.053488933,-0.02082549,-0.031365857,-0.027455755,0.052726217,0.011385277,-0.022685029,-0.03414455,0.012512803,0.015495233,0.011039659,-0.0021092892,0.020677716,-0.034946688,-0.031943396,0.055419154,-0.009239562,-0.032835126,0.06059674,0.03617049,0.03536009,-0.027460992,-0.032709017,0.03803502,0.03634558,-0.033651672,0.05428917,-0.044552505,-0.06027691,0.036558643,-0.017197348,-0.032409452
0.01086057,0.041916296,0.050707743,0.05384875,-0.01294928,0.045808442,-0.035056688,-0.006136939,0.011601508,-0.055896923,0.0062793866,0.023150988,-0.004496783,-0.052442864,0.040378302,-0.034391783,0.060395643,0.011633724,0.0110746175,-0.03454721,0.0034834892,0.041856594,0.02601716,-0.015671581,-0.016761295,-0.033125505,0.018955454,0.008878879,0.013066575,-0.011212528,0.024695545,-0.01215703,-0.001412645,-0.020972677,-0.05786492,-0.04355959,-0.007118538,-0.020846196,-0.05910574,-0.0016650707,0.01073534,-0.017428845,-0.05507849,-0.030222408,-0.03113056,-0.03342151,0.0030957758,0.0053449497,0.017149389,-0.04055863,0.01258418,-0.055035196,0.025204472,0.06186302,-0.033928484,0.021849088,0.06124731,-0.021714896,-0.012125477,0.019833602,-0.0042047277,0.031562544,-0.032641828,0.009363376,0.025158197,-0.04098133,0.03348141,-0.043362424,0.047690436,-0.019481719,0.0013525188,0.023588791,0.052657597,-0.039202265,0.0023126155,-0.043175094,0.060906194,0.006711781,0.03875108,0.03691507,0.042805105,0.053028204,-0.043806948,0.034080982,-0.031257026,0.045335248,-0.040297814,0.019470192,-0.0072020367,0.015330069,0.020822205,-0.03927338,-0.054791756,-0.058249727,-0.032834575,-0.0013803989,0.008857116,-0.05903729,-0.0079946965,0.006654784,0.050873592,0.026964046,0.04699722,0.02109953,0.032482103,-0.049713925,-0.012406915,-0.045260467,-0.012113191,0.036392562,0.010469034,-0.058023028,-0.036897562,-0.034461528,0.060516812,0.049410418,0.037628554,-0.0021059737,-0.009368807,-0.026247285,0.0014357567,-0.038991213,0.010612629,0.026397817,-0.03950815,-0.049471542,-0.06032364,-0.007985957,0.013117,0.03412579,-0.03689579,-0.02174151,-0.049554154,0.04016283,0.04216692,-0.0017690286,0.055894665,-0.04773049,0.027186356,0.04592169,-0.057889327,-0.051527046,0.025795013,-0.05562403,0.053279497,0.04590448,0.008704133,0.04396432,-0.028751716,-0.029730968,-0.052779816,0.031297244,-0.00855948,-0.0029504746,-0.048351265,-0.003611192,-0.006582156,-0.030149706,0.010415778,0.027851835,0.020584844,-0.019886091,0.050836027,0.029324517,0.030797042,-0.03945469,0.05216609,0.018131368,-0.035360515,-0.019145533,0.023112193,0.061522678,-0.00045003742,0.041163526,-0.023021072,0.052071065,-0.006405048,-0.051389687,0.008838899,-0.04491934,-0.03946814,0.058007367,-0.027762517,-0.052692704,0.053316645,-0.024470404,-0.028498873,-0.059816867,0.015323296,-0.055629544,-0.038558,-0.011589676,-0.039363496,0.028978363,0.027799055,0.042222112,0.038570315,-0.053097606,0.054619074,0.053824753,-0.058709703,0.02674207,0.012978181,0.016125485,-0.04279045,0.008921355,-0.012741119,-0.056654595,0.014163926,-0.029267922,-0.004234262,-0.047501035,0.043176465,0.060448162,0.04083351,0.056516968,0.018183775,-0.041979313,-0.008461535,-0.009638272,0.05228816,-0.029143386,-0.029813953,-0.04887232,0.03590797,0.020202793,0.028697073,-0.0015915558,0.0018822253,-0.012331396,-0.035740048,0.04061017,0.0051763654,0.039206207,-0.043527745,0.030740924,0.014264561,-0.049379036,-0.03793282,-0.007327087,0.025135413,0.01950927,-0.037304573,-0.024700657,0.025408424,0.031731643,-0.009123534,-0.060115084,-0.055312023,0.039539434,-0.008397318,0.026913546,0.023313351,0.014002703,-0.053574167,-0.050981417
0.0052538696,0.022388257,-0.037390023,-0.03945437,-0.012338579,0.0045395372,0.04912746,-0.04748038,0.06529577,-0.038389876,-0.021533364,0.075739205,-0.048070423,0.033781767,0.048769157,-0.24381927,-0.05223636,-0.024925618,-0.03509385,0.034290694,-0.059564866,0.026669778,0.018196903,0.013646983,0.059795663,0.063715525,-0.04853559,0.038180836,-0.00022041393,0.003081764,-0.045261554,0.014965035,0.026427384,-0.008807859,-0.01889953,0.06756138,0.036433086,0.03422445,0.033193473,0.06524921,-0.027712135,-0.041408353,-0.030824684,0.06984173,-0.043407004,-0.04249704,0.015023595,0.032266654,-0.022169756,0.068105355,-0.0161611,-0.049727995,0.07092706,0.039390706,0.016294666,-0.050799675,-0.017010234,-0.36145464,-0.026870778,-0.061537568,-0.0044092536,-0.00026909058,-0.04251425,-0.056333564,0.056619763,-0.002064906,0.0020065457,0.011918664,-0.03894341,-0.020238362,0.058529057,0.052781958,0.047885336,0.06496162,0.0038351298,0.061183494,0.03393601,-0.0451783,0.0504528,-0.0061034192,-0.020740623,0.0458993,-0.113901876,0.020411205,0.068374425,-0.031876728,-0.01633549,0.027602598,0.040433295,-0.0434657,0.02467283,0.0357953,0.017436624,0.05317012,-0.020038884,-0.011947608,0.005409562,0.03902243,-0.008496926,0.0039385282,-0.00537079,0.058991224,0.034414086,0.03337306,-0.03384497,0.029525885,-0.047558885,-0.044490125,-0.046886336,-0.060461223,0.027564175,-0.03056781,0.036290627,-0.036649406,0.04561473,-0.019489182,0.04838506,-0.033669226,-0.16327015,0.032587726,0.0493298,0.056577213,-0.031170271,0.0012594821,-0.036850046,0.06438282,0.00921043,0.023570709,0.073638916,0.06775818,-0.03031052,0.051882826,0.025264572,-0.048197944,-0.032541167,0.070934184,0.0020645987,0.046336148,-0.020981789,7.200305e-05,-0.03671938,-0.0071096923,0.035368696,0.060165912,0.031174341,0.0025902248,0.058850214,-0.032302275,0.072400026,0.009758644,-0.023994274,-0.0072059114,-0.046817686,-0.027069846,-0.0065426673,0.044172645,-0.014711735,0.019306745,0.034432814,0.03852131,-0.032120652,-0.030865623,-0.047017224,0.015852518,-0.020418681,0.05098877,-0.0009988248,0.041941572,-0.021523692,-0.052348934,-0.049802333,-0.01071412,-0.014801165,-0.04769928,0.03730978,-0.045993295,-0.030178696,-0.02204654,0.054837793,-0.032937568,0.057390984,-0.00883089,-0.2901796,-0.030801987,-0.0042944998,-0.046586998,0.034211013,-0.045755364,-0.044070095,0.03789055,0.030089334,0.047819436,0.0054249717,0.032456502,0.054667316,-0.0010929167,0.039848696,0.0032455102,0.05727046,0.056086447,-0.022311846,-0.039641395,0.051961057,-0.012943892,0.033972584,0.030401953,-0.013046299,-0.046930272,-0.04544407,0.02344885,-0.024648525,0.034316882,0.028341042,0.058500014,0.052296244,0.05760175,0.057510253,0.027883425,0.037610464,-0.032386094,0.047510985,0.003366746,0.01809416,0.042689014,-0.018672798,0.03791751,-0.023846649,0.016404837,-0.03466551,0.04182653,0.061347693,0.007618211,0.060707137,0.0061886273,-0.031414703,0.053760834,-0.057858206,0.03789545,0.045110986,-0.11397679,0.05720002,-0.03650093,0.0602045,-0.021555897,0.061226413,-0.028199587,0.052468717,0.07123672,0.04532892,0.04820722,-0.013024256,-0.04023321,0.070277676,0.02742778,-0.036829345,0.03685978
-0.052401163,-0.053676024,-0.011439703,-0.0072585195,-0.03784331,-0.010156088,0.040664017,-0.036978856,0.012434885,0.0599375,-0.02965007,-0.0542583,-0.013684489,0.05377634,-0.004616007,0.011960246,-0.012050897,-0.006232947,-0.0407449,-0.03670221,-0.02590102,-0.0015297905,-0.01510077,-0.010152318,-0.04250723,0.04918234,-0.031626686,-0.030606836,-0.043891214,-0.026423119,-0.0019552782,0.014930218,0.020475753,0.036655046,0.051775597,0.009897895,-0.0013327897,-0.03259141,-0.028591134,-0.046542555,0.04305774,-0.04539813,0.037865356,-0.027536266,0.01221519,-0.0025155544,0.04027281,-0.02451022,0.01326482,-0.011746377,-0.038382165,-0.020014301,0.010881111,-0.034682028,-0.041679367,0.035463594,0.0061569065,0.053759366,0.008314364,0.05740305,-0.03692525,0.004971415,-0.013590872,0.0040879026,0.017125756,-0.026807263,0.056779772,0.0036358908,-0.0013301969,-0.009961866,0.008346602,0.013743408,0.018235661,-0.05076258,-0.059829064,-0.020889536,-0.02574715,0.044212624,0.016557805,-0.06173934,0.059791423,-0.060231984,0.024484307,-0.04897107,0.005572602,0.019945003,0.028355636,0.060182475,0.051487043,0.035627834,-0.0003228113,0.056941748,-0.0049671456,-0.01492434,-0.062384598,0.0023033842,-0.043750733,-0.032055855,-0.033643633,-0.055001087,0.04053782,-0.03852433,-0.048959427,-0.032439515,0.039417945,0.01444564,-0.00014650822,0.024496622,-0.03396386,-0.02692543,-0.03342229,0.050471775,0.061649658,-0.04407876,-0.0100118,0.019319072,0.032327212,-0.0057330653,-0.029686227,0.02450683,-0.039412834,-0.06087675,-0.044469215,0.018063962,-0.00012755394,-0.050163813,-0.032901227,-0.03383474,-0.009513937,0.043669336,0.058457807,0.002089478,0.015687399,-0.03110075,-0.02720479,-0.0537375,0.047503397,-0.02650617,0.0028861612,0.0006723255,0.0040339455,0.057940558,0.014524333,0.042443767,0.03370613,0.028559707,-0.029189125,0.015973695,-0.016804092,-0.041375242,0.027914204,-0.037336968,-0.04970921,-0.020843402,-0.04524444,-0.04218904,-0.030133285,0.05257076,-0.024425298,0.042759486,0.045379393,0.02813059,0.015500478,-0.03445953,0.06032201,-0.049484335,-0.059202462,0.049143314,0.029039636,-0.0468909,-0.011337467,-0.024738118,0.0430803,0.021212578,-0.009218954,0.006954886,-0.046777986,-0.014875054,0.03350178,-0.04272023,0.05779378,-0.044714227,-0.054482512,-0.00096789,0.020164795,-0.029842816,-0.019759156,0.021945305,-0.04794421,-0.04546827,-0.06025897,-0.04687321,-0.039018914,0.048287988,-0.049108736,-0.047108844,-0.047223024,0.0049871206,0.038629152,-0.033637397,-0.01617439,-0.004573256,0.041048825,0.051281214,-0.016725384,0.028019331,0.04483909,-0.048247978,0.013016611,-0.017655917,0.032476246,0.027634926,-0.021264069,0.0022298172,0.046323128,-0.025239356,-0.048344254,-0.014091812,0.017676182,-0.055084117,0.023062922,-0.025693662,-0.010811932,-0.014362372,-0.0056028813,0.024319649,-0.053449124,-0.0036761165,-0.012778148,-0.052669168,-0.05607097,0.04930038,-0.011840664,-0.01789838,-0.052195854,0.017084956,0.049228564,-0.051446125,0.019528925,0.026063256,0.046747215,-0.040973857,0.020986341,-0.005370453,0.008667208,0.061364293,-0.026699528,-0.019299924,-0.013280071,-0.015682004,0.05719214,-0.038920715,0.045044996,-0.022206992,-0.040690236,-0.05749032
0.020618945,-0.0487563,0.04339276,0.06488997,0.039720044,0.038038123,0.043150242,0.0246665,0.016618015,-0.016789094,-0.051050592,-0.05534638,-0.0033829287,0.031932145,-0.05598938,0.036399096,0.0072949654,-0.015426336,-0.050572857,-0.06176856,-0.046890453,0.035792507,-0.02892416,0.02665767,0.010560006,0.042313784,0.018773422,-0.031532623,-0.021682715,-0.044065524,-0.033697378,0.0076197684,-0.05195439,0.022414928,0.0081219375,-0.030575719,-0.0072369413,-0.032287188,-0.04646211,0.022711754,0.036921117,-0.007114255,-0.03952627,-0.009093128,-0.0012474812,-0.06046121,-0.055228766,0.019272529,-0.040706363,0.037025344,0.02295792,0.047249872,0.009365868,-0.0048153335,-0.04771509,-0.056910336,-0.022467114,0.044991195,-0.018979335,-0.010064745,0.019355237,-0.02580471,-0.058628306,-0.044696428,-0.034303717,0.0323259,-0.053893283,-0.010767296,-0.02386303,0.04535947,-0.04472328,-0.039991565,0.03466037,0.025728319,-0.038628526,0.01284439,-0.04743362,0.0101207085,-0.035670422,-0.039030097,0.048254464,0.01463226,-0.038243968,0.015782643,0.023353508,0.027863128,-0.0034656273,-0.037874695,0.01593294,-0.035465285,-0.042039268,0.012516081,0.0026220828,0.037346635,-0.008503345,0.045379244,-0.049089137,0.013502363,0.013638298,0.02091201,-0.047879957,-0.04500895,0.0433949,0.008825294,0.021323554,0.026498951,-0.044315357,0.04337919,0.0026278398,-0.051112212,0.03269299,-0.022951588,-0.03375579,0.050834592,0.0044052973,0.05018749,-0.062048532,-0.0032020002,-0.05289013,0.033340663,-0.009887922,-0.0534202,-0.0058796257,0.031252325,-0.061849903,-0.05138442,0.048087034,0.034616128,-0.031693876,0.036005232,0.016248293,-0.059537552,0.038852073,-0.0036729875,0.0460111,-0.05205648,-0.009961817,0.019440638,-0.054958105,-0.01660738,0.049054712,-0.0531475,-0.024098516,0.045290634,-0.022374017,-0.004413032,0.04009419,0.048102345,-0.06090895,-0.033099048,0.010871749,-0.06578775,-0.055711802,0.044956625,-0.05550457,0.03712167,-0.022829877,-0.034637712,0.058160156,0.033173658,0.056056574,-0.03855442,-0.0029704848,-0.034452036,-0.05240755,-0.011963239,0.028738126,-0.0011391445,-0.027756818,-0.06189537,0.018811041,-0.03829797,-0.066224776,0.04316786,0.013791637,0.0062094596,0.06106393,-0.002593004,-0.00067623623,0.041122485,-0.018669879,-0.056932345,0.042700812,0.036806032,0.008451484,-0.040641245,0.0062033115,0.011106489,-0.04500614,-0.053047672,-0.021010198,0.043541536,-0.006219149,-0.03006159,0.016476208,-0.011741491,-0.061570685,0.06080187,-0.04832206,-0.047817662,-0.04487392,-0.014510952,0.04155355,-0.054264676,-0.048735365,0.0051374487,0.04229315,0.036552083,-0.034427978,0.00995232,-0.017110609,0.03302649,-0.0037406445,-0.046986166,-0.0058675557,0.042366777,-0.025676662,-0.00989589,-0.00047186762,-0.0416277,0.032186422,0.032224387,-0.014239217,-0.05286838,-0.05222135,0.04373654,-0.023566449,0.012334622,-0.04936604,0.042810455,0.028679632,0.036087036,-0.051972874,0.04762866,-0.058385137,0.0048918016,0.040326215,0.029908886,-0.04535745,-0.018105818,-0.02150026,-0.050833542,0.015258777,-0.047777284,-0.062189788,-0.036668163,-0.05207988,-0.060093425,0.02818666,0.018527633,-0.026893318,-0.0658669,-0.060676027,-0.05816052,-0.06799086,0.050176527
-0.024233159,0.05009178,-0.012997944,0.046523113,0.032573618,-0.01713389,0.027319914,0.0036445956,-0.018143198,-0.049046375,-0.045455657,-0.030994711,0.046827532,0.010800533,0.01911754,0.04389234,-0.061033852,-0.051477965,0.034765624,0.022986846,-0.052326635,-0.050946273,0.058726132,0.031979688,2.759695e-05,0.025701735,0.05431733,0.006698714,-0.03435551,0.024713919,0.003253487,0.025326751,-0.038646843,0.009787293,0.05492253,-0.044539228,-0.023867097,0.025093868,-0.06529829,0.01826032,-0.01390609,0.05023555,-0.033649214,0.049438227,0.017857222,0.052460812,-0.05648185,0.028437056,-0.049251925,-0.020102052,-0.045974314,-0.033082157,-0.035886653,0.03783297,0.014433369,-0.019951694,-0.023312725,-0.0012535277,-0.026928885,0.014799722,-0.045917943,0.033569653,0.028374769,0.009028964,-0.037217468,-0.00774315,0.060921416,-0.026127495,-0.04503075,-0.021861263,0.010128334,-0.01870861,-0.05377653,-0.049989123,0.04653372,-0.017622583,0.018704617,0.046538565,-0.027717404,-0.0009973422,-0.023410093,0.035739474,-0.05305889,-0.05453436,-0.003221571,-0.0563048,-0.008595055,-0.021116061,-0.053403057,-0.019340841,0.029243367,0.049967617,-0.014542937,-0.005155169,-0.027250078,-0.039088238,0.008862443,-0.01253229,0.015942216,-0.065712355,-0.052118707,-0.044305794,0.055265293,-0.052066118,-0.027531296,-0.05814645,-0.05130173,-0.039765485,-0.00603503,-0.061561465,-0.05816613,0.017951354,0.04164453,-0.04986233,0.007226776,-0.03736487,0.003099543,0.005786594,0.016969763,-0.032676693,-0.0011746221,0.05174539,-0.019489989,0.02866744,0.011519536,-0.01524401,0.041065104,0.03418085,0.03839903,-0.057098284,-0.012310038,-0.042187206,0.030512728,0.00824542,-0.057462014,-0.032153927,-0.020293318,-0.0038979733,-0.017899422,-0.0069159223,-0.017962016,0.02344741,0.024406623,-0.048850827,-0.03785959,0.05329997,0.053062316,0.008690262,0.038533553,-0.015112256,-0.008468668,0.034979943,0.03817403,0.00041154612,0.05025744,-0.0011684299,0.036593325,0.033919357,0.008500889,0.03838181,0.017064445,-0.01869069,-0.059933364,-0.05511634,-0.004470328,-0.059842225,-0.03079936,-0.024537483,0.036805823,-0.04398855,0.022689916,-0.041244935,0.031320915,-0.011364479,0.010756551,-0.01556071,-0.0375942,0.0021906397,-0.044128254,-0.030464798,-0.020854423,-0.021371737,-0.01717269,0.044727415,-0.041024268,-0.00078824256,-0.06573613,-0.053764183,-0.03774424,0.026028447,0.03755441,-0.025152277,0.029000385,-0.003317172,0.007293498,0.033677332,0.034970455,0.033618823,-0.018724369,-0.0073200315,0.0016943899,0.042628527,-0.03930923,0.010711166,0.059159033,0.021183223,0.01005506,0.04697724,-0.0041098297,-0.029162979,0.03819356,-0.007643245,-0.05171336,-0.036026243,0.0176645,-0.0602434,0.03742459,-0.033673376,-0.025703274,-0.045137703,-0.05437559,-0.05100634,-0.040074516,0.00053437834,-0.06339458,0.0034837648,-0.010358216,0.00044073164,-0.021505486,-0.00015965417,-0.023626646,0.056253828,-0.015356928,0.021267071,0.041927192,-0.0662612,0.008314677,0.025388805,0.05813776,0.009270132,-0.031563748,0.014682374,-0.059184305,0.018769503,0.007456973,0.055432867,0.030711647,-0.05217694,0.016995966,-0.025020882,-0.002408795,0.03594616,-0.029121595,-0.043717932,0.02069455,0.02310042
0.0020628767,-0.0237237,-0.037216745,0.056416273,-0.026378863,0.044412695,0.021825299,-0.0088974405,0.029197168,-0.017976023,-0.057823714,0.027035011,-0.0033974051,0.004886523,-0.056218054,0.059436113,-0.013534812,-0.017899787,-0.019407459,-0.022243658,-0.04153561,0.027665973,-0.053214647,0.0034846663,0.033332482,-0.041592028,0.04304909,0.0051282872,-0.05790971,-0.025904307,0.00778181,0.010250814,-0.018981665,-0.036633763,-0.017006464,-0.058064066,-0.0006620594,0.044931896,-0.052227546,0.0051655257,0.053103436,0.048975233,-0.0003569019,0.038729466,-0.048835106,0.020888107,-0.02981843,-0.00213591,-0.053406086,-0.057966564,-0.0087180175,-0.04456907,-0.018253446,0.025199063,0.049412347,0.017202793,0.014192581,0.052720934,-0.020792043,0.042162858,-0.05051315,0.040249277,0.04165566,-0.0032041147,-0.043763526,-0.049346596,0.026180439,0.002685286,-0.05809923,-0.05689746,-0.053832516,0.062234737,-0.041157413,0.022442652,0.018350843,0.029664267,-0.045844696,0.027056169,-0.036858365,0.036962286,-0.029518422,-0.048168242,-0.021583611,0.009503625,-0.039837867,0.01875814,0.010528397,-0.012335652,-0.024536446,-0.01570743,0.02792917,0.0107244905,0.009094864,-0.051629506,0.036713455,0.004165465,0.027850727,-0.050569903,-0.03234653,-0.055211622,-0.05639891,-0.01850672,-0.03371319,-0.0058764643,0.033200428,0.0089322375,-0.0626322,0.03364665,0.021936392,0.010741562,0.016868994,0.02286508,0.045069557,-0.029387657,0.013447449,0.053697303,-0.0056250747,0.043404598,-0.02069518,-0.015562109,-0.030607428,0.009701102,-0.03802803,0.02803399,0.053855356,-0.048059154,-0.05059626,-0.0034026653,-0.017837957,0.0025464054,0.04291552,0.016101524,0.04303071,-0.058700435,0.05079308,-0.014860231,-0.016285185,0.02618588,-0.02059075,-0.02428871,-0.0025834516,0.024836948,-0.040564816,0.032923076,-0.021520229,-0.029788254,0.023287902,-0.041799497,0.0022322508,0.056351192,0.010740359,-0.06853791,0.009049891,0.036298692,-0.063652344,-0.045691796,-0.0683374,0.018489452,-0.034725882,-0.013100047,0.044338703,-0.027372349,-0.04821455,0.039326645,-0.0371972,-0.010328988,-0.038826346,-0.043708824,-0.00870008,-0.005350058,-0.020164916,-0.021195708,0.041978896,-0.018007161,0.03111936,0.010797281,-0.008313209,0.0623609,0.05411266,-0.03733267,-0.006223163,-0.03754907,0.029479073,0.06568983,0.053627633,0.039637953,0.043269224,0.023690531,-0.033160985,0.045199387,-0.0030450525,-0.046238694,-0.030128477,-0.059282407,0.037853684,0.020601364,0.048861362,0.0051798224,-0.04946455,-0.016578117,-0.057071384,0.03144232,-0.040573396,-0.016528025,-0.051400334,-0.013111751,0.05452164,0.00034181643,-0.052997604,0.03507226,0.018631488,-0.06640241,-0.047561806,0.049585838,-0.060441226,0.028441042,-0.0043730596,0.025354393,-0.057538263,0.0121911,-0.048371352,-0.025338821,-0.045386013,0.03879569,0.012599215,-0.001189284,-0.026679214,0.053925805,0.019343296,0.009530236,-0.065854125,-0.03958326,0.046422027,0.05024666,-0.001519051,-0.040566668,-0.0020010546,-0.041779265,-0.042953923,0.037448395,-0.05357713,0.028429452,-0.023493756,0.041347846,0.012963377,0.009839077,-0.023219878,-0.0014078859,0.03484062,-0.011544545,-0.053164817,-0.04537121,-0.027648466,0.051031716,-0.04467761,0.00759543
-0.03747168,-0.009575725,-0.0441086,-0.030790612,-0.021325856,0.048473373,0.011556998,0.05330737,-0.01681269,0.0195731,0.04714144,-0.04460571,-0.0032012388,0.024061061,0.05905012,-0.043663524,0.029165655,-0.010225669,-0.012385659,-0.01520662,-0.016549423,-0.038807385,0.042312868,-0.04397838,0.046113163,-0.05087637,-0.013782084,-0.02963806,0.02590543,-0.04776983,-0.046806157,-0.022565372,0.003202416,-0.0057008043,0.039463297,-0.05891476,0.0068641827,-0.0035632402,0.0047244355,0.024149582,0.022434272,-0.049678743,-0.040630557,0.04019182,-0.034388132,0.05885142,0.004082121,0.04169505,-0.060846433,-0.058769956,0.028253295,-0.024028115,0.016195461,0.0560738,-0.052283593,0.0031623244,-0.050977193,-0.015721776,0.054117285,0.043267734,0.0416483,0.05378902,0.036230445,-0.04351403,-0.058822542,0.018009558,0.036269404,0.021793775,-0.04232365,-0.002471611,-0.02002123,-0.021668792,-0.052303642,-0.026569389,0.012121223,0.047894806,0.04298961,0.03404051,0.0040107667,0.0298708,-0.013791993,-0.014189772,-0.046849243,0.030998126,-0.034308277,0.0062168315,-0.02391836,0.049372002,0.011832111,0.035995156,0.04579389,-0.031497598,-0.03634377,-0.0138998255,0.044996873,-0.03533403,-0.03818517,-0.024578243,-0.045004904,-0.024155475,-0.035242863,-0.054515325,-0.04414647,-0.04732941,-0.015063763,0.0029433146,-0.056814216,-0.024318032,0.04493279,-0.016685307,-0.05367562,-0.009168014,-0.014232732,0.0054029822,0.0060914457,-0.049749814,0.014749624,0.0025064722,0.054050297,-0.00040454417,-0.004284911,0.040019438,-0.045878746,-0.040719144,-0.018661402,-0.042704158,0.040115625,0.016261198,-0.04871086,-0.04534766,0.015826225,0.01436729,-0.058134653,-0.04411199,0.0049614534,0.021425031,-0.00041614473,-0.00616277,0.048339054,-0.033900753,-0.03469815,-0.029445074,0.05102189,-0.04243686,-0.058015108,0.004319936,0.021623112,-0.009227835,0.036179557,0.052293167,0.03807605,-0.014114477,-0.052684978,-0.008326061,-0.027097598,-0.010432117,0.044379674,0.037797317,-0.03542863,-0.016339317,-0.047042206,-0.035879143,0.048625015,-0.03510035,0.06126026,-0.03284301,0.017375156,-0.03949841,0.0026419386,0.002309233,0.05652836,-0.028935984,-0.052541584,0.008560702,0.045620672,-0.033592857,-0.025643297,0.023503222,0.023608692,0.018473849,0.013816088,0.011346452,0.0026237816,-0.021594957,0.030445106,-0.043884866,0.06007833,-0.0419543,0.024961166,-0.0621128,0.0073968396,0.05561602,0.0048379153,-0.05312872,0.017258741,-0.02857785,-0.04370188,-0.0539378,-0.060455568,0.041032627,-0.05388432,-0.010441743,-0.0539347,-0.002981849,-0.022583745,-0.042888522,0.00809326,0.059297204,0.01756329,0.04036414,0.033986926,-0.04408867,0.05245263,-0.04168833,-0.054647155,0.03041932,-0.04949467,0.045177326,0.052846454,-0.0216913,0.059791937,0.0061858073,0.01841326,0.061143234,0.0029641688,0.016890354,-0.042494692,0.048511438,0.04795508,0.015088759,-0.030736081,0.05456838,0.060571037,0.007167682,-0.0042905733,-0.01478792,0.041504078,-0.03307727,0.036729388,0.005336441,-0.03600643,0.03304477,0.041817047,0.005365394,0.056447744,0.03228023,0.008160926,0.037792586,0.005913049,0.047543734,-0.05456972,0.048321582,0.043679878,0.049088024,0.009670384,0.052210025
-0.018162867,0.023837328,0.015044494,0.035330176,-0.039282218,-0.024647595,0.02898599,-0.059748333,-0.049778745,0.00039375573,-0.0039583044,0.017269468,-0.03328012,-0.04251972,0.042015005,0.08046701,0.0059822937,-0.03657762,-0.016982734,-0.054500487,-0.061545007,0.018889785,-0.0594142,-0.0072493628,0.058968194,-0.042515412,0.03891049,-0.037574697,0.033780985,0.050706275,0.021778788,-0.0019608662,-0.04995227,0.04310624,-0.026721455,0.0007813678,0.052449193,0.018714584,0.025187714,0.04745331,-0.052161347,0.03887477,-0.015722346,0.06576686,0.053346515,-0.009866679,0.0116140945,-0.03333217,0.041122768,0.013246456,0.010919936,-0.011608896,-0.0117815295,0.024653744,0.039903745,-0.008299379,-0.024571463,-0.34323633,-0.05387849,0.036647223,-0.043049276,0.06283199,-0.04463043,0.0246137,-0.045303136,0.044810213,-0.025470957,0.056212097,0.041329283,0.055649966,0.012745492,-0.018220479,-0.057706453,0.032464582,-0.033441234,-0.028616896,-0.055476166,0.021272037,-0.046618976,-0.05795199,0.026841434,-0.049341694,-0.16021748,-0.06045151,0.013838206,0.042643283,0.06811672,-0.01022111,-0.05921065,-0.008372232,-0.019610625,-0.05218587,-0.033514284,0.038450547,-0.02530529,0.022654632,0.025152681,0.025291264,0.02440231,-0.011031959,0.0120209865,0.016016603,0.0082547935,0.023296732,0.020011537,0.06299651,-0.026857745,-0.024616495,-0.028022828,-0.024292544,0.003903672,0.036825657,0.039159972,0.0009667483,0.042816803,0.0256924,0.061627816,0.02302792,-0.09112724,0.047768068,-0.021431651,-0.03319052,0.009729035,-0.021122187,-0.05254038,0.050188724,0.048893508,0.043622456,-0.0073160524,-0.054191098,-0.011222728,-0.0053192377,-0.03907441,-0.040723667,0.0031520636,0.04575577,-0.067659274,-0.011583829,-0.023327038,-0.035325952,0.037511647,0.01395442,-0.045831297,0.0070616086,-0.038281128,-0.023876622,-0.037265293,-0.06376299,-0.063892126,-0.050457425,-0.03032319,-0.07636241,-0.0067166258,0.008121237,-0.019497693,-0.0014477149,-0.051391598,0.027230885,-0.050436176,0.008071819,-0.023000546,-0.0032525922,-0.03700011,-0.047029786,0.0049255057,-0.011678589,-0.044121087,0.04023821,0.008120954,-0.07879607,0.045417987,0.024044864,0.051834837,0.020250527,0.05591908,-0.035578795,-0.008095354,-0.04576391,0.018955832,0.0001972645,0.037809897,0.029444315,-0.03399799,0.017245594,-0.03025943,-0.02139205,0.031543914,0.028715469,-0.028134577,0.023377134,0.019112958,0.01249443,-0.067560695,0.0033755393,0.03139216,0.013142939,-0.054253805,0.056876384,0.006556617,-0.027216185,0.057371434,-0.032718465,-0.027296232,-0.062146224,-0.052189395,0.058442354,-0.06722166,-0.056826394,-0.031349204,0.03362595,0.0022353232,-0.009459779,0.035960853,0.051733512,-0.03210497,0.057468515,-0.05816767,0.05381787,0.014099963,-0.047850873,0.014203906,-0.051664487,-0.005039322,0.037127588,-0.055790205,-0.060963586,-0.0039635636,0.038341783,0.038145382,-0.054922484,0.006628991,-0.02496259,-0.040190265,0.0026983856,0.01473723,-0.035264343,0.0077332407,0.05701868,-0.033000216,-0.13474165,0.029332628,0.01608633,0.013426073,0.0011647445,0.010664165,0.012386429,0.051659077,-0.019513069,-0.028889297,-0.00820146,-0.028340556,0.05579966,-0.024976304,0.029892916,-0.019614018,0.038642995
-0.036623474,0.006026417,0.007229128,0.04758535,0.038957343,0.053265393,0.06746405,0.06137674,-0.027840959,-0.04134254,0.023951633,-0.051150374,-0.041438103,0.055138588,0.0068163075,-0.10201352,0.05249278,0.004368939,0.033266142,-0.01103812,0.035338335,-0.036773764,-0.025953054,-0.028740838,0.045296438,0.015276293,0.031167464,-0.022999011,0.03943894,0.04694732,0.06906431,0.048966184,-0.020623267,0.05147943,0.04920826,0.009577206,0.055956326,0.060174197,0.0047038933,0.0012828629,-0.03659161,0.051226653,-0.0001861659,-0.012215262,-0.029760672,0.034028366,-0.040311832,-0.008794159,0.022022083,0.04610895,0.022926334,-0.032353707,0.021729482,0.040774815,-0.015194714,-0.06884772,-0.052361123,-0.52794546,-0.052503552,0.058476392,-0.055679493,-0.03697442,0.05302588,0.05026024,0.0018759519,0.0190119,0.05739285,0.044056542,0.073151,0.01575885,0.05122211,0.05470039,0.014923694,0.043229368,-0.028618673,-0.0024910148,0.018782176,-0.02754532,-0.056452587,-0.19830939,-0.062629215,0.008813973,-0.20405881,-0.038833648,0.061644487,0.07296906,0.01239816,-0.0690728,-0.023915358,-0.019419044,-0.072423026,0.06364616,-0.02099678,-0.034040373,-0.04944861,-0.028764915,0.0040205764,0.07098484,0.010169042,0.026270973,-0.04115399,-0.0064701885,-0.0072468547,0.030927606,-0.038240023,-0.049530867,-0.026034284,-0.018305771,-0.0038079321,-0.026656039,-0.028406903,-0.00030133128,0.008399767,0.032272868,0.052075855,-0.022817004,0.06436884,-0.04253266,-0.116277,-0.021724746,-0.030774802,-0.048085194,0.0018116161,-0.022998868,0.068126366,0.07274227,0.03272973,0.012615554,-0.00042032974,-0.05480683,-0.0004524328,0.05967465,-0.031347584,0.019178286,0.0009185352,0.014722012,0.01729462,-0.053712063,0.03933663,-0.007166639,0.052107148,0.059874304,0.038073584,-0.0246722,0.03374727,0.04599381,0.06788913,-0.021627977,-0.04023606,-0.04165454,0.016001208,-0.20194669,-0.016833216,0.01934543,-0.024648083,-0.0013563484,0.04704635,-0.05223373,-0.009216882,-0.040864583,0.052668914,-0.076199986,0.06558457,-0.049067684,-0.067864805,-0.049389236,-0.013988294,-0.043635685,0.036752634,-0.13225952,0.06659515,0.002016305,-0.0377315,0.0017803306,0.0061742463,0.016366076,-0.030063488,-0.029318195,0.00042832736,0.06139655,0.06975941,-0.05873573,-0.30972743,0.060383867,0.028777175,0.04970471,0.029703729,0.023039076,0.008096732,-0.047009055,-0.014836738,0.044976182,0.0102854585,0.01847623,0.021447737,0.056205362,-0.040527694,0.0069575757,0.013466992,-0.038141232,-0.046434868,0.038960747,0.020155154,0.052025728,-0.04689952,-0.010047393,0.056127947,-0.036901496,0.018457808,-0.021468624,0.039653905,0.023616562,0.015795343,0.029694734,-0.005585693,0.012414001,0.048871674,0.042553652,-0.035270184,0.066735834,0.060004424,0.03969895,-0.023470784,-0.025092313,-0.00036685975,-0.0063266084,0.02645693,-0.061798617,0.032471858,-0.014062741,0.06040656,-0.014201298,0.05803573,-0.022117106,-0.040725775,0.004417701,0.056229748,0.06440537,0.035971,-0.24302079,0.0052089803,-0.027523536,-0.0034246831,0.0714467,0.048083387,0.028275253,-0.042844623,-0.020114519,0.031014446,-0.00354051,-0.005698785,-0.048246596,0.036229394,-0.030904785,0.021561626,-0.044290453
-0.0107679665,0.035307832,0.030425385,-0.03200411,0.0006027669,-0.015688218,0.0113925785,-0.050489612,0.039308645,-0.022824295,0.017339692,-0.0172109,0.0118469,-0.04467359,0.061115347,-0.044211872,0.0047999024,0.030826561,-0.018739276,-0.061970368,-0.01997757,-0.032666817,-0.02439221,-0.036023922,-0.0033176094,-0.039310165,-0.012407392,0.03082104,0.010786228,-0.028001241,0.005416304,-0.034901805,-0.005270079,-0.05064661,-0.011177905,0.0018498227,-0.047152184,-0.0077834427,0.03100849,-0.028350234,0.026943833,0.057650976,0.0031011254,0.0037465245,0.04281179,-0.012436219,-0.043747,-0.014177114,0.018140934,0.044902675,0.04497941,-0.041601837,-0.031591065,-0.016413182,0.014812477,-0.010392293,0.02103512,0.047852628,-0.057215787,-0.003843613,-0.0536158,0.0067590997,-0.028105013,0.008452155,0.013447702,0.058496244,0.038054876,0.05338619,-0.021856532,0.03318595,-0.05554524,-0.037933752,-0.05329378,0.016753174,0.052591197,-0.019766748,-0.05770029,0.058253393,-0.050754778,-0.059553675,0.0119588,-0.030353345,0.03505764,-0.03108991,0.055579364,-0.010115832,-0.048071012,0.024804667,-0.0048959404,0.0009825379,0.06227585,-0.04598862,-0.025017165,-0.006204061,-0.053744376,0.023121856,-0.017447166,-0.04274761,0.05231507,0.016460247,0.016124047,-0.058103874,-0.05531948,-0.04927426,0.05959262,-0.021303236,0.04120834,0.019815855,0.024455667,-0.054926597,-0.056055702,0.05210142,0.008343115,-0.05843749,0.04944334,-0.04001136,0.033671856,0.009366557,0.051721983,-0.05613157,-0.033537894,0.015230432,-0.027138993,0.037486076,0.05108235,0.027935103,-0.017460123,0.026349254,0.005365692,0.011203662,0.005287349,0.043300293,-0.011621527,-0.004626401,0.03181815,-0.060370356,-0.010862537,-0.03246577,-0.011763655,0.019888647,0.016960956,-0.022114642,-0.03065247,-0.017855838,0.032627754,0.047915205,-0.015316911,0.050975673,0.05044195,-0.04803908,-0.018626086,0.062253654,0.017377257,0.0035372153,0.01766786,0.034951083,0.011446647,-0.03992159,-0.0139846355,-0.027073577,0.011261702,0.051579,0.053846806,0.0005049333,-0.04220525,-0.05392944,-0.039250903,0.0007755086,-0.03181891,0.030117802,-0.04045049,-0.032237068,-0.017147206,-0.03371475,-0.029947534,-0.044468105,0.036903597,0.06246662,0.033069722,-0.049194954,0.034574248,-0.05297473,-0.030990586,-0.019699663,-0.0525802,0.018627368,-0.03841435,0.049132414,0.025381684,-0.025642447,-0.001628831,0.027382031,0.021993391,-0.05937416,-0.058193192,-0.0199802,0.061102487,0.029937543,-0.024620108,0.05524364,-0.05607322,-0.038984783,0.028416812,0.023801811,0.030362748,0.015797853,0.017484888,0.0007538721,-0.038732328,-0.026687771,-0.05747915,-0.011285625,-0.0052927583,-0.046769977,0.035507143,0.014374539,0.019215807,-0.05658056,-0.062088065,-0.043526694,0.03360252,-0.0022545233,0.021051317,-0.015165664,-0.019294605,0.020387135,-0.038432434,0.039532334,-0.028968044,-0.020337954,0.05643519,-0.0053283796,-0.05092711,-0.02940666,0.025219917,0.061402828,-0.033728532,-0.05483917,-0.034570046,-0.038953856,0.042601727,0.004140295,-0.05913376,0.0019444004,0.0077722296,-0.019035801,-0.032351308,-0.05070234,-0.02303376,-0.047130883,-0.045843855,0.050054766,-0.0028702244,0.04052969,0.020248756,-0.028316602
0.05854148,-0.024970159,-0.03732203,-0.03039632,-0.04178366,-0.049036283,-0.027600134,0.036465313,0.058493815,0.044855945,0.059917763,-0.029339127,0.015731402,0.0014888421,0.05183455,-0.06203846,-0.018584887,0.019826595,-0.051819988,0.05410439,-0.052958496,-0.02601666,0.0021992251,0.047010347,0.0519614,0.05554248,0.043216337,0.04298033,0.0013949827,-0.002679864,0.017432192,-0.0071298555,-0.012237301,0.010586802,0.039909482,-0.040278144,0.06209407,0.02898579,-0.03529505,-0.024091408,-0.04742164,0.004970181,-0.019046798,0.011396945,0.03293188,-0.01242998,0.048107788,-0.030739136,0.027415702,-0.035754006,-0.039544184,-0.016185343,0.051285755,-0.032718554,0.054921456,-0.037752006,0.046881527,-0.494093,0.032650817,0.12295202,-0.051932387,0.062905505,0.01165054,0.019130334,0.01028242,0.059114225,0.05777672,0.059571296,0.031143086,-0.048312783,0.003339313,0.058273174,-0.0020633305,-0.036069486,-0.031853475,-0.030824548,0.024067063,0.02065961,-0.043487668,-0.19125253,0.05910341,-0.01268107,-0.16040294,0.047078717,0.042703975,0.03769741,-0.05037356,0.034539912,-0.021092184,-0.039395306,-0.03753956,0.059398606,0.00096940994,0.00013080866,0.03750324,-0.035244673,0.0018483576,0.014417697,0.058026157,0.06301459,0.019403355,0.061638393,-0.014830767,-0.03171071,0.03592223,0.033184566,0.0066999565,0.051503915,0.005148897,-0.062307946,0.061584502,0.051454633,-0.01784606,0.06227771,-0.034671824,-0.02880372,0.002005998,0.032977343,-0.19555894,0.06002085,-0.050636977,-0.038978208,-0.03461861,-0.0070867543,0.0015105883,-0.009658781,-0.038749993,0.017585084,0.03427306,0.067826845,0.028476315,-0.0027931258,0.03870591,0.036755987,-0.016405035,0.01512006,-0.06499153,-0.032713566,0.06684956,-0.03640346,0.044136465,-0.017719975,-0.038631264,-0.026470816,0.048399825,-0.03576402,0.056166105,-0.08495684,0.062768325,-0.026463948,-0.023596449,-0.14421724,-0.007929914,0.010733204,0.043075062,0.041063264,0.016030775,0.01854146,0.0045313016,0.03823946,0.0043621287,0.034460492,0.013853106,0.019341059,-0.053022847,-0.054434445,-0.047788896,0.06293042,-0.020728298,-0.15279019,-0.052668445,-0.010155165,0.0058043743,0.018283388,0.018096995,-0.03799941,0.004668087,-0.035139583,0.03249639,0.015093527,-0.0495292,-0.023565449,-0.17386416,0.044569977,0.05664429,0.03382488,-0.010613617,-0.035926934,-0.04844053,0.0026357064,0.014826384,-0.040121503,-0.006716508,-0.0078862235,0.06701286,0.0034233988,0.012383236,-0.040901206,0.0629544,0.005527724,0.055103805,-0.047692813,0.05333135,0.03498315,0.003650047,0.023772016,0.013178694,0.046839185,0.041184478,0.012805338,0.004396215,0.0021843712,0.05897954,0.02992872,0.0017149895,-0.004293556,0.031784758,0.040946715,-0.035243258,0.023731044,0.025067251,0.047286116,-0.042440046,-0.022701655,0.0010566894,-0.05777251,-0.044769213,0.024472669,-0.02575706,0.051809374,0.054926287,-0.043257095,0.043344416,-0.030519083,-0.01888572,0.048360355,0.05947207,0.0075857644,0.05429373,-0.092203245,0.015836772,0.0602821,0.035624016,-0.013482426,0.028607719,-0.013765527,0.0076294495,0.058490865,-0.0019233448,0.00028886046,-0.055332407,0.03809118,-0.027387405,-0.01281515,0.0106763,-0.011670849
0.05285661,-0.062321573,-0.0066262716,0.0035920402,0.048487216,-0.06246975,-0.05719886,-0.03346263,-0.009299985,-0.048903547,-0.033366602,-0.029382117,0.028725058,0.05844809,0.0005230826,-0.013711348,0.029150419,-0.028060187,0.039574936,0.027262814,0.037329078,-0.028800085,-0.055297628,0.008567743,-0.046412103,0.05044592,0.036911268,-0.022481382,0.023316428,-0.007816281,-0.009026693,0.057088852,-0.041025795,-0.017356914,-0.046988547,-0.05255823,0.040747993,0.058637314,-0.02481594,0.02357161,0.04349241,-0.009100713,0.016198799,-0.00059934467,-0.054463685,-0.05010701,-0.0075887716,0.027167976,-0.015650759,-0.012468005,0.029360216,0.018026095,0.006213291,0.048460245,-0.010494277,-0.011781514,0.0596229,0.019223772,-0.057403278,0.017143153,0.045402005,0.01094612,-0.05341716,0.041243754,-0.0012863949,-0.014156297,0.035536602,0.004716173,-0.017381493,-0.014247537,-0.04138135,-0.015376487,0.037216395,0.03155806,0.029441487,-0.068818286,-0.00209992,-0.013544792,-0.02341356,0.059828408,-0.036086403,-0.043131754,-0.032232255,-0.064418346,0.023089921,-0.012236666,0.047211144,0.051179446,-0.0470149,-0.046715986,-0.014599072,-0.030892497,0.054021567,0.03946948,-0.008057182,-0.06689344,0.0084778555,0.011468061,0.0037402362,-0.061654665,-0.030874146,-0.012435153,0.021005923,-0.040984593,-0.037871264,-0.060258724,-0.02902982,0.05145584,0.05302987,0.001258418,0.04744062,0.014617637,0.044169813,-0.026745593,0.03252496,0.05237383,-0.03293404,-0.00796945,0.0075632334,-0.054361653,-0.048927963,-0.016945392,0.026972495,-0.014906123,-0.05074177,0.021752426,-0.0329784,-0.05792793,0.028808752,0.025519732,0.054612763,0.01749523,0.047666844,0.035846945,-0.026229585,-0.057896234,-0.049225282,-0.049203046,-0.047129422,0.05020414,0.044950828,0.004470569,-0.020682491,-0.04590998,0.014968666,-0.04336442,0.006065711,0.048098095,-0.045553096,-0.06252336,-0.047999624,0.053470206,0.04110855,-0.049893647,0.023557466,0.008987397,-0.015284268,0.044711657,0.018531524,-0.057390824,-0.04141535,0.058603276,-0.028714428,-0.027150713,-0.042590793,0.029397152,-0.00793165,0.029013243,0.014640592,-0.02528572,-0.03631429,-0.0089107035,-0.011080199,0.046822175,0.045775663,-0.04549139,-0.002276376,0.03746014,-0.021599807,0.0067645963,-0.06029056,-0.00640665,0.02653426,-0.04250894,-0.016029716,0.0479785,0.04583206,0.011125145,-0.008662403,0.03924783,-0.058252413,-0.02813064,0.005793115,0.053029038,-0.006937493,-0.03405029,0.03268988,-0.04278764,-0.030389732,-0.03963853,0.04872342,0.019413158,0.008007501,-0.056544274,-0.052882418,-0.023998987,0.011654592,-0.050650902,0.026746958,-0.0025960554,0.0004919395,-0.02633989,0.049292356,-0.018693758,-0.052340552,0.05566478,-0.034726616,0.021859309,0.0013900027,-0.044996474,-0.049324576,0.00019399077,0.036476966,0.0042233537,-0.06515396,-0.014446259,0.047002994,-0.05342987,-0.034836482,-0.015732523,-0.024467796,-0.03543114,-0.009782538,-0.004606192,-0.023284461,-0.009251461,0.04100296,-0.013533837,-0.06064096,0.04571397,-0.031850945,-0.04244189,0.0045991954,-0.019343486,0.020457782,0.009958029,-0.016452326,-0.02794933,0.054148022,-0.0038769036,0.031030841,-0.011288948,-0.040743172,-0.05219509,-0.03199774,-0.00439197
0.06078154,0.024333462,-0.05090252,0.03407838,-0.049710527,-0.012537171,-0.061279584,0.012578801,0.026111485,0.019422807,-0.014635582,-0.025593422,-0.028679378,-0.0070026666,0.025958274,0.012371157,0.006389944,-0.043865256,0.007120505,0.0017273084,-0.0040367544,0.021988958,-0.06101931,0.015800528,0.012520224,0.046187323,-0.008876604,0.021272374,0.021485943,0.04823611,0.037758082,0.05962327,0.012245036,0.03279626,0.010930233,-0.027920974,0.05128136,0.009280413,-0.042312086,-0.0039433884,0.055560112,-0.047265843,-0.00066276774,0.01139391,-0.041387163,0.0039382908,-0.002093866,0.033713862,0.016033573,-0.010711997,0.024405302,0.041588098,-0.05432095,-0.019206645,0.04595159,0.0003479515,0.022618234,0.36835754,-0.03514859,0.043977708,0.036102563,0.04065285,0.04687281,-0.04861091,9.557605e-05,-0.0225138,0.038253292,-0.016054705,0.022613442,-0.052542225,0.050036073,-0.03946423,0.050140105,-0.043804172,0.0021297198,0.02392289,0.031975783,-0.016229456,-0.03765079,0.14726038,0.043623023,-0.032401085,0.08545598,0.017453907,0.024170136,0.05511481,0.026000287,0.0017182113,0.044618994,0.041446537,0.021179482,-0.024032751,0.05106716,0.019590182,-0.027422613,0.02733627,-0.045174424,-0.034762915,-0.03710413,-0.047816437,-0.022333765,-0.045123518,0.033233322,-0.0032441446,0.017057009,-0.0413108,0.042719033,0.0411927,-0.04384584,0.047239788,-0.033130676,-0.047344632,-0.04923004,-0.036664754,0.047204405,0.067821704,-0.02855391,0.002841431,-0.036313664,-0.031070035,-0.011066501,-0.025166966,0.0181937,0.026898712,-0.02234447,-0.027923806,-0.041730158,-0.03719233,-0.0051998617,0.07206363,-0.010353277,0.05623588,0.052287795,-0.021769166,0.0052338345,-0.04426635,0.034382544,-0.018125847,0.009045025,0.03929111,0.049415857,0.01386913,-0.030217042,0.0031792265,0.028216133,0.01701688,0.026538085,0.013874236,0.023571864,-0.02267925,0.07081945,0.10102082,-0.010566188,0.0045158644,-0.04758427,0.016656317,0.032596942,0.033681236,-0.022941358,-0.055200826,0.012640871,0.058577582,-0.050880283,0.035686433,0.0670164,0.041950062,0.031240314,0.007970832,0.06190952,0.15122487,-0.035689224,-0.0035390602,-0.0484308,0.048512246,0.026673378,0.005107119,0.06147202,-0.026846291,0.0062470627,0.046606872,-0.009953707,7.672608e-05,-0.021076685,0.032560587,0.047826983,0.04694833,0.047328882,0.021317106,-0.047353275,0.061435785,-0.032189198,0.06835293,0.06521877,0.040465064,-0.043435693,0.03222242,0.06163967,0.046191424,0.0017205618,0.06984584,0.016480021,0.045210123,0.025521563,-0.041152973,-0.013085976,0.008508288,0.067623384,0.04721634,-0.004931234,0.041268796,0.059548847,-0.037450623,-0.034109794,0.0069541615,-0.015224978,0.03677994,-0.009606578,-0.035791136,-0.017273538,-0.020597566,0.024625573,0.010188922,-0.017793976,-0.038184356,-0.008799589,0.052215934,0.0097785415,0.061934583,-0.042128388,-0.008775567,0.03053419,-0.0098319575,0.054906294,0.045836594,0.037202224,0.032421447,0.05511976,-0.01874577,0.03336148,-0.22155961,-0.0053768256,0.010942094,0.015870988,0.014940629,0.015386559,-0.050804313,0.04527467,0.02262961,-0.009021505,-0.0037462858,-0.0081079155,-0.042502124,0.05661278,-0.021970255,0.02524467,0.010267993
0.034161847,-0.036788158,-0.047515105,-0.003328564,-0.05604826,-0.0059964866,-0.0027011372,-0.019099137,-0.040390514,0.03726101,0.0582337,0.05023489,0.027990282,-0.058066435,-0.013425634,0.04101412,0.05117081,0.023771198,-0.060129598,-0.014745235,-0.021116175,0.030307166,0.05764135,0.051372647,0.0038231015,0.008067143,0.018533863,0.013556175,0.0036803845,-0.052122314,-0.03537646,-0.020308465,-0.019721247,0.025264367,-0.018714331,-0.057282023,-0.029409181,-0.050352216,-0.046097472,0.037562452,-0.03367995,-0.047961786,0.050807495,0.027831586,0.025089083,0.051342793,-0.055806495,-0.021179833,-0.035873003,0.004038439,-0.051881015,0.003922835,0.028524231,0.026252018,0.022148035,0.015930496,-0.018889181,-0.0062394366,-0.029456303,0.009910405,-0.0030001104,0.012705557,0.027093291,-0.017325029,-0.046798177,0.061303854,0.037280284,-0.021577865,-0.0344417,-0.013302788,-0.043638997,0.04554026,0.016210986,0.04146532,-0.03630277,0.05087921,-0.04489768,-0.021203145,-0.033285283,0.031307362,-0.058796465,0.022461794,-0.04449884,-0.015945395,-0.02502442,0.018636703,-0.05357323,-0.051142223,-0.026326098,0.044024654,-0.021564953,0.024307989,0.022750199,-0.047217213,-0.019003738,0.0344141,0.03881879,-0.024258211,-0.00037965988,-0.056152843,0.04446054,0.046006575,0.024417771,-0.021171989,0.035398416,-0.028354267,-0.022615798,0.007121742,0.014584137,0.015623644,-0.011176713,0.026923753,0.024572622,-0.0005977618,-0.0058401404,-0.02473348,-0.0017702132,0.0028097974,0.057211086,0.032449916,-0.05903868,0.034590755,-0.044098295,-0.027438115,0.029004203,-0.044165283,-0.009446286,0.033507682,-0.011471764,-0.02131157,-0.021263419,-0.035259254,-0.053728513,-0.04535747,0.057214353,-0.02320842,-0.02975849,0.04209712,0.0282536,0.024283586,0.022003978,0.009762034,-0.0491169,0.04178637,0.016938023,0.051402874,0.005051433,-0.016225778,0.010583406,0.05430924,-0.052255675,0.024677971,-0.062119026,0.018469218,0.005447454,0.040739223,-0.024528341,-0.024974294,0.05862169,0.02199574,0.009723313,-0.05289109,0.007646891,-0.05006773,-0.006602116,0.004557843,-0.0098502785,-0.057763275,-0.020944484,-0.044407204,-0.025483288,-0.002611883,-0.032289766,-0.009947635,0.0014687923,0.05178079,-0.020528771,-0.057659324,0.013462469,-0.018870875,-0.018154278,0.025304325,-0.021226913,-0.013404466,0.051610984,-0.05317435,0.027393166,0.009279467,0.042404085,0.025018476,-0.01711102,0.03309146,0.061114803,-0.053143986,-0.055425238,0.04569819,0.018439986,0.0037765354,0.05915465,0.0083531365,0.025180783,0.02399519,-0.0031117823,-0.009781286,0.03145439,-0.03154999,-0.032810748,0.05737027,-0.04714773,0.03742021,-0.051171876,0.035554234,-0.0051283985,0.025253657,-0.015402734,-0.046492994,0.039090678,-0.023261137,0.0048840716,-0.027051214,-0.018050028,0.01688736,-0.021727875,-0.05220106,0.008324466,0.024413362,-0.024151558,-0.033589803,0.036158048,-0.06753465,-0.024814991,-0.046269067,-0.0239008,0.034282953,-0.048306663,0.030077323,-0.012284249,0.045172825,-0.040347904,-0.031516925,-0.01196939,-0.028924264,-0.020616181,-0.009927954,0.005884826,-0.05252216,-0.049485296,0.013948244,0.054542027,-0.031491607,0.036049314,-0.027291035,0.05410986,0.04560006,-0.040272854,0.027166903
0.027397363,-0.024639986,-0.00581177,0.03686405,-0.024028182,-0.010643862,0.06571219,0.024675861,-0.018063756,-0.03108015,0.028398786,0.027545411,0.02768322,0.04677189,-0.014264923,-0.15645693,-0.036074486,-0.04765122,0.010747917,-0.029456623,0.059742875,0.03348025,-0.038882554,-0.043578148,0.020782106,0.02893053,-0.049310137,0.0062163463,0.03927094,0.05142601,0.058094118,-0.02237235,-0.027401997,0.05010362,-0.0468091,-0.042560935,0.008815682,-0.041754782,-0.011973376,-0.051714722,-0.053150672,-0.05774219,0.017513132,-0.020337654,0.031628124,-0.049894225,-0.050649215,0.02443859,0.038635336,-0.0044229515,0.05019629,-0.01420679,-0.0061192084,0.0033746457,-0.041105017,0.01804713,-0.05937455,0.02167362,-0.04325733,-0.13053231,-0.054846585,0.013083981,-0.0012929887,0.060549118,0.0018436685,0.053184114,-0.023786038,-0.036256135,0.049969546,-0.021857552,0.018964194,-0.043920934,-0.03814153,0.018298527,0.01253558,0.018597994,-0.02976317,0.037152722,-0.010821898,0.034778655,-0.058749918,0.055160668,0.028574139,-0.059665944,0.025106143,0.052099105,-0.022348858,-0.027773049,-0.019767739,-0.04140762,-0.022359863,-0.012054759,-0.022431381,-0.05003137,-0.012387838,-0.015181741,-0.013718334,-0.039553,-0.010165364,0.04177217,0.06297561,0.01465366,0.0068299947,0.03245866,0.010439403,0.044364713,0.029834542,0.004260609,-0.051776607,-0.041044496,-0.050949395,-0.007219225,-0.046302196,-0.025217112,-0.04467646,0.01742094,0.043634653,0.04761058,-0.012554632,-0.0363336,-0.053920325,-0.024049634,-0.05601515,0.033648368,0.046132993,0.048418462,0.052193508,-0.03923495,-0.025975704,0.0011016312,0.008004835,-0.05981093,-0.049781244,0.057171308,-0.048014164,0.042902514,0.010496971,-0.03786432,-0.010619827,0.02700995,-0.0101727545,-0.006830337,0.048140157,0.0018856238,0.019711703,-0.040304385,-0.037362818,0.054921284,0.058743864,-0.0577241,0.04797619,0.021377547,-0.031330258,-0.0017828208,-0.008533703,-0.061096318,-0.05256925,0.049856152,-0.038351484,-0.050500307,-0.0038856193,-0.020062273,-0.01911499,-0.04027234,0.051171023,0.046696015,0.0463112,0.01893382,0.037889272,-0.028092006,-0.021807063,0.01124235,0.054336347,0.04243708,0.051969826,-0.050158817,0.061425954,-0.0069200476,0.0516751,-0.0070360866,-0.030011263,-0.0030272827,0.05885397,-0.0015802095,0.043550342,0.01704759,0.0142784435,-0.054574348,-0.049756885,-0.0058431155,-0.058218155,-0.003331992,0.006697628,-0.02686411,0.011191578,-0.054736745,0.042850718,-0.034825042,-0.003905395,0.0015600064,-0.012997198,0.03582196,-0.022120753,-0.0015895535,-0.0020006076,-0.0028757486,0.016193269,0.036053263,-0.025835931,0.006225608,-0.020376727,0.006676105,0.056334987,0.054861106,0.02097825,0.041366305,-0.022218922,0.049420886,0.030124336,-0.022765253,-0.02432194,-0.048824817,0.056172963,-0.026372828,-0.0062615764,0.026859656,-0.02081114,-0.0118537545,-0.051289693,0.02389252,0.015776148,0.0020461455,-0.0029860288,-0.05872084,0.04983682,-0.023518318,-0.016171165,0.024596116,0.041036032,-0.0804682,-0.01944464,0.05670773,-0.009774037,0.0037952152,0.044561498,-0.031340748,-0.047385942,0.0267522,-0.017397808,0.039450523,0.04867696,-0.026185716,-0.056597374,-0.05428173,0.0221172,0.06043277
0.01720997,-0.061707333,0.05114221,-0.033820093,-0.028804243,-0.029437326,0.020415671,-0.033059135,-0.059154727,0.058072448,0.041040882,-0.012836926,0.03912422,-0.022836946,0.048332505,-0.04164558,-0.042951748,-0.0022112206,0.022914872,-0.0017750338,0.035153136,0.053039774,0.05225031,-0.04342696,-0.01605802,-0.058348402,0.056937076,-0.028148204,-0.053474158,0.00235264,-0.023081005,0.047722697,0.012014598,-0.017903402,-0.020824715,0.0015908405,0.0510922,-0.05759722,-0.043071702,0.029500805,0.054721482,0.018238008,0.0054735094,-0.052531227,-0.019835949,0.0004202202,-0.022588335,-0.062294766,0.007945076,0.041971773,0.03584592,0.017189912,0.035520203,0.0105522275,0.04160469,0.022848211,0.0473065,0.0024147183,-0.0029106215,0.018319465,-0.0063453764,-0.0568619,-0.034361348,0.051227458,0.038698114,0.01979465,-0.038722873,-0.041071095,-0.041243553,-0.051694304,-0.023419522,-0.035083316,0.0006670654,-0.022119626,-0.023323946,0.024437755,0.059059456,-0.03833981,0.045465104,-0.04174161,0.0015508756,0.0008581504,0.015436217,-0.010389484,-0.06191194,0.0069687217,0.046530284,0.059500255,0.013510585,-0.036763415,0.005381264,0.052030608,-0.023606896,0.020630807,-0.04968307,-0.032595836,-0.056206807,-0.050487988,-0.041534953,0.032417223,0.015802711,-0.00625816,0.03493876,-0.028355323,0.039347745,-0.0552947,0.05418749,-0.060457714,-0.032152094,0.03432218,-0.042111754,-0.02762413,0.053042084,0.024653211,-0.054739058,0.0046954453,0.054043107,-0.0021658242,-0.049061537,-0.011753991,-0.03871026,-0.00845176,0.045465358,-0.048040338,-0.0030155927,0.056214146,-0.05396454,-0.009676933,-0.054119892,0.04319571,0.018729419,0.005158268,-0.03283859,0.05117183,-0.04620859,0.018017225,-0.008009985,-0.034559377,0.032708004,-0.051867984,0.03271018,-0.050226122,-0.052321166,0.043175817,-0.015768968,-0.06031789,0.0555034,-0.013380535,0.017392889,-0.009537607,0.009319134,0.01787252,-0.0005638227,0.026916504,0.049011394,-0.015545383,0.027115457,-0.04878685,0.059862226,0.017944485,0.008354023,0.03801585,0.012874685,0.021007575,0.042950593,0.034107424,-0.061827704,0.010566659,0.021182671,0.01608222,-0.05537238,-0.05195567,-0.04681492,-0.036245123,0.0241241,0.011397466,-0.018626034,-0.022440724,0.052925497,-0.036034517,0.042375937,-0.027867325,0.038731083,0.01224114,-0.03498713,-0.012685172,-0.044421077,-0.04194428,0.061151393,-0.015675157,0.044368483,0.047708347,-0.02220337,0.0028470457,0.006075673,0.027480185,-0.0116698295,0.007989511,-0.05760838,0.002355203,-0.05429942,-0.056995697,-0.03984955,0.0563502,-0.008559011,0.049792394,0.004682623,-0.009456113,-0.02403944,-0.0076910034,0.024319626,-0.04674737,0.025729366,0.043132193,-0.031174436,0.0020188838,-0.03379582,0.053431064,-0.034389213,-0.01485499,0.0034048334,-0.012939356,0.027882546,0.05326882,-0.036128327,0.05059305,0.046676636,-0.03179901,-0.014174312,0.05478415,0.01746609,0.040043704,0.037204996,0.038347483,-0.049898177,0.0074125975,0.0023740977,-0.056123592,0.00910677,-0.03563992,0.057066455,0.04434257,0.037689634,0.018939205,0.039158203,0.0031932294,-0.045406014,-0.045142688,0.01653377,0.019616328,-0.061526023,0.05122917,0.017981485,0.059710473,-0.06129647,-0.05202253
0.02640029,-0.050372027,-0.008321112,-0.018400827,0.008784875,-0.04962204,0.054655783,0.021038823,-0.010453821,-0.009860568,-0.0008349799,-0.008938684,0.009621069,0.055178404,-0.04621542,0.0050846008,0.05253474,-0.031816497,0.015263051,0.024816783,0.0036848187,0.057615243,-0.03381273,-0.044889398,-0.023276165,-0.03063862,-0.04178707,-0.036747746,-0.05813337,-0.03685398,0.014140554,-0.03738594,-0.001973398,-0.009593563,-0.0048333704,0.049190596,-0.036945395,0.012107715,0.035413947,-0.055426102,-0.035796493,0.016362386,0.02424203,-0.01807762,-0.05419571,0.016552022,-0.04921067,-0.05521941,-0.05072831,0.03362238,0.02392701,-0.008096753,0.010389968,-0.06596155,-0.022067733,-0.06519143,0.055360883,0.028188262,0.04635439,-0.017168634,0.026725829,-0.014320554,0.04397513,-0.025064506,-0.013981245,-0.0022768304,0.007120788,-0.025261499,0.039390955,0.02680771,-0.04497487,-0.03992212,-0.008866114,0.033659462,-0.07189586,-0.055715837,-0.046151005,-0.06429224,0.039180815,0.014941461,0.031825535,-0.069234505,0.0044833813,0.003027489,0.041943423,-0.01231042,0.026404718,-0.00863893,0.020593964,-0.011767186,0.0008321429,-0.0051685683,-0.05089508,-0.0008409478,0.019191131,-0.03748001,0.022321075,-0.020146435,-0.014884045,0.0007583712,-0.031077493,0.001754947,0.025157625,0.051688004,0.018966079,-0.05943544,0.005161107,0.008641409,-0.05307299,0.05935,-0.016882934,-0.04381007,0.05267684,-0.04088683,-0.008279045,-0.0637932,-0.04305461,-0.015579832,-0.01343341,0.013059847,-0.040180005,-0.017946796,0.033516534,-0.052484874,0.021097045,0.0104088895,-0.039554875,0.029699862,0.048248522,-0.056517545,-0.01977793,-0.038718164,-0.022034002,0.008757572,0.0035697394,0.0128674125,-0.07058197,-0.012571281,-0.021853836,-0.015023977,-0.014315799,-0.0134217655,0.04211121,-0.035370566,-0.05949032,-0.005424929,-0.043417417,0.010890789,0.006789864,-0.03643403,-0.061536144,0.051791996,-0.0105529465,0.009375284,-0.04208229,-0.055257186,-0.020571595,0.026113495,-0.028597616,-0.029266229,-0.02005478,-0.067660786,0.016793352,-0.038250983,-0.033040773,-0.0065916325,-0.016291142,0.0067805923,-0.017274424,0.016367117,-0.03415254,-0.025188917,-0.00987148,0.021890445,-0.018836983,0.0067127584,0.015452683,0.040507782,0.044056874,-0.023017988,-0.02744673,0.005443983,0.02443557,-0.031414263,0.03591051,0.020344464,-0.07071776,0.035981625,0.016214572,-0.007934095,0.047642637,0.008113423,0.026797857,-0.00091037684,0.0033422974,-0.06016407,-0.0009739474,-0.048110507,-0.0058994796,-0.008604166,0.00051341666,0.019501917,0.045966405,0.02146253,0.03752365,0.029395359,-0.007703611,-0.020724814,0.008185893,-0.04859662,-0.017382383,0.038566526,0.048364613,-0.043154135,-0.019753747,-0.007600107,0.03110837,0.013899288,0.046695672,0.042145606,-0.02436323,-0.032494754,0.039054997,-0.034577478,-0.041173324,0.050703123,0.0056125186,-0.020259261,0.049568363,0.0226341,0.0255972,-0.0084487125,0.009422988,0.027441002,0.049800206,-0.04624733,0.045501277,0.03639561,-0.0006987676,-0.014919313,-0.0018245288,0.03519396,0.008539546,-0.022816105,0.008521669,0.05294828,-0.02232025,0.020252712,0.027884284,-0.0055837044,-0.020862348,0.011393475,0.030670187,0.028182743,0.020336624,-0.062076587
0.03075033,0.022422291,0.03223527,0.04763416,0.033220917,0.027644625,-0.0010484313,0.024805542,0.0657477,0.0317794,0.037670992,0.01983675,0.05678752,-0.058877625,-0.010739015,0.051645514,0.010991347,-0.014995777,-0.040026754,-0.03575307,-0.051277824,-0.011043273,-0.036016263,0.028969586,-0.045080975,-0.022485381,-0.022006491,-0.025870042,-0.056441475,-0.026311724,0.021198826,0.0056767687,0.051526114,0.0669058,-0.047305077,0.046830703,0.02025831,0.027235024,-0.007976084,-0.025786541,-0.0392257,0.0017328475,-0.040267807,0.062354717,0.0061301277,0.055409368,0.00600807,0.019881777,0.010021222,0.036119364,-0.01485859,-0.0075656837,-0.05226555,0.068220094,0.010352209,0.045406405,-0.057816565,-0.121152215,-0.015513323,0.04456712,0.03850647,0.034449596,-0.032250613,-0.021556325,-0.042637542,-0.014564879,0.0033312663,0.028133191,0.021975098,0.047767065,-0.036763348,-0.04059709,0.00089180697,-0.015259356,0.010703251,-7.272061e-05,-0.017434241,-0.024790836,0.041107636,-0.11799768,-0.015622219,-0.03545566,-0.011831164,-0.04002054,0.06857749,-0.040373065,-0.026667625,0.00013126052,-0.0035899132,0.0049614646,-0.031708833,0.047063734,-0.0055183247,0.0022168702,-0.021182729,0.044231884,-0.04383536,-0.025134299,-0.05547745,0.02955655,0.02706688,0.05286853,-0.023895578,0.041319888,0.02126941,0.03437198,-0.031140355,0.022927688,0.050820485,0.061942443,0.016799659,0.049492225,-0.034568053,-0.05582552,0.027072724,0.020295365,0.02565154,-0.04385718,0.013445178,0.046527162,-0.035670582,0.011926685,-0.0181031,-0.038496595,0.0110725155,0.033114683,-0.020164886,0.044417493,-0.010144409,0.012464402,-0.016223729,0.041200295,-0.01756794,-0.0072215064,0.03461363,-0.028776137,-0.052501585,-0.055520047,0.006848923,-0.023388445,0.014893942,0.05932712,0.015549216,-0.014157626,-0.046729974,-0.04744284,0.0174054,-0.016946033,-0.035874397,-0.059536263,0.024246255,0.01643175,0.052677024,-0.015423812,0.02534637,-0.030893192,-0.009467895,-0.042985383,-0.05754242,-0.046643935,0.047571324,-0.070309125,0.011754647,-0.01578319,-0.015825998,0.030755231,0.036476485,-0.00024658436,0.019834101,-0.21427523,0.052090213,-0.016571857,0.060508646,0.012556257,-0.03093268,0.049931843,0.055160604,-0.04763917,-0.02360181,0.0020363475,-0.044092204,-0.023474805,0.033001695,-0.064559445,0.04641688,0.00598753,0.044749208,-0.038866475,0.0416246,-0.04614756,-0.031237151,-0.017719664,-0.047252018,-0.035263617,0.049086124,0.022779422,-0.027802274,-0.052281953,0.056322254,-0.019743701,0.025860623,-0.018239096,-0.043568186,0.06340173,0.036964267,-0.016310802,0.056018922,-0.009346245,-0.05071716,0.014244796,-0.00026507676,-0.0052755857,-0.003888973,-0.0038469806,0.052929282,0.058216047,-0.0018354943,0.0298765,0.05387906,-0.009397772,0.049261518,0.03013593,-0.02741859,0.041943748,-0.006166589,0.041313753,0.015991842,0.052336812,-0.015337479,0.043427672,0.009759617,-0.012483507,-0.0070453286,0.012721412,-0.007661839,0.03523341,-0.016350232,-0.04280339,-0.04654021,0.0518885,0.06482262,0.029541401,-0.036969464,0.024492007,-0.059928924,-0.036726937,-0.06238567,0.03304333,-0.025836589,0.008054229,0.020529933,-0.04102768,0.028681325,-0.010738023,0.048601545,0.037201136
0.015694097,0.041929938,-0.015465226,-0.014497939,-0.046122886,0.000469717,-0.056500956,0.059403047,0.0030773485,0.06219863,0.0016548855,0.020720812,-0.022758998,0.0029349104,0.032948326,-0.09866604,-0.0077275657,0.06330467,-0.04871943,0.015131912,0.046376966,-0.047980033,0.018185332,0.04120414,0.050337896,-0.026707798,0.0063392217,-0.038663875,0.016126702,0.06552147,-0.027874578,0.0061684027,0.0030805946,0.019065963,-0.012577049,0.0060131415,-0.05901225,0.03506294,0.037358977,0.013108324,0.06134156,-0.034426194,-0.05209811,0.06503269,0.02583315,-0.06271545,-0.00796643,0.01864668,-0.027058473,-0.043887675,0.029058194,-0.019763269,-0.057404175,0.019349106,0.027990937,-0.019053828,-0.0597793,-0.47484764,0.054543078,0.018244801,0.020153835,-0.045225684,-0.014969178,-0.04708141,-0.035717778,-0.050937146,0.008792751,0.04963837,0.038814414,0.044890143,-0.04083313,0.010204497,0.040183313,-0.0009106487,0.0006221774,0.035071835,0.03377756,0.007104217,-0.041813046,-0.0048717773,-0.055829246,0.017648036,-0.2865327,0.021899736,0.0038675296,0.016652219,0.019050648,-0.021156184,0.0072618127,-0.01584322,-0.008291345,0.017490434,-0.043616995,0.003782411,-0.02308685,0.025011426,0.047756463,0.035020526,-0.05207898,0.021452127,0.046823084,-0.0030045807,-0.04603867,0.003988457,-0.057943754,-0.037940808,-0.012429934,-0.059674703,0.0240014,-0.02589155,0.025056899,-0.056824997,-0.03585919,0.039562684,-0.049769226,-0.036838748,-0.04053082,0.0261382,-0.08256743,-0.0266184,-0.0034151014,0.045178007,0.01556813,0.038685277,0.011950494,-0.01042328,0.033274703,-0.044621773,-0.03730103,-0.03670008,0.0075934026,0.012090273,-0.037392743,-0.0009766408,0.024572613,0.024100527,-0.02013677,0.05582526,-0.005377382,-0.0013282624,0.046202227,0.040985394,0.0673013,0.04679514,-0.00036006377,-0.050794147,-0.010252567,-0.06920088,0.05067293,0.0040999204,0.056466244,0.008188912,0.044105537,-0.043672226,-0.043765645,-0.02520495,0.022948448,0.0024866995,0.04461444,0.03550156,-0.005930908,-0.04316874,0.034622602,-0.009178802,-0.06858134,-0.030067798,0.005216509,0.060682695,-0.029143326,-0.045796055,0.011274591,0.016938796,-0.017846622,0.0056763147,0.0004669115,0.046999473,-0.032836437,0.0060375985,-0.003162464,-0.011337199,0.028818626,-0.061652377,-0.13087709,0.023471778,0.0056811795,0.0055373353,-0.013951181,-0.054677498,-0.052429624,0.04888068,-0.0050301636,-0.015889797,-0.03087653,0.051748477,0.06587726,0.008184547,0.041364983,-0.027222075,-0.058222365,-0.045815565,0.037795015,0.029915914,0.035085913,-0.032093346,-0.020125993,0.05319975,0.06011362,0.034620456,-0.014172316,0.022394758,-0.040982477,-0.029947357,0.036706813,0.065483555,-0.04792966,-0.012277757,0.013242572,-0.018918198,-0.0013926774,0.04828298,0.046477195,-0.040144578,0.016754135,0.06361197,-0.05118888,0.032441042,-0.030903136,0.012360893,-0.02919365,-0.050166067,0.06394767,0.0142070055,-0.01242137,0.037195187,-0.025826547,0.056484174,0.030216195,0.045570817,-0.061376892,-0.18919471,0.0063383356,0.03285977,0.028902873,-0.031960662,0.03172519,0.0058484282,0.05983703,0.050354566,-0.029707598,-0.047081556,0.025380254,-0.03526809,0.003098126,0.042299993,-0.0087431865,0.051233817
0.017330643,-0.013404809,-0.0426129,-0.033287205,0.055066906,-0.047602016,-0.021455437,-0.052468877,-0.013056448,0.03942842,-0.040319223,0.030949483,0.002752483,-0.043940507,0.043231066,0.019836387,0.0062089902,0.0038609013,0.016366482,0.025045846,0.059081726,0.03528399,0.02575367,0.003933899,0.018435493,0.03568544,-0.019220926,0.007100882,0.029496051,0.0034457166,-0.037246063,0.023336023,0.0168145,-0.024618609,-0.05543091,-0.063124165,-0.010732994,0.023605809,-0.007878763,0.040613443,-0.01418114,-0.042049367,0.050390325,-0.018740319,-0.0155831175,-0.05544875,-0.047152374,-0.038069636,-0.056861024,-0.043311447,-0.055789735,-0.018293338,-0.024660464,0.041902997,0.008625269,-0.013847311,0.030458212,-0.049683828,-0.057083637,0.061217763,-0.009149678,0.05535065,0.04656057,0.04236184,-0.043345258,0.009952523,0.01256758,-0.047692046,0.031548817,-0.049485147,0.023185112,-0.02833183,0.054532167,0.04035414,0.023109758,-0.024188906,0.05348959,-0.036248162,-0.06664708,0.033167407,-0.021999633,0.0169587,-0.052552726,-0.0023346837,0.0522261,-0.056911416,0.053727437,-0.036984146,-0.025833018,0.0016697436,-0.019291297,-0.042957455,0.06184516,0.05474418,0.0047595156,0.04067757,0.051295508,-0.011382579,0.012263842,0.013844894,-0.030756535,0.04650379,0.05066341,-0.06373901,0.060135745,-0.010828932,0.033371076,-0.040690437,0.025291493,0.032368004,-0.0017777756,-0.040917218,0.04682139,0.017020956,-0.044977132,0.018856766,0.04815016,-0.059061218,-0.047560394,-0.06291121,-0.004157113,0.028872982,-0.03453228,0.011500963,0.045052517,0.03162567,0.036962453,0.061301716,-0.050666388,4.81318e-05,-0.01648372,0.004275918,-0.067802906,-0.0010948401,-0.019216007,0.0001566682,-0.04656968,-0.0033144574,0.026663708,-0.016237425,0.002874203,0.040087238,-0.052357886,-0.062470466,0.0040251245,0.022279292,-0.06731219,-0.071230344,0.02629368,-0.008874827,-0.039523356,0.059434686,-0.03783117,0.01956073,-0.06857905,0.04886119,-0.06420052,0.047868397,-0.0038309172,0.025214683,0.04640644,-0.04431131,0.048429508,0.011928096,-0.0063797925,-0.023361927,-0.060224347,0.010011526,-0.0041671544,-0.028162615,0.0056183888,0.0032257487,0.0028887035,-0.066926815,0.027164783,0.050734896,0.019560851,0.03157849,-0.04670543,-0.047130745,-0.043859255,-0.025969252,0.00748289,-0.04024216,0.04208702,0.012526467,0.023354834,-0.06819877,0.026044577,-0.012041428,-0.04019579,-0.05912348,-0.023533866,-0.038264662,-0.037200656,0.048935004,0.053925496,0.024543464,0.048018478,-0.013277573,0.0070756953,-0.03380364,-0.017506743,-0.041421987,-0.03259439,0.050610702,0.0541057,-0.008685235,0.0050532296,0.011598305,0.045505896,-0.027039696,-0.004549969,0.02801627,-0.0054364353,-0.011949546,-0.019651959,0.0343837,0.018286332,0.023145668,-0.029062036,0.03405302,0.00078443805,-0.05945099,0.030854613,0.029587604,-0.019277,0.020081878,-0.0650768,0.009255444,0.056141727,0.03311979,-0.03608565,0.03167077,0.0067194705,-0.005515778,-0.031115748,-0.05575537,0.014394432,-0.031784862,-0.057741527,-0.035655282,-0.059287906,-0.029827809,-0.0021233335,-0.0049848,-0.0052585835,-0.031538177,-0.0046076775,0.014832039,-0.057460606,0.03805573,0.006888551,0.042051703,0.00025798206,0.027330315
-0.024267027,-0.008528896,-0.02813601,0.05080704,0.050791427,0.018607939,0.060623318,0.021308448,0.065270774,-0.00989683,0.02229131,-0.05397582,-0.03206967,0.052659117,0.04690009,-0.14372137,0.05543312,-0.020073883,0.042338297,-0.0020276639,0.016207002,-0.029396847,0.0020771474,0.052761734,0.060281597,-0.0077793226,0.027022475,0.053793427,0.015976673,-0.036581255,-0.0195925,0.049621813,-0.03746228,-0.040977508,0.035989158,0.05703051,0.045964383,0.059951708,0.052192938,-0.020958405,0.06432603,-0.02957155,0.06822721,-0.005753629,0.061531823,0.022079913,0.024270015,-0.059501216,-0.042430494,0.045042206,-0.020943742,0.05269591,0.047620777,-0.013204832,0.028949521,-0.013619899,-0.051039293,-0.49334458,0.021298697,0.03326913,0.027841039,-0.040804874,-0.060222447,-0.01931236,-0.014938824,0.010448314,-0.05623631,0.022040166,0.021807507,0.0007288307,-0.061870374,-0.039830968,-0.0031051356,0.040154617,0.022060359,0.036257215,-0.019186283,-0.0073215403,-0.048879452,-0.086617194,-0.02069964,0.005053844,-0.2945043,0.012716051,-0.050051067,0.016201483,0.036369972,-0.019820841,0.00735271,0.027804507,-0.03078212,0.06451385,-0.020782948,0.068402834,-0.0047297957,0.0631711,0.018096626,-0.03217146,0.024793793,-0.034826346,-0.027412836,-0.042195454,-0.016796542,0.045774885,-0.04218495,-0.01870872,-0.013951383,-0.007120182,0.02015128,-0.002326049,0.010140307,-0.024030916,0.022762803,0.061868943,-0.0400439,0.06651722,0.012243448,0.023072751,-0.13005511,0.053665277,0.0013695888,0.0506615,0.03418403,0.05237152,-0.006579245,-0.027643286,0.007172048,0.056156725,-0.048030447,-0.05719384,0.006103277,0.025965266,0.0010624579,0.005311792,0.015222607,-0.0341872,0.016099341,0.030343391,0.057876647,0.056729328,-0.04468102,0.06820138,-0.024241477,0.026734082,0.07002678,-0.015940461,0.048806,-0.0830904,-0.027547967,-0.036175862,0.034586463,-0.10701117,-0.032229003,-0.004533532,0.042057727,-0.05842463,0.07036573,0.058880072,-0.036056206,0.009439838,-0.014776371,0.02127087,-0.04136691,0.014633596,-0.08025684,-0.01725827,-0.050574273,0.028470831,-0.010010608,-0.13662721,0.04544104,0.01975563,-0.0023991242,-0.028243903,0.050570138,0.030428141,-0.01343257,-0.010296223,0.012354721,-0.0036569305,-0.032775067,-0.016778879,-0.29025155,-0.01986388,0.019535251,-0.04791994,0.026493646,-0.02855564,-0.011634044,0.05690093,0.01729396,-0.05171556,0.043836016,-0.030741485,0.023293432,0.005067001,0.04518478,0.032708205,-0.0024141287,-0.040823318,0.0033499117,0.04915818,-0.021022318,-0.029921176,0.0005881116,0.055524897,-0.037955433,-0.005528314,0.05120968,-0.03204109,-0.007485725,0.066835366,-0.025389688,-0.0028501882,-0.047338016,-0.037005797,-0.030025676,0.015593648,0.037759736,-0.0316953,-0.048181742,0.032663763,-0.0058799074,0.02485394,-0.00885331,-0.029690035,0.06032921,0.056431703,-0.033630162,-0.051260486,0.017522803,-0.027032897,0.05968564,-0.045287993,0.04164054,-0.037580322,0.019785516,-0.013828519,0.062010936,-0.23490019,0.061410308,0.017950654,0.001843508,0.009597455,-0.023484059,-0.044535212,0.046922375,0.018789306,-0.07299386,-0.0065569286,0.054529026,0.024724243,-0.0018201852,0.0025103923,-0.0034031465,-0.017137438
-0.037696037,-0.04146696,-0.016884739,-0.042788036,-0.023731679,0.05664286,0.061847605,0.028955314,0.054454766,-0.009836003,0.02723653,0.0716416,-0.021989204,0.047878288,-0.028585326,-0.091576494,0.017159633,-0.016139567,0.011049554,-0.007869413,-0.013087593,0.056824625,-0.035740286,0.036807857,0.031996153,-0.0019867795,0.01700229,0.052455764,0.023606429,-0.02731927,-0.050299942,0.057748415,-0.04296608,-0.042739253,0.0051639304,-0.021334127,0.054643784,0.036333166,-0.05775859,-0.0048059598,0.0018124392,0.058643304,-0.022550737,0.020175574,0.03499824,-0.025639895,0.02271283,-0.04730846,0.056779765,0.030537847,-0.024309326,-0.01668458,0.06078094,-0.012242407,0.0477582,0.031027235,-0.019570224,0.041926246,-0.049838472,0.041800573,-0.06186924,0.010530352,-0.044696517,0.06149458,-0.046506636,-0.05393049,0.0018252283,-0.059374787,-0.004843046,-0.05516564,-0.03796705,-0.014085059,0.043010566,0.0408457,0.0014267365,0.014012588,-0.0088547645,-0.031173715,0.061736897,-0.07209698,-0.017377418,-0.0519134,-0.004687639,0.019660462,-0.05596734,-0.03238448,0.053282425,-0.034885187,0.032638513,9.504034e-05,-0.011085688,0.060756937,-0.042151064,0.032342985,0.064900145,0.0128126135,-0.039867695,0.040311106,0.04769537,-0.027845137,0.02019704,-0.00743556,0.06504112,0.014372044,0.042624235,0.06883449,-0.0326912,0.0018800092,-0.04920261,0.0053739473,0.042931594,0.008874059,-0.0063408734,0.054283395,0.06150565,0.04641282,0.0033142215,0.032387856,-0.13117501,0.020025335,0.011721992,0.047845162,-0.040566392,-0.004660736,0.05196251,-0.0055961274,0.038211092,0.05188808,0.0048491564,0.049909573,-0.014315544,0.019672647,-0.00937384,-0.04631108,0.0008394694,-0.049892206,-0.0022415149,0.046587635,0.03313449,-0.042436868,0.004785128,-0.036138415,0.06537572,0.061533738,-0.041563652,-0.04449625,0.0049526584,-0.02587387,0.051602937,0.019969447,0.01731389,-0.08006733,0.028796997,-0.03295626,0.009306264,-0.05829884,0.034250334,-0.0043001394,-0.01874458,0.048191138,0.033563636,0.024621522,0.032039464,-0.032737657,0.02505154,0.034474395,0.039674282,0.05687159,0.029371276,-0.028269747,-0.055861253,0.041016206,-0.036521554,-0.051172208,-0.02539257,-0.0068335505,-0.044148102,0.025213601,-0.0057683433,-0.023813127,-0.008276067,0.03980363,0.07083176,-0.0016747204,0.012733273,0.05067039,-0.016641751,0.049290318,0.024203293,0.049613386,0.041875165,-0.039317653,0.04419296,0.0086113205,0.054331753,0.0226558,0.0039213076,-0.042210087,-0.05527604,-0.022467136,0.063323036,0.055831797,0.03812186,-0.023689285,-0.011849247,0.01086696,0.016537512,-0.0034084222,0.046817943,0.03546617,0.033975355,0.011491764,0.0002535177,-0.02428307,0.057770237,-0.047112294,0.0072252047,-0.019751744,-0.04622765,-0.003806924,0.012602559,-0.022340387,-0.0066234414,-0.04055237,-0.04338094,0.04683929,-0.0371293,-0.040067755,0.0011903568,0.010288827,-0.032348603,-0.016096905,0.050669797,-0.03762255,0.0127526885,-0.03146964,-0.04780168,0.055478957,-0.024331905,-0.11248092,0.016754542,0.009757914,0.013518727,0.016821574,-0.014329635,0.062169924,-0.020206116,0.052795894,-0.053949703,-0.011503993,0.022424228,0.015091289,-0.019431258,-0.013348248,0.057338726,0.010104562
0.057069205,-0.019203976,-0.051557973,0.032176472,-0.043397285,-0.013240181,-0.056428812,-0.013765335,0.053044185,0.035583287,0.058471687,0.05381649,0.021298751,-0.017475814,-0.0129283,0.043924704,0.038007997,0.030498132,-0.015764318,0.040348582,-0.026494674,0.04506108,0.038719334,-0.03186149,0.031896383,0.0361488,-0.059482716,-0.047650695,0.03334684,0.0009442866,-0.031710997,-0.04598757,-0.0065787286,-0.051415563,-0.04603757,-0.05645155,-0.038666576,-0.046692446,-0.04773508,-0.03857354,-0.02367878,-0.01148814,-0.05003576,-0.04630553,0.008983426,-0.031766735,-0.059862025,-0.061503485,-0.032741345,-0.05517833,0.01793477,0.017292194,-0.022832714,-0.061803207,-0.018654853,-0.05855213,-0.018377803,-0.054585584,0.0029952675,0.03202872,0.062439427,-0.027913257,0.058519013,0.02082903,-0.028047152,0.021737471,-0.053004526,-0.032076865,0.055713907,0.028898828,-0.055162765,-0.008553192,0.04332111,0.042162225,-0.0055589825,0.04616026,0.046467416,0.003957115,0.03785085,-0.05226399,-0.03644263,0.04551007,-0.04043583,-0.026839204,0.044950046,-0.032877706,0.046949126,0.05428108,0.0435561,-0.011355519,-0.023067445,-0.010905653,0.0027906448,0.014652148,0.0023002326,-0.046930782,-0.03999362,0.006207213,0.008776151,-0.050976798,-0.04336159,-0.033082016,0.010097221,0.028134994,0.022703148,0.018366732,0.0081921965,0.051420957,0.03894019,-0.0002092421,0.01194676,-0.0108993575,-0.03150565,-0.05528622,0.0025695711,-0.02689594,0.008256212,0.00049284846,-0.021180175,-0.0057170466,0.020357206,0.052629642,-0.020344645,-0.05369751,-0.0033304393,-0.05223383,0.028824165,-0.05423604,0.0041695684,0.046468437,-0.054075047,0.051743776,0.034320712,0.0079282075,-0.036616683,0.059880055,0.0024156347,0.03496293,0.042133287,0.031381875,0.058497973,0.049062334,0.036467098,0.0051395074,-0.019998707,-0.061717384,0.029993534,-0.007238634,0.06231617,-0.04690414,-0.00433892,-0.02215951,-0.057961054,0.03639967,-0.0083709285,-0.020253494,0.038568154,0.022894934,0.010416888,0.062036276,-0.051846184,-0.057243012,-0.04042188,0.0078980625,-0.02585484,-0.05755105,-0.05125299,-0.023044445,-0.0434542,0.003898114,-0.031131268,-0.01995714,0.043012142,-0.01766751,-0.019720867,-0.024053857,-0.0026528984,0.01787474,0.04135471,0.053204134,-0.008731902,0.0014696345,-0.053386077,0.026038282,0.028068855,0.021494918,-0.03430718,0.03382816,-0.032759316,-0.038405016,-0.035153672,-0.053152196,0.042453386,0.028511643,-0.04736253,-0.019279055,0.003477417,-0.04918672,0.01731795,0.043011427,0.041848905,0.0012539104,0.03223508,-0.0068183094,-0.02182506,0.057132818,-0.040089116,0.050054505,-0.010825045,-0.012039341,0.016035266,0.012203708,0.02237019,-0.056705914,0.02595304,0.0037768483,-0.061193146,-0.022715233,-0.03969855,-0.06164331,0.033446833,-0.023792073,-0.004129097,0.04242926,-0.0023290738,-0.021339625,-0.04150477,0.046961255,-0.039706044,-0.022957891,-0.002329722,0.042909622,-0.01707007,-0.042836912,0.040298678,0.061407723,-0.013362311,0.0609511,-0.04985796,-0.061264925,-0.025064178,0.04848353,0.059293382,-0.058861524,0.050111383,0.022770427,-0.023263067,0.035863273,0.05759365,-0.034750372,0.040252484,0.0009790882,0.011654235,0.050207935,-0.033224694,0.004579149
-0.03951711,0.012654096,0.049585372,0.0042169895,-0.03774818,-0.03857905,-0.053075578,-0.0445428,0.027344024,-0.016913176,-0.052325945,0.055573933,-0.038057745,-0.029168911,-0.03884215,-0.06870669,-0.061401278,-0.065465376,-0.032140978,0.030180808,0.010404624,-0.029831141,0.016649507,-0.017684005,-0.0042215884,-0.046813775,0.0067867083,-0.00871224,0.018279243,-0.043796837,0.04606354,0.005486466,-0.06393078,-0.02265425,-0.055373795,-0.06300347,-0.023053948,-0.0423906,-0.054464217,0.03328341,0.024565965,0.037363943,0.021365285,-0.07103565,0.03480332,-0.0092331115,0.014108244,-0.052438326,0.011051622,-0.055482417,0.02348643,-0.034860127,-0.051681038,0.048328646,-0.0007461682,0.022358883,0.007478483,0.02273642,-0.06672085,0.03510016,-0.00055369735,-0.0043414007,-0.014966898,0.037639044,0.05082141,-0.0041036084,0.024530813,-0.023687154,-0.0682466,0.007726975,-0.040871225,-0.06476602,-0.0638538,-0.030412098,0.03707627,-0.042516664,-0.0104127405,-0.002805408,-0.026561499,-0.0015459118,-0.034388125,0.0184671,0.029100642,0.051424503,-0.04869022,-0.07030837,0.039953977,0.054634523,0.044283636,0.033538725,0.055840306,0.038595755,0.046457507,-0.06943269,-0.041448146,-0.032984957,0.046316933,0.041093834,-0.05040701,-0.049856324,-0.0039327024,-0.020013228,0.0018608641,-0.04574683,-0.006534688,0.048848297,0.026884407,-0.0014998788,-0.07091406,0.024448253,0.058885224,-0.017250195,-0.011900399,-0.043511983,-0.035881184,-0.0010200593,0.013387302,-0.006400476,-0.028232248,-0.02278182,-0.007228506,-0.07200681,-0.020386502,-0.02229056,-0.030136634,-0.015202935,-0.042222735,-0.026305191,0.0069032633,-0.05099966,-0.06188977,0.017679699,0.042728215,0.01913532,0.03917739,0.035327293,0.015425114,0.010952689,-0.029527035,0.0376626,-0.04119754,0.027135286,-0.04010999,0.04252243,-0.024387173,-0.0591217,-0.06876586,-0.0017808875,0.048644096,0.024424966,-0.008793827,-0.0189892,-0.009902484,0.03482254,0.043521475,0.037185647,0.00051782274,0.050941102,-0.026694499,-0.031274233,-0.06122958,0.04968339,-0.069764294,-0.04402657,0.013728774,-0.029911073,-0.029774234,-0.059411544,0.032585748,-0.009543747,0.04523299,-0.043423407,-0.03722937,-0.049276147,-0.0038149557,-0.009961721,-0.016665526,0.005656419,-0.056312732,0.051541947,-0.0021799868,-0.033938453,-0.0070417966,0.04336965,-0.03062217,0.0010669001,0.008795679,-0.059938345,-0.0043247044,-0.060558405,0.01597698,-0.015220492,-0.047235742,0.0037573632,-0.0007211172,-0.023261454,-0.021175547,-0.01346755,0.017606203,0.010083024,-0.0022213855,-0.0024088398,0.036652286,-0.023956882,0.03869313,-0.013591522,0.01641484,-0.0057068756,0.035486117,-0.014126953,0.0142849535,0.049806517,-0.03145362,-0.0010608699,-0.039934024,0.009111724,-0.07010646,0.03217726,0.019419432,-0.0013156309,0.05315835,-0.04283063,0.025265867,0.041850865,0.0017537178,-0.023368195,-0.0054081935,-0.009087399,0.015131534,0.025842385,0.03639939,-0.03200832,0.050442822,0.0040573706,0.0055924244,-0.05630341,-0.05545248,0.048160292,-0.0020947307,0.026901372,-0.03838239,0.027702816,0.05076996,-0.03193768,-0.054509252,0.005784536,-0.006276587,-0.018243337,-0.012276161,-0.054661956,0.029414803,0.034238797,-0.013584447,-0.025502414,-0.029554447,0.0040240926
-0.03161038,0.0147617385,-0.046947367,0.0075260377,0.036644235,0.019806301,-0.041262608,0.03459016,-0.014761962,-0.027651936,0.041725904,-0.017195,0.054650754,0.061396383,-0.056161843,-0.10546398,-0.0081805615,-0.023016965,0.0030824542,0.0051678894,0.018452264,-0.03970039,-0.01615762,-0.0021358877,-0.0509231,-0.0263384,0.022761166,-0.063427575,-0.011226001,-0.016451534,-0.052720524,0.0013419464,0.039470386,-0.05215505,0.056519352,0.0013305905,0.003125103,-0.00810118,0.017054046,-0.0031037787,-0.01879006,0.051541,-0.051570855,-0.0023673207,0.032541834,0.03993998,0.044182807,0.013702653,0.011593238,-0.060645636,-0.009021211,-0.042141113,-0.055123616,-0.026828384,0.060406007,-0.0073094433,-0.024203904,0.22518449,0.04367947,-0.03511377,0.010654427,0.03365617,0.037580624,-0.045450315,-0.019032508,0.017520152,-0.017923929,0.047697797,-0.0538931,0.020220056,-0.004313506,0.03156342,-0.014481697,0.065880686,-0.01605682,0.03929286,0.062269602,-0.042580735,0.0042327004,0.048126597,0.062091894,0.046723314,0.16512194,-0.049311534,-0.063632526,0.00081980455,-0.006443647,-0.0034400541,-0.029553711,0.033219773,0.019661669,0.015788317,-0.06183467,0.022418104,0.05268271,0.05127153,0.013768849,-0.026200369,-0.058271863,-0.050824244,0.025889833,-0.047670484,-0.015312621,0.044655595,0.02077604,0.046555724,-0.004138815,0.06531432,0.018968869,0.020725384,-0.033741713,-0.045530044,0.045695044,-0.020170202,-0.056544643,-0.031867694,0.007974265,-0.0087499,-0.05964569,0.0071052173,0.011846478,-0.013144937,-0.04220386,-0.02205159,0.022059346,-0.030304203,-0.034662046,-0.003907129,0.006744954,0.03178972,0.049841028,-0.0011282414,0.06143603,0.003707334,0.026571075,-0.0222293,-0.00874943,0.036368515,-0.010538062,0.02126165,0.004883744,0.04746469,-0.038495548,-0.042865533,-0.043864258,-0.019999487,-0.05184727,0.07784835,0.05409753,0.036909267,-0.05240481,0.012141662,0.049339112,-0.022062654,0.054455366,0.05859784,0.05396214,0.05198946,-0.015650734,0.037837636,-0.04430692,-0.011256026,0.049403913,-0.031839833,0.0709402,0.04232581,-0.009357333,0.011948168,-0.035988323,-0.03189894,0.025254894,0.07287605,0.010740317,-0.04598509,-0.04139091,0.0064792642,-0.05594571,0.001299428,-0.03328183,0.06425393,-0.058728438,0.015025899,0.11099633,0.0054464396,0.025952905,-0.023762925,0.026891593,0.057457488,-0.048259646,-0.033552863,-0.02314187,0.035470776,0.067402996,0.0475394,-0.0074385502,-0.06164411,0.018752621,-0.022147216,-0.00013565576,0.024192812,-0.03194168,-0.0020445734,0.037823353,0.04629239,-0.016499147,-0.028348053,-0.0055659874,-0.04025911,0.007634409,0.05769407,0.021301605,0.033072155,-0.025582675,0.046847496,0.022374831,-0.044316903,-0.027916985,-0.060585085,-0.010398693,0.059542477,0.060609683,0.045362853,-0.03309577,0.04918632,0.031580158,-0.02794952,-0.009458522,-0.039257407,0.009513529,0.013728157,0.03381655,0.020610832,-0.01303263,0.032437414,0.0004788387,-0.046926387,-0.057420947,0.0006371502,-0.031466126,-0.23632108,0.05814106,0.041464906,0.064559765,-0.06589738,0.049688093,-0.048886854,0.038029745,0.0466574,0.003769179,-0.014028485,0.021059223,0.048799142,0.057063665,-0.049234655,0.021316003,-0.057839766
