-0.032858398,-0.05427922,0.006449776,-0.06235237,-0.05373916,0.062368337,0.04689567,0.03655588,-0.07686792,0.016315084,-0.03480498,0.021858979,-0.056554135,0.07320399,-0.04095483,0.026442247,-0.0032018072,0.033492997,0.020420294,0.044902235,0.07115017,-0.047758553,0.075393714,-0.076729074,0.048920132,-0.041702114,0.06724696,-0.009813813,-0.03171959,-0.09636378,-0.06271384,0.007638537,-0.01019037,0.07056858,0.00039361048,0.053176157,-0.0039442726,0.008749785,0.08279006,0.0800372,-0.00362622,0.0536775,0.04365941,0.06852849,-0.025787573,-0.030299759,-0.0139401965,0.07409922,-0.007042065,-0.07831042,0.0594143,0.05806939,0.06720233,-0.07080179,0.00069072767,-0.092284314,0.069928,-0.021459933,-0.052940626,-0.05764554,0.014271302,-0.024608651,-0.0051996685,-0.00022440962,-0.00050028,-0.046726253,0.0730053,0.045348175,-0.06562105,-0.050679203,0.056363113,0.01702157,-0.07504771,-0.02660364,0.05504538,-0.052316323,0.049419623,0.08763683,0.039464302,-0.065236665,0.08911904,0.020218194,0.07979586,0.026209505,0.069964506,-0.041530855,-0.007509318,0.06053326,-0.0009831667,-0.08529826,-0.0056984224,-0.07213453,-0.078185916,0.06561659,0.019453542,0.021406755,0.0813231,0.07032186,0.009661884,-0.0690977,0.04477366,0.05069521,0.0011017397,-0.0795158,-0.046025727,0.021572432,0.040077794,0.054579988,0.04964244,0.02031593,0.044307113,-0.0630405,0.030608958,-0.07837645,-0.012587321,0.022079173,-0.054973576,-0.06511576,-0.080852225,0.012627649,-0.009556037,0.06956971,0.0019859315,0.051921386,-0.07356334,-0.031110452,-0.057620354,-0.010227596
0.00975742,-0.009711179,-0.07378539,-0.021447709,-0.070649415,-0.048009083,-0.008374263,0.07916925,-0.05027161,-0.0013594837,-0.06989865,-0.06865278,-0.05422547,0.067040205,0.026501592,-0.00030756663,0.06853717,0.022101315,0.0317312,-0.008713973,0.09414005,0.05284692,0.037139468,-0.022957692,-0.02294155,0.0701184,-0.06327674,-0.04602186,-0.03272553,0.0028693518,0.022439029,0.07304445,0.03809399,-0.057666086,0.09231183,-0.047106948,0.04566323,0.05927169,0.06331433,0.08789506,0.015706781,0.0063758385,-0.051195364,-0.04818143,0.042020727,0.06821502,0.06717698,0.08611004,-0.037942756,-0.017655132,-0.024741426,-0.017194765,-0.017962396,-0.028643984,0.006520518,0.009995204,-0.05548311,-0.027916666,-0.03506354,0.052845605,-0.049990017,0.06474984,0.093704514,-0.045859706,-0.070041284,0.050794862,0.053513683,-0.003151466,0.0042293053,-0.049311284,0.046902593,0.07121719,0.06533425,-0.020451345,0.03989421,-0.06646975,0.030463163,-0.021443706,0.08294341,-0.009956986,0.021851819,-0.009825572,-0.052085534,0.041420605,0.029001862,0.08159649,-0.0504327,-0.0728301,-0.053639907,-0.13287608,0.0137222065,-0.02106005,0.058998477,0.06418304,-0.016109442,0.042619035,0.016492125,-0.061661314,-0.04765538,0.08289366,-0.061569206,0.0072382293,0.07058792,0.06419183,0.01612005,-0.077834114,-0.070906915,0.0046849065,-0.031325858,-0.06217669,0.028828297,-0.035855312,-0.003616347,0.042164896,0.09353923,-0.083764,-0.029885584,0.009040209,-0.021414738,-0.05452424,-0.04464767,0.032180984,-0.027486248,0.0012679353,0.07624219,0.07930754,-0.012276539,0.06499383
-0.06497834,0.013975852,-0.07611254,-0.05048316,-0.07061995,0.008770485,-0.0025909985,0.06748811,0.0007359366,0.002198712,-0.05909375,-0.018478861,-0.019278811,-0.035084058,-0.05452936,0.08135273,-0.008034727,0.06446378,0.002495399,0.030388447,-0.07265681,0.033610698,0.0036705688,0.0674039,-0.0017546077,0.016027091,-0.08944233,-0.08961537,0.05136208,0.079612836,-0.0063976753,-0.00059271115,0.047376335,-0.04476855,0.048704457,0.05089332,-0.029309237,-0.039652288,0.007210367,-0.0029828588,0.07397332,-0.017342119,-0.043068293,0.07782468,-0.02919594,0.0011047743,0.0402683,0.060407408,-0.004018088,0.020055868,0.035219066,-0.04776812,0.016503304,0.0049373237,0.05422677,-0.06969929,0.04654148,-0.07614253,-0.041827176,-0.031842355,0.049657214,0.010075403,-0.012979663,-0.04513363,0.044652652,-0.08588633,0.022003753,-0.075175844,0.009201353,-0.033900373,-0.038531817,0.060961947,0.046878286,-0.08032039,-0.0058243973,-0.07025701,0.039140683,-0.0416791,0.058794975,0.080364145,0.05491293,-0.093211725,0.079929605,0.03815582,-0.089605145,-0.08382645,0.02961597,-0.0324828,0.056633882,-0.010753431,-0.044790562,0.017369304,-0.033716206,0.06978782,-0.04030526,0.001412296,0.04283891,-0.036690433,0.038774535,-0.08703669,0.011248581,0.021668414,-0.022212274,-0.038965724,-0.012208769,0.0066804336,0.06296916,0.08366746,0.0076422784,-0.054870702,-0.05133219,0.042164166,-0.0234871,0.08203756,0.0488189,-0.0650605,0.010007712,-0.078688435,0.044931397,0.009755977,-0.090756305,-0.07123963,-0.010879491,0.0069016307,0.037346363,-0.05121017,0.054748338,-0.019818176
-0.007964368,0.029487658,-0.010283036,0.0005288712,0.068044856,-0.04712867,0.06041304,-0.030200973,-0.08461016,-0.021793231,-0.049031984,0.010337793,-0.059061665,0.053465202,0.034773704,0.058922075,-0.049054343,0.09298755,0.010085138,-0.078205824,0.058590923,0.027378371,-0.035889775,0.09616632,0.07024727,-0.06292346,0.06397717,0.01564266,0.08593354,0.09697432,-0.05206022,0.05074163,0.07299893,-0.03846059,-0.070543915,0.0049684863,-0.07523338,-0.017065156,0.0036222371,0.028127795,-0.020144297,0.042274904,-0.06607872,0.044350833,-0.014375388,0.014605759,-0.055047482,0.06500252,-0.014244409,0.062731065,0.006384037,0.05235217,-0.019311253,0.0770932,-0.03084857,-0.0049047465,-0.02537871,0.0852702,0.09586587,-0.045343876,-0.017820688,-0.030671831,-0.016327238,-0.07510418,0.08871048,-0.045487575,0.022973547,0.04208052,-0.045255058,-0.06529469,-0.057683084,-0.018467408,0.035140567,0.010010949,-0.07433191,-0.010964953,0.07653259,0.04738806,-0.026150929,-0.0030607213,-0.01146753,0.025596958,-0.03338245,-0.0063216365,0.005992309,-0.04688297,-0.046033602,0.08151228,-0.028936904,-0.1759959,0.00040596558,0.05431293,-0.02685762,-0.07435301,-0.079757474,0.09372734,0.0881386,-0.016125401,-0.048375603,0.012909597,-0.025769468,0.056511663,-0.054614726,0.031867016,0.013268564,0.046325095,-0.07174379,0.0304535,0.05832439,0.087054156,-0.022735888,-0.070395574,-0.014420797,0.025112683,0.08706533,0.03395584,0.049085505,-0.013689763,-0.05369096,0.019238055,0.08952939,-0.016266987,0.028511832,-0.055991687,0.026545517,-0.07527787,-0.036890272,0.042938765
-0.053649973,0.08785497,0.02732656,-0.087119244,0.076910876,-0.07623828,-0.032214418,-0.021399414,0.0881836,-0.0492726,0.0019136433,-0.020999633,-0.00902442,-0.03095926,0.06879497,-0.048813403,0.02971533,0.015985405,0.02798456,-0.018123724,0.011949553,-0.025480255,-0.043069083,0.029465955,0.033518124,-0.047260366,-0.045619734,0.031437065,-0.021869842,0.047810253,-0.011909191,0.018231282,-0.05115605,-0.008361745,0.042512793,0.009672004,-0.08280818,-0.0288419,6.888902e-05,0.006572179,-0.051288553,-0.053025566,0.02719281,0.057158493,-0.06775292,-0.041251965,-0.018066868,0.06431797,0.057083298,0.029140769,-0.07243564,0.025795378,-0.07042209,0.056575138,-0.008994088,-0.017702714,-0.08284751,-0.033031825,0.050889093,0.06986337,0.08462033,0.067729905,-0.04544938,-0.0716097,0.052254852,-0.06243752,-0.09021925,0.07227935,0.08795656,0.053930707,-0.03190323,0.026856693,-0.06593363,-0.02451412,0.008816389,0.020244831,-0.072825536,0.027663117,-0.036164366,0.040490407,0.03292921,0.011679098,0.08000789,0.022636553,-0.07872687,0.042897232,0.049232453,0.060346846,-0.031228127,0.0015818661,-0.012968543,-0.007535175,-0.029154547,-0.06549434,-0.07254251,-0.0449268,0.057139598,0.014012611,-0.042100836,0.005386078,-0.06590625,-0.03285104,0.008724777,0.03458587,0.019597355,-0.0294236,-0.0026581006,-0.043712866,-0.0019590834,-0.031795684,-0.08367738,0.013387134,-0.033343785,-0.07830984,0.032544456,-0.050839067,0.017994573,0.050276764,0.054592382,0.08092953,-0.041049987,-0.06658611,0.07656238,-0.022133617,-0.06646339,0.07039726,-0.0638009,0.029538702
-0.017800082,-0.017933372,0.046187904,0.05104706,0.06438913,0.019095019,0.020401245,-0.023256795,-0.06462841,-0.06466533,-0.079139784,-0.040748127,-0.019878877,0.00668921,-0.058717716,0.07764178,-0.043680772,-0.03889695,0.053891398,0.0825449,-0.0029710326,0.028148763,0.03648248,-0.074202016,0.05130588,0.00553298,-0.02394072,-0.045462083,-0.061308596,-0.09585639,-0.03417468,-0.049353875,0.06857357,0.0033551946,0.07720114,0.055984937,0.049357474,0.057305455,-0.06589475,0.024725059,-0.06339411,0.04625831,0.013492572,0.050730534,-0.038255848,0.00728032,0.0029308707,-0.027398277,0.007066187,0.057218935,-0.01837525,0.01747362,0.076115996,-0.011811394,-0.025804026,-0.082940266,0.01909016,-0.09057674,-0.021587268,-0.07305279,-0.048838418,0.043858133,0.030198013,-0.023400132,-0.0125924125,-0.007264941,0.010504816,0.0021670577,0.06465855,-0.028039793,0.05686293,-0.04346958,-0.024218991,0.0010872933,-0.024469052,-0.088789746,0.087563924,0.07644763,-0.08051805,-0.067741826,-0.024349555,0.029531926,-0.03571008,0.064889446,0.07456685,-0.00916406,-0.05064462,0.03533681,-0.087048694,-0.013994341,-0.0016331101,-0.046619225,-0.07719406,0.048639875,-0.037767105,0.057431128,0.08039902,-0.072908066,-0.067357056,-0.077452324,0.01613872,-0.0124811055,-0.023834748,-0.0012911469,-0.009908746,-0.015487797,-0.035128064,0.00298131,-0.08768444,-0.066896126,-0.025697686,0.0135603845,-0.012668542,-0.015311423,-0.013866668,0.073033035,0.07704335,0.04639266,0.038957376,-0.08528804,-0.008652963,0.07985938,-0.057916548,0.08413111,0.035766553,-0.07645051,0.0071260855,-0.03328284
0.07047551,-0.06971042,-0.012392063,0.00053735153,0.042308286,-0.062364552,0.028466128,-0.03537452,-0.01121436,-0.02934846,-0.003060956,0.07658533,-0.026644384,-0.011382753,-0.04449985,-0.029289214,0.07681788,-0.087805234,-0.028572734,-0.015006678,-0.06333585,0.064634845,-7.066758e-05,0.036145873,0.024781993,-0.06686297,-0.054663606,0.06003661,-0.08679196,0.02426169,0.07262174,0.031344336,0.0538246,-0.01104749,-0.06492125,0.042471774,-0.029310815,-0.020940958,0.06017194,-0.0019949789,-0.07054294,-0.0038162353,-0.030657,-0.044377938,0.06830888,0.05558205,-0.021852687,0.06727956,0.010078353,0.0167697,-0.033855803,0.05872201,0.0034802128,0.078468315,0.047792856,0.07415433,0.026383901,0.07479887,-0.060978718,-0.0065208864,-0.014573379,0.029267488,-0.056117408,-0.051090613,-0.015848687,-0.09132806,-0.07017771,-0.059168655,-0.030132206,-0.07710637,0.07610128,-0.03479326,0.023281265,-0.04819206,0.05480249,-0.038111202,-0.06979936,0.0003882337,0.04684456,-0.07352549,-0.07192283,-0.013678711,0.05398258,0.033229608,-0.08377694,-0.027622178,-0.020395078,0.035978224,-0.04372346,-0.046592254,0.069035515,0.0073755058,-0.08781442,0.002895215,-0.041885328,-0.094618104,-0.026505688,0.023984075,-0.032838065,0.05365942,-0.054760847,-0.04720498,-0.06721947,-0.054731764,-0.07414172,0.032130197,-0.03044111,-0.030108064,0.010835964,0.04720767,-0.09051216,-0.034579728,-0.03996221,-0.014145904,-0.032447595,0.0065775528,-0.006359686,0.047321,0.008902852,-0.053873762,-0.04055664,0.08231806,0.04872042,-0.029251061,-0.026667753,0.01847091,0.0821358,-0.03233425
0.01273123,0.005661022,0.059313383,0.026234465,0.0042886096,-0.06313948,-0.0035752538,0.005107744,0.03282056,-0.05030284,-0.076047815,-0.009870619,-0.002502996,0.06270851,-0.006495853,0.08459521,-0.04168917,0.040078957,-0.036044907,-0.067024834,-0.09924715,0.04654126,-0.025471479,-0.01769532,0.07017992,-0.0010337054,0.005412245,-0.021654487,-0.086572126,-0.09592151,0.06677998,0.047279198,-0.06443908,-0.011303542,0.039730996,0.053045616,-0.05534285,-0.028857553,0.012084565,0.041704886,-0.07625645,0.023850389,-0.025060046,-0.08253004,-0.02010907,-0.01780208,-0.019931981,0.06503704,0.027894637,0.06986105,0.05009029,-0.029511519,0.04185123,0.05810034,-0.011471605,-0.044709817,0.023756051,-0.095387906,0.009183375,0.042686474,-0.07889017,0.030449623,0.0035396644,-0.08157833,-0.0063751345,0.046737604,0.006578248,-0.050770827,0.036599945,0.08825409,0.015090402,-0.020465042,0.07122404,-0.024395114,-0.088505395,0.041186612,-0.0072530406,-0.064662956,0.027077964,0.030690845,-0.0831109,-0.05086518,0.017526874,0.055624906,0.06926087,0.028035019,0.07459596,-0.06977441,-0.051039767,-0.066622056,0.04636954,0.011544118,0.005931778,0.048943657,-0.013476139,-0.089536116,-0.049972065,-0.0010821887,0.012973695,-0.04928004,-0.07990046,0.069527976,0.0005372143,0.06107217,0.052021842,0.07887142,0.07087299,0.029620236,-0.060136758,-0.09174447,-0.06562793,0.047095038,-0.030397423,0.08323779,-0.00018097895,-0.04918023,-0.0014220262,0.0048755254,-0.023388028,-0.01806612,0.040936846,-0.016264912,-0.03299375,0.021214025,-0.03192452,-0.021795968,0.041497603,-0.07323206
-0.06862078,-0.018734325,0.062812574,-0.06975202,-0.018330934,-0.03237528,-0.044927295,-0.033728536,0.009245217,-0.034159683,0.06545825,0.059006985,0.04471767,0.022584317,-0.0052705538,0.04551511,-0.086700924,-0.06487291,0.078492284,-0.076740235,0.06906714,-0.068121,-0.032661695,0.019871132,-0.011919918,0.059942346,0.07821105,0.07805311,0.08720542,0.006642047,-0.07475607,0.08576493,-0.068533726,-0.0020229432,0.037210822,0.0562037,0.07689803,-0.0010787805,-0.037414167,0.079296425,0.056617662,0.041660797,-0.020707259,-0.05567383,0.06657797,0.005798574,0.024566207,0.07927841,0.0615622,0.02596459,-0.074050315,0.07047385,-0.0028996083,-0.06512787,0.016045865,-0.022521215,-0.075264655,0.02506487,-0.023239607,0.0017901452,-0.042584416,0.021969067,-0.03305851,-0.05627579,-0.048741106,0.06459171,-0.053802565,-0.07926402,-0.058932092,0.080153644,-0.044349894,-0.059668995,0.059532728,0.036253504,-0.06315222,-0.07753289,-0.008861901,-0.0052407035,0.010964643,-0.03561371,-0.0158216,-0.09585853,-0.078339666,-0.07047159,0.05196019,-0.034703307,-0.0641696,0.04712361,-0.04836007,-0.04435592,-0.0624141,-0.018230803,0.04295744,0.063446656,-0.035792492,0.02717623,0.00013871581,-0.027487246,0.08207461,0.028590558,0.06631505,0.06200951,-0.015035161,0.021937206,-0.016912308,0.038976055,-0.091117404,-0.040812235,-0.09033518,0.033301927,-0.067559354,-0.09077624,0.04534765,0.020813862,-0.054484036,-0.016625868,-0.009678672,0.017115502,-0.0067249816,0.013274048,0.0029650887,0.0056490265,-0.09195827,0.035585407,-0.038439147,0.039378665,0.05721619,0.009113013
0.006444792,0.05759088,0.03634903,-0.047427293,-0.08083702,-0.05214422,-0.009377979,-0.077150315,-0.06399399,0.026247848,-0.036791805,-0.045179024,0.035565693,-0.014324013,0.060220372,0.03760779,-0.06389382,0.040834088,-0.09612004,-0.043746598,-0.041291613,0.05033143,0.07751003,0.056441177,0.030874878,0.018880108,-0.059957895,-0.035214636,0.06419253,0.022607088,-0.049982812,0.06872439,-0.014147354,0.086957686,0.035252202,0.028133538,-0.04211391,-0.027079832,-0.06951672,0.074261084,-0.06678563,-0.09163976,0.024755867,0.0010732034,0.06526069,0.08565759,-0.034236107,-0.07479971,-0.08657378,-0.07889475,0.06537614,-0.06758017,-0.06351321,-0.019766651,0.022071518,0.07157312,-0.049442396,-0.009571082,0.026804352,-0.053275026,0.06920667,0.0646675,0.079294264,-0.05925579,-0.06379131,0.05064618,-0.07185863,-0.034365453,0.02832341,-0.018381588,0.04541057,0.051162537,-0.07787574,0.07438274,0.06737883,0.024724415,-0.047093064,-0.007860539,-0.020757923,-0.08793057,0.077503935,-0.079955235,-0.019019661,-0.038859893,0.015844874,0.026902044,0.010677289,-0.03544441,0.014473845,-0.06988507,0.0006071464,0.03507743,-0.09696989,-0.02238721,-0.06415922,-0.03264061,0.018324142,-0.053787243,0.046506893,-0.01227467,-0.07734997,0.049612954,-0.07823025,-0.075185165,-0.062549666,0.04862387,-0.08734753,-0.027643358,-0.07025704,0.07583071,-0.03327395,-0.08902679,0.008924996,0.011329695,-0.06389886,-0.05931718,-0.054638665,0.009514048,0.0053288713,-0.002247728,-0.031151034,0.0043870234,0.00666684,0.019456018,-0.0699771,0.022933142,-0.048151463,0.034991283
0.049153645,-0.039400965,0.051183138,0.056828745,0.0023462302,-0.07933183,-0.07174778,-0.03543519,-0.040830687,-0.07655821,0.04134248,0.026681704,0.06605553,-0.050829943,0.061999183,0.08559183,-0.026990324,-0.0046328413,-0.088490255,0.07746112,-0.068648465,0.049147796,-0.024309004,-0.09138289,-0.016912831,0.02448215,-0.06781741,0.041146517,0.032023385,-0.046649642,-0.008712168,-0.07193153,-0.019819444,-0.061918546,5.8365593e-05,-0.030798692,0.025926327,-0.023498893,-0.011073884,-0.068287104,-0.065577395,-0.07320491,-0.005596997,-0.08768513,0.025336629,0.0059072073,-0.0696485,-0.070791215,-0.09084574,-0.08776116,0.017927894,-0.079094894,0.0068718013,0.03543645,0.038537476,-0.04949576,0.065605946,-0.052662514,0.035779633,0.049365252,-0.0046442878,0.06143121,0.07696443,-0.00056535116,-0.02134835,0.028055966,-0.05027439,-0.016890895,0.030072939,0.060020294,-0.0189969,0.0040546795,0.061349247,-0.06387929,-0.069635354,-0.070869654,-0.0663288,0.048143174,-0.04517189,0.011685666,0.030966407,0.02889026,0.0055139735,0.04787292,-0.029355405,0.076228455,0.007686725,0.07155794,-0.065586686,0.0329798,0.044942763,0.059845988,-0.02888672,0.029302998,-0.0017730441,-0.057542425,-0.07449544,0.06786731,-0.07081291,-0.005626665,0.06023665,0.00058476854,-0.0039037885,0.06920145,0.0679699,0.017591283,0.007322085,-0.062736385,-0.040947273,0.060565703,-0.041696176,-0.057015885,-0.07323042,0.011501411,0.009002893,-0.05422606,-0.02262253,0.06566158,0.008191622,0.07175948,-0.08245569,0.024423035,-0.036028948,0.0520846,0.003988609,0.00797214,-0.07479533,0.03799646
0.05790669,-0.024268873,-0.004141894,-0.073343694,-0.0036353718,0.05587886,-0.053303212,0.05263,-0.058108713,0.0054116915,0.056476045,0.088579066,0.08550229,-0.043503378,-0.023411022,0.040593356,0.08038517,0.008720669,0.005220552,-0.08001243,-0.0381679,0.06330785,0.06446158,0.0613901,0.08517674,0.04527437,-0.06818113,0.08454234,-0.028112726,0.010138948,-0.038928673,0.039516274,0.0603611,0.03191349,-0.07883206,-0.042579893,0.06271203,0.04629426,0.06285478,0.050062183,0.023179417,-0.07146942,-0.08054029,0.052107252,0.03275364,0.07097986,-0.062291924,0.008908337,-0.0035258937,-0.03200418,0.08186878,0.041441996,-0.028810931,0.072807156,-0.06411054,-0.057103872,-0.009523976,-0.06989568,0.026710523,-0.058939006,-0.06481061,0.029162753,0.01600096,0.0040052254,0.0030485184,-0.034320727,-0.07508728,0.078960866,0.06553269,-0.088123865,-0.06519358,-0.022521524,0.07086107,-0.055483796,-0.076520145,0.013129917,-0.07788505,-0.057513285,-0.03373567,0.093887836,-0.04776836,-0.0111126825,-0.031727612,-0.02656774,0.049400494,0.0058231507,-0.05550383,-0.021974133,0.0227743,-0.07383432,0.0069193426,0.07842578,-0.05697597,0.06992755,-0.018071251,0.030163301,0.046471316,0.048917312,0.090472676,0.051333252,-0.030958867,-0.006693787,0.0613002,0.016503531,-0.00021688409,0.031077726,0.039646905,0.052385014,-0.07317235,0.04957936,0.029551381,-0.024278797,-0.08192965,0.011737128,0.057443663,-0.014824173,0.06414214,0.03084831,0.0065020695,-0.073560186,-0.006648431,0.008445807,-0.055632953,0.07855247,-0.06631433,-0.024971174,0.06342656,-0.064761855
0.057739474,0.07658429,-0.07794108,-0.01070315,-0.041602235,-0.013339193,-0.020576112,0.019164108,0.087118,-0.067370765,-0.021323407,-0.0417136,-0.067692086,-0.0066051064,-0.02807687,-0.08655806,-0.06191766,0.028029814,-0.029103957,0.073291264,-0.08296206,-0.0002735752,-0.018753324,0.00020636151,-0.041359894,-0.0041020894,-0.047574844,0.050102033,-0.078308046,-0.07646187,0.084729925,-0.0752095,-0.024092149,-0.03884006,0.030844929,0.07658517,-0.06624711,-0.030917032,-0.025614684,0.019878635,0.070516534,-0.053074483,-0.012103595,0.0032833763,-0.072410464,0.057810955,-0.07921029,-0.08198231,0.0073172827,0.021984218,-0.05536015,-0.015059658,-0.03065707,-0.015124365,-0.06280816,-0.07419791,-0.07552526,-0.034188755,-0.024305107,0.035070624,-0.0750526,0.030518554,-0.06394231,0.080398284,-0.0035296825,-0.025932124,0.07990566,-0.0492011,0.037010927,0.03185601,-0.07769597,0.082703106,-0.01174914,0.037579436,-0.04090219,0.0049378406,-0.041245926,0.03996338,0.05460457,-0.07790988,-0.048566908,-0.04284833,0.020101834,-0.044560544,-0.081998765,0.060485553,-0.0139633035,-0.010975871,0.015437326,-0.055502374,0.037753217,-0.073710546,0.078323334,0.034549247,0.040961698,0.04687683,0.008326353,-0.026641455,0.06637286,0.02086075,0.08634338,-0.044414897,-0.05747025,-0.040590797,-0.003005555,0.05355133,0.0082440395,0.082716584,0.029279351,-0.07244282,0.022398448,0.060550395,0.014227385,-0.052465957,0.0781641,-0.030733818,-0.015778221,-0.0051004533,-0.022554465,0.0113709355,-0.061760917,-0.0034528172,-0.0039081085,-0.010459004,-0.006584876,-0.06609248,0.010954261,0.08476433
-0.048685957,-0.036106914,-0.08854508,0.035390474,0.0037346564,0.074670084,-0.004444585,-0.014818677,-0.08400042,-0.036686685,-0.08488226,-0.064706646,0.06242864,0.015796695,0.029845992,0.05986141,-0.043674927,-0.04607883,0.0474408,0.063870996,0.06208154,0.014844847,-0.010045375,0.061806884,-0.09078964,-0.043391515,-0.024711126,-0.08498149,-0.058866292,0.030264128,0.039797142,-0.07531455,-0.09398264,0.002562307,-0.03924876,0.025317637,-0.054078743,0.041722093,0.030615913,0.02050797,0.058355924,0.06654642,0.013500847,0.047933117,0.06811668,0.076470084,-0.05792724,-0.087693274,0.05860881,-0.085807756,-0.036588054,0.014315599,-0.028901674,-0.011737392,0.01442853,0.0569846,-0.08621244,-0.011633392,0.03100393,-0.016923836,0.020032723,-0.013098851,-0.026105722,-0.004064938,0.07628492,-0.042120885,-0.016300203,-0.07374071,-0.07267309,0.08079064,-0.08841642,-0.027405951,-0.052064475,-0.056146994,-0.0849647,-0.049977038,-0.08566537,0.06853611,-0.068893924,-0.020216603,0.06327347,-0.031775195,0.056674123,-0.0014535829,0.0054815365,-0.066450596,0.06845967,-0.08642621,-0.0863779,0.08511017,0.086053304,-0.0961813,-0.029033963,-0.053214956,0.06992614,-0.035370607,0.041913416,-0.02685247,-0.085402355,-0.0049526,-0.035778098,-0.019936608,0.051867608,0.0020715953,0.046079274,0.03227612,-0.06521799,-0.058909167,0.060556196,-0.037614327,-0.082911134,0.04404415,0.038654286,0.02328077,0.0392849,0.019296544,0.041713167,0.023047285,0.06107076,-0.07628987,0.011537261,0.08791632,0.062246654,-0.038334202,0.037678692,-0.047448754,0.06629498,0.03147262
-0.039606005,0.0020537633,0.08692182,0.0006724319,-0.009508435,-0.052783996,-0.058105648,-0.0872533,-0.039246827,-0.085706994,0.029796546,-0.05995208,-0.07908475,0.052802816,-0.061028942,-0.06542293,-0.004873735,0.0033540884,-0.08678367,-0.031462464,-0.032970615,-0.019597441,0.02089371,-0.08754946,0.015804235,0.007320265,0.07865118,-0.057815738,0.031081773,-0.021033406,-0.0666488,0.025214026,0.03226497,0.0139792245,-0.01649615,0.02637847,0.06840064,-0.08680925,0.07931024,-0.023430876,-0.06337838,-0.07249118,0.041494615,-0.042062365,-0.00051602494,0.002714552,0.047447655,-0.008401795,0.07698319,0.017865954,-0.06744928,0.016210163,-0.0034444616,-0.043372013,0.05789354,-0.0062000966,-0.022109361,-0.018952964,0.03929355,0.06758625,-0.0022104862,-0.050290957,-0.0004652485,0.023896314,-0.0873054,-0.05770521,-0.077650845,-0.057240233,0.07378128,0.0003389028,-0.040850695,-0.008850659,0.053484477,0.0029928582,-0.05241342,0.08769624,-0.059362214,-0.066015944,0.020584015,-0.060257666,0.02171119,0.010053077,0.024337929,0.059925284,0.07910696,-0.004297166,0.036681287,-0.04330324,0.057130117,-0.068067715,0.028080728,-0.061695766,-0.011873716,0.022082303,-0.038057633,-0.057208214,-0.053499322,0.045332853,0.017102106,-0.029644607,-0.07626409,0.08599198,-0.070288464,0.028990762,0.00810957,0.0055677355,0.008344507,0.021282325,0.05497112,-0.037189316,-0.028850434,0.057053905,0.0013593833,-0.046895627,0.08410715,0.054843195,-0.024861688,0.05564465,-0.08387946,-0.019161453,0.030022338,-0.039868947,0.041109897,0.031348478,0.0024394174,-0.05757486,-0.06173275,-0.054602254
-0.010875593,-0.07949677,-0.04943759,-0.07996379,-0.07154891,-0.06166147,-0.07712617,0.00372297,0.054237355,0.0497966,0.073611684,0.050096784,-0.010740523,-0.0778375,-0.08005107,0.025054837,-0.07615825,-0.021672416,-0.02858855,-0.018397365,-0.04615316,-0.0019293246,0.022629147,-0.075439274,-0.033996794,-0.011566479,-0.06716761,0.014699794,0.00025031014,0.069330476,-0.019022137,0.022456747,-0.03671287,0.08323496,0.02519003,0.063109025,0.04308043,0.010070518,0.06317949,-0.03543155,0.058383435,0.022937423,0.0044196714,-0.018220458,-0.042640466,0.06749495,0.07526365,-0.060185906,-0.059681717,0.023726283,0.07325608,-0.07524577,-0.035525292,0.06744003,-0.085123055,-0.08919748,-5.968097e-05,-0.0049830247,0.01745898,0.046564985,0.0007640275,-0.051160533,0.055563282,0.011826848,-0.094917156,-0.06259748,-0.090605885,-0.08538961,0.0011437173,0.03063962,-0.0968459,-0.047847506,-0.07863305,0.06029009,-0.08309947,0.025850298,0.08702911,-0.08243587,0.01801433,-0.037765607,-0.0034449794,0.057925645,-0.013268234,0.04615193,0.03166774,-0.022068884,0.0040304665,-0.038049646,0.04493242,0.120421015,0.00070168555,0.0080056945,-0.067081094,0.03317394,-0.058857683,0.052942254,0.067021646,0.05628135,0.062000237,-0.05677946,-0.04360484,0.06935076,-0.029152963,0.07588758,0.03181313,0.034315363,0.050119225,-0.076005235,-0.042947095,-0.07338943,-0.092470326,-0.05068202,-0.06354243,0.036611732,-0.010295521,-0.05224245,0.015922535,0.0646737,0.05665089,0.038786866,0.06660616,0.056186352,0.019828612,0.086319976,-0.017749008,0.031794034,-0.08442684,0.07286526
0.06269979,-0.05208858,0.04317787,0.06863554,0.013882206,0.06376293,-0.02895089,0.08523866,0.06394959,0.0015037945,-0.05663084,-0.016045593,0.059252672,0.06566526,0.02806977,-0.079589434,0.058448244,0.009697925,-0.03913021,0.031212537,-0.059167508,0.014365079,-0.027785895,-0.068635926,0.06628011,0.06501935,0.032753658,0.07437864,0.07328918,-0.018062253,-0.03433357,0.061234407,-0.04916515,-0.07738061,-0.039341375,0.011608682,-0.022158964,0.059438508,0.055870652,0.007948369,-0.010279216,0.06138377,-0.0030526174,0.019765968,0.014764595,-0.08675005,-0.05972836,0.07786772,0.044074513,0.0941287,0.067776255,0.009755025,-0.044258934,-0.030754128,0.046714146,0.021548713,0.020437382,0.064219,0.045625962,0.029244253,0.013424857,-0.04269076,0.07285778,0.025892034,-0.07606054,0.031996027,-0.004628257,-0.032730184,-0.066049345,-0.059491064,-0.046162643,-0.073157646,-0.025447708,0.022099495,0.06281705,0.033270106,-0.0018741123,0.011317233,-0.017780744,0.09555405,0.04915748,0.018436624,-0.053161595,-0.035258923,0.012770483,-0.036286823,0.0303358,-0.043573584,0.021565033,-0.13205774,-0.08645783,0.013820299,-0.036220644,-0.015048182,0.023876611,0.016747974,0.041863915,-0.06347847,-0.030677868,0.05146472,0.047402874,-0.07036051,0.05233605,-0.07519036,-0.07218493,-0.004122183,0.01855668,0.050967287,0.0037519806,-0.0072683715,-0.057955228,-0.02054432,0.025066089,-0.0807638,0.031018794,-0.019476438,0.07225717,0.025494523,0.023432313,0.08897835,0.038721476,-0.028428417,0.10193831,-0.07947952,0.038105577,0.033187196,0.053552825,0.053027216
-0.046425216,-0.010558507,0.01423479,0.07554181,-0.0530882,0.026615703,0.022163551,-0.08126162,-0.07625742,-0.059437845,-0.02021115,0.0067991847,-0.029105833,-0.071313895,-0.06834122,0.010505334,-0.077199705,0.068243995,-0.056182258,-0.012994005,0.026562504,0.05570533,0.05253531,-0.07511695,-0.0838755,0.060800374,-0.051759258,-0.08602288,0.017069664,0.030799096,0.00908365,-0.04589164,-0.033063147,0.052801214,0.051687483,-0.09404137,-0.06449621,0.015073842,0.031559452,-0.03987434,0.079242215,0.04637003,0.0749107,0.037472557,0.022978354,0.050314866,-0.034556147,0.040052738,-0.08447354,0.060713205,0.0697636,-0.015250973,0.009835747,-0.07645215,0.049492624,-0.024165452,-0.09577122,0.05565616,-0.073149234,0.015947418,0.011442605,-0.06135114,0.06789009,0.057285346,0.025943408,-0.026746865,-0.0057828836,0.076028265,0.067294315,0.050698526,0.0062952973,0.07513659,0.015779233,0.012195468,-0.0795923,0.037210364,-0.022964595,0.022166401,-0.03261515,-0.08144955,-0.004102589,0.046262104,-0.04251962,0.012298564,0.073990546,0.029504288,0.053150013,0.021666707,0.04845608,0.012466005,-0.04260293,-0.082188524,-0.06769505,-0.025631158,0.032267027,-0.07471086,0.032006286,-0.0013665836,0.06354476,-0.0075530037,0.013176982,0.071478136,-0.04828069,-0.023631446,-0.03985812,0.0135155665,0.023793174,0.0029653574,-0.03230282,-0.076274924,0.020508453,-0.050189424,0.067704864,0.026755493,-0.0039779097,0.054520626,-0.013409882,0.03650876,0.06763626,0.026754102,-0.024184907,-0.05044731,-0.094527364,0.07687666,-0.028771609,0.077651024,0.052498978,-0.008791021
0.07972192,-0.045917,-0.07106376,0.0011715627,0.059079025,0.031096566,-0.07391575,-0.019412816,0.06620375,-0.041730836,-0.06523873,0.03277025,-0.06246045,0.0032475558,0.031642385,0.024167202,-0.05945461,0.083263576,-0.09178012,-0.043356966,-0.054809194,0.01348717,-0.02287026,0.008342463,-0.09298855,-0.084006116,-0.03343972,0.01727149,0.03502874,-0.058531784,-0.04298366,-0.061542142,-0.049738508,0.05377919,-0.038431995,0.07000994,-0.016445443,0.028574234,-0.067055054,-0.06195711,-0.007386477,0.07715371,-0.04194566,0.035007928,-0.04204499,-0.04174088,0.016353851,0.007931356,-0.07976007,-0.041158833,-0.02069697,0.028343745,0.02940811,0.07229647,-0.0477764,0.067907296,-0.015885519,0.02526422,0.064382225,0.011154743,-0.0024066167,-0.013119268,0.087538265,0.0656407,-0.006671271,-0.007832413,0.035038266,0.07428811,-0.046721667,0.074693434,0.08376295,0.034499433,0.043644253,0.011282525,-0.078255914,-0.015595415,0.026656343,-0.009592085,-0.028009774,0.013586707,0.05482757,-0.0053571104,0.06062119,0.080734864,-0.044713177,0.025016313,0.061796498,0.00012358229,-0.038583994,0.040733665,0.060769223,0.05567887,-0.079945974,-0.06531689,-0.070788726,-0.06824602,0.0022022675,-0.09216757,-0.07170056,-0.0493232,0.0653069,-0.01086198,-0.018445179,-0.03455246,-0.023203824,0.03883382,0.0526118,-0.0044576507,0.076589875,-0.028586248,-0.05487863,-0.07562222,0.02233058,-0.044802733,0.0037464644,-0.03139549,-0.009196461,0.020401625,0.03339708,-0.015109142,0.07309983,0.024622684,0.052026358,0.037230786,-0.079948194,0.006308498,-0.00017380307,-0.033820413
-0.051816743,0.07821839,-0.037083685,-0.079513095,-0.04234535,0.06223551,-0.012091815,-0.048807938,0.061621368,0.0013488812,-0.06140381,0.035649654,0.026673982,-0.036775306,-0.081406444,-0.08798067,0.019997552,0.017339066,0.036565956,0.06741477,-0.08956202,-0.025051538,-0.050664335,0.07715652,-0.06194544,-0.094854616,0.039056662,-0.06414834,-0.08299875,-0.03268979,-0.0843991,-0.018892631,-0.038122807,0.009499984,0.055272914,0.02978112,0.054167867,-0.028886281,0.08172698,-0.041060187,0.07351036,0.004863466,0.05714366,-0.05760048,-0.0023679992,0.063246116,0.010466127,0.0045873253,0.017081002,-0.055648383,-0.05758301,0.08008805,0.015272258,-0.03710003,0.029036362,0.06860128,0.07492455,-0.07620647,-0.027526895,-0.030575136,-0.07598273,-0.03913126,0.008578403,0.017076533,0.037538446,0.012169435,-0.028475791,-0.06499274,-0.04367763,-0.06630819,-0.017358875,-0.08128617,0.05980211,-0.06174563,-0.018909918,-0.0264164,-0.053896632,-0.010044532,-0.06481957,0.03309229,-0.038901508,-0.06683888,-0.02467229,0.0698002,0.07198923,-0.027821735,-0.010317538,0.07265309,-0.03150477,0.03046117,-0.014937496,-0.014900319,0.057516295,-0.08773415,-0.07059773,0.05399336,0.088213556,-0.025865482,-0.069874324,-0.026327366,0.012677095,-0.06573511,-0.014826239,0.076027185,-0.04552141,0.08719407,-0.058028273,0.032367136,-0.06886746,0.07019529,0.021971794,-0.056877173,-0.06422079,-0.024303084,-0.0051810457,-0.011946672,0.06622535,-0.014817806,-0.01526859,0.03429642,0.023738211,-0.036309835,-0.013877598,-0.056824993,0.010823574,0.07701335,0.08280235,0.064472236
-0.06476049,0.018988885,0.072216436,0.024580302,0.06775907,0.0051222225,0.05064514,0.051997203,-0.022298874,-0.0380341,0.07356134,0.018880092,0.051554963,0.06430867,-0.05386977,0.076787,0.0024481693,0.055337362,0.053008765,-0.06267138,0.0078282785,-0.076695554,0.05281646,0.0140736075,-0.06268898,-0.055727094,-0.076183155,-0.09449712,0.004087728,-0.049796734,0.051750675,-0.071112186,0.052410822,-0.07873913,-0.031070484,-0.032813616,0.031304058,0.021915529,0.06966368,0.06693366,0.022525856,-0.047524005,-0.017503042,0.011536896,-0.033475064,0.030005584,0.021278078,0.041698135,-0.0029725004,0.04240859,0.039862514,-0.068759166,0.024476666,-0.09483181,-0.05759603,-0.010167479,-0.046785798,-0.08737142,-0.0059208036,0.079862684,0.03011779,-0.0070560873,-0.031848975,-0.09301522,0.03405215,-0.05467358,-0.075622454,-0.060392734,-0.026203534,0.03416899,0.008557332,-0.0028393078,-0.021486253,0.06690453,-0.06910639,-0.0013836174,0.08413348,0.002886217,0.018134492,0.051731814,0.08012628,-0.055087145,-0.04795403,-0.016791867,-0.07576605,0.02993793,-0.03144349,0.0044717565,0.031363342,-0.05446362,-0.05076336,-0.00547271,-0.028172325,-0.057507273,0.07417158,-0.08856431,0.0021706892,-0.089343496,-0.010269711,0.036870643,0.052159786,0.05952993,-0.03816373,0.045416214,-0.05477675,0.009508529,-0.061278466,0.053124625,-0.08175932,-0.03840521,0.05761708,0.056182586,0.034187764,-0.046071667,0.026926126,-0.07731185,-0.035987597,0.01588727,0.009188916,-0.08737634,-0.037542682,0.0042166025,0.027392266,0.04027754,-0.044960044,0.029112514,-0.028471587,-0.052655246
-0.049007595,-0.0006896383,0.058474135,0.0016368361,0.07764538,0.086540304,-0.068848565,0.05326553,0.0096499,-0.061086822,0.059100967,0.020069601,-0.04270028,0.0057507805,-0.081222564,0.04677529,0.0800854,0.034461897,0.048174776,-0.050910905,0.06644592,-0.0681441,0.021713793,-0.04809759,0.008837639,-0.048286024,0.04016937,0.060312677,-0.07424196,-0.06331836,-0.034241956,0.011604408,0.050422482,-0.010274042,-0.060350988,0.045642793,0.01117855,0.032379307,-0.063093714,0.06025464,0.037132088,0.04220921,-0.04205425,0.081684954,0.07505971,0.012061943,-0.021154683,-0.07577502,-0.036152527,0.015834054,-0.034738567,0.0012488744,-0.043842584,0.0090110125,0.055236522,-0.059514843,-0.07468448,0.05796341,-0.03959389,-0.0062254583,0.043595813,-0.08143845,0.059213612,0.012845326,-0.08825954,-0.081900425,-0.05645698,-0.008322524,-0.044538703,-0.0745451,-0.06428436,-0.023627661,0.08745152,-0.08045793,-0.013955854,-0.0018366626,0.030737117,-0.01713221,0.04401092,-0.09430246,-0.051557396,0.061060432,-0.051711075,-0.041707233,-0.026092842,-0.040056236,0.045593984,0.04692511,0.06493276,0.03385272,0.057163812,0.059846796,-0.008850159,-0.09178293,0.0191987,0.0576279,0.033321254,0.020170456,-0.034206677,0.08222567,0.0778437,0.034663737,-0.022000581,0.0125342235,0.037414372,0.0762612,0.06621179,-0.028155105,-0.076722294,-0.08154039,0.08659288,0.0700835,-0.014729407,-0.05100289,-0.029373208,0.026883146,0.024022939,-0.0007919926,-0.06548712,0.0259743,0.06502883,-0.021739723,-0.04117254,0.05463739,-0.06008792,-0.08769478,0.080230474,-0.0043325275
0.087403566,0.061040122,-0.06423177,0.08415978,0.006350343,0.020419147,0.023624962,-0.02195112,0.006910861,-0.037287597,0.016920943,0.06974556,-0.066161096,0.09269335,-0.005082506,-0.030432615,0.0517722,0.0025018312,-0.06555972,-0.02474448,0.022228813,-0.050153557,-0.034305975,0.02058061,0.018160215,-0.061620817,0.011020914,-0.08406718,0.0013786023,-0.014484389,-0.06797117,0.024288649,-0.006327268,-0.004495119,0.0192568,0.09720097,-0.027349368,0.0843238,0.0335573,0.02632354,0.08420091,0.046424177,0.038019896,0.055615164,0.06824142,0.078610286,-0.009959647,0.051434975,0.08730757,-0.026912631,0.0046597375,-0.04588247,-0.08494729,0.047225975,-0.061696973,0.06464311,0.0178777,-0.042888038,0.07575938,0.050411277,0.06319785,0.06788658,-0.07685385,0.06502565,-0.07403732,0.057610165,-0.050793566,0.050845206,0.014390557,-0.028616508,-0.04767605,-0.06627014,-0.025598584,0.038586687,0.035410177,-0.020250855,0.016736839,-0.008097836,0.07592569,0.033226684,0.08051577,0.07467912,-0.030540759,-0.06081435,0.07069018,0.08766672,0.04847101,-0.0427852,-0.02062925,0.03600319,0.027760178,-0.028366754,-0.057067603,0.057211075,-0.007134724,-0.007248509,-0.0045486563,0.015465495,0.04388811,0.020441594,0.06866664,0.08421649,0.023233134,-0.045738135,0.04062692,-0.041810915,0.059193607,0.049950156,-0.030427372,0.0015910743,-0.05403733,0.08681439,0.07714641,-0.030612478,-0.011234974,0.017018612,-0.0037226987,0.058150023,-0.07455068,0.04081982,-0.03463243,0.043543003,-0.07519404,0.021306908,-0.05260111,-0.04777945,-0.01711343,0.02937355
0.07707073,0.07316358,-0.042736515,0.057007924,0.03195529,0.0568289,-0.0541964,-0.05925768,-0.025881242,-0.07530865,0.040984668,-0.06905174,-0.04203717,-0.05074832,-0.01591001,-0.064454876,-0.011830373,0.095995285,0.027965836,0.0019585534,0.090531945,-0.018196069,0.0637233,-0.017492954,0.048212815,-0.059927016,0.013180649,0.008055181,0.070961796,-0.03431014,0.075941175,-0.057858244,-0.05968741,0.07811281,0.06659314,0.08761614,0.03737802,-0.015300403,-0.08552806,0.082234465,0.04502868,0.03302486,-0.023725089,-0.05115976,0.02246114,-0.06063274,0.060365614,0.046251263,0.051019948,-0.026856976,-0.04018665,0.08788236,0.04322467,-0.046769075,0.073189594,0.06869849,0.0277869,-0.021873094,0.09794777,0.078946754,-0.041067213,0.054540917,0.061547443,-0.008447656,-0.037693024,-0.070831425,0.057062156,0.0018897788,-0.011538585,-0.082582004,-0.04926328,-0.06768382,0.0279294,0.08255679,0.025590852,0.0005104912,-0.03325554,0.003981965,-0.040118083,0.09106152,-0.05203392,-0.04634977,0.05805171,0.08122852,-0.0101413485,-0.03296169,0.069342576,-0.031100389,-0.08165433,-0.036054365,-0.025608744,0.03105864,-0.035651222,-0.052161723,-0.032652058,-0.03215081,-0.035305846,0.039713908,0.025143206,-0.06402487,-0.07599568,0.090650655,-0.014199157,0.06242053,0.020815909,0.060562786,0.09508305,0.014249976,0.0179405,0.0957691,-0.016622428,0.08317311,-0.05509186,0.006546006,0.03148799,0.07384938,0.057362605,0.0098579405,-0.03456763,-0.022840114,-0.03755411,-0.03516749,0.0035342495,-0.017103307,0.02235513,-0.08760984,0.06751784,-0.044343624
0.017906653,-0.04892334,0.07226366,-0.09103038,0.02223049,-0.08656567,0.022097519,-0.06685171,0.039719578,0.041608784,-0.066123374,0.01352188,-0.048074517,0.023891127,-0.060121708,-0.030105157,-0.024368672,0.015760062,0.017950816,0.027173625,0.045578897,-5.2831074e-05,0.058711793,-0.04732734,0.048603225,-0.007901306,-0.009060547,0.04635654,-0.050200026,0.05655762,0.045844052,0.045359988,-0.08519456,0.08221282,0.04423272,0.05400979,-0.0589752,0.05182006,-0.030868962,-0.06961954,-0.047721244,-0.014397609,0.0039923573,-0.08045773,0.004397126,-0.049952477,-0.058291905,-0.0056485394,0.052002296,-0.024422197,-0.099509776,0.027090898,0.0137675945,0.012398154,-0.022614429,0.05157209,-0.009310364,-0.03598999,-0.09769337,0.07586248,0.009854133,0.0018524801,0.069294706,0.06334422,-0.071404725,-0.005396548,0.035165973,-0.03035366,-0.02369279,-0.06505582,0.023334226,0.07292674,0.07080368,-0.0964693,0.070232734,-0.016982159,0.057041418,0.01371725,-0.077150255,-0.011611288,0.07205456,-0.008242986,-0.07257396,0.0013605095,-0.06498567,-0.09210491,-0.050932862,-0.019104557,0.070602745,-0.0034167818,-0.07675143,-0.09638251,-0.07232188,-0.07114716,-0.007013467,0.023437276,0.055828895,-0.077244036,0.02268366,0.059639767,-0.0002524155,0.014170091,-0.08133701,0.057001367,0.0049243434,0.069298245,0.035512246,0.075067975,0.052247558,0.00039114093,-0.020393325,0.0093823075,-0.026239816,0.027692102,0.00636875,0.026193118,-0.04495374,-0.097134136,-0.0944187,0.005117507,-0.00067368324,0.033736717,0.046224695,0.0439526,0.080290385,0.017114855,0.033420958,-0.04622227
-0.046837132,-0.087103665,-0.023132587,-0.02263222,-0.004228636,0.08123202,0.07064443,-0.018202847,0.008655034,0.05605617,0.049151987,-0.023130072,0.05664908,-0.018526107,-0.020186212,0.027347742,0.0046279277,0.040381685,-0.058498006,0.06856112,-0.07518441,0.04994647,-0.0036330624,-0.025401598,0.07348621,0.06579611,-0.05483485,0.0336945,-0.057461664,-0.09032611,0.00021290201,-0.062082052,-0.09112274,-0.042409528,-0.07576646,-0.04132961,0.048187956,0.009619765,-0.011601257,0.07313958,0.033112407,-0.07503346,-0.04375882,0.07724211,0.03832127,0.059026808,0.020414975,0.042079445,0.005933185,-0.068681896,-0.03442483,-0.036216788,-0.045458388,0.04798538,0.0009565472,-0.037534352,0.016433517,0.08051507,-0.03199006,-0.030144848,-0.023056833,0.008403212,-0.06098194,-0.02443354,0.059162345,0.027097344,-0.08398033,-0.05416498,-0.060118895,-0.059426446,0.022251986,0.062323693,0.082782224,-0.07355283,-0.017216966,-0.045866333,0.061808974,-0.023080304,-0.06367358,0.06158766,-0.053881183,0.019769426,-0.06451997,-0.0076003834,0.0479096,-0.051180623,0.07344395,-0.08319283,-0.0116470605,0.022167346,-0.013910662,-0.067092575,-0.011736776,0.030394863,-0.03371555,-0.013190712,-0.085558005,-0.037351653,0.02273209,-0.07527747,0.04792612,-0.020119693,0.034308873,0.033948336,-0.07306249,0.05292207,0.07015052,-0.05631115,0.038965162,0.005547094,-0.012231627,0.05576745,0.049914323,-0.08271293,0.073642276,0.02996406,0.026048739,0.059393805,0.03770048,0.05900504,0.078805655,0.040578004,-0.083486676,0.08398215,-0.027026033,-0.04800877,-0.06929892,-0.03835285
0.049855366,0.007997108,-0.011916613,0.024005802,0.08140296,-0.05997915,0.06652973,-0.04465963,0.0108663,0.087198995,0.05045259,-0.05485723,-0.01286855,-0.0204723,0.004987727,0.05159537,-0.08192959,0.075981535,0.020194413,0.061786845,-0.0060533606,-0.0032260884,-0.07189676,-0.047039974,0.031947117,0.08156222,-0.012851764,0.040118437,-0.033067174,-0.0051745595,-0.047334842,0.027428746,0.019187985,0.03395638,-0.03983474,0.024980288,-0.034012098,-0.075828224,0.032518778,-0.0014259649,-0.047520917,-0.019809177,-0.021584494,0.046863373,0.05732405,-0.013988433,0.08196136,0.06834268,-0.048756402,-0.09049442,-0.007871031,0.05836075,-0.030807123,-0.029944219,-0.015669612,0.019047739,0.055828147,-0.06553899,-0.06305458,0.07958149,0.0429192,-0.077924035,0.058131587,0.004854292,-0.089558266,-0.06165445,-0.038193535,-0.08031315,-0.07101945,0.009012334,-0.014378659,0.052449964,-0.074604474,0.047046307,-0.008700922,0.008729339,0.056306407,0.07980706,-0.04471706,-0.078435205,-0.03552352,-0.09359404,-0.024678625,-0.036133748,0.019462723,0.08529007,-0.069187485,0.055468306,-0.038379814,-0.004469094,0.028732348,0.03663507,-0.08260263,-0.05241695,0.036435686,-0.021238934,0.08498234,-0.046957448,-0.08363033,-0.089461766,0.008343393,0.01403789,-0.05002874,-0.077913165,-0.03599011,-0.07036693,-0.05519716,0.06253472,-0.03801511,0.045286283,0.033181455,-0.0022100252,-0.037395358,-0.06397404,0.07941182,0.069817595,0.011896152,0.06331201,0.049165014,0.025568383,0.054725546,0.0051474576,0.064052455,-0.022843044,-0.03746059,0.039508794,0.05813332,0.014556446
-0.08434216,-0.015343242,0.04663829,0.045855742,0.04148795,-0.027624656,-0.082792975,-0.0029562337,0.0155460965,-0.069223575,-0.044251613,0.005073931,0.0026561364,0.056377146,0.03374644,-0.08507736,-0.05792856,0.01986748,0.034098294,0.037182517,-0.012922449,0.047844153,0.019026067,-0.024597548,-0.019647796,-0.030485844,0.009573991,0.006547544,0.010617591,-0.08018231,-0.042619187,-0.06112997,-0.05680154,-0.040082444,0.051123828,-0.08644354,-0.0027439492,-0.059398986,-0.07890121,0.08613839,0.07338503,-0.08185998,0.023907466,0.06910087,-0.010158507,-0.022847343,-0.037202887,-0.07415138,-0.00021667022,-0.023367569,-0.039061032,-0.022364361,-0.026983013,-0.08528235,0.032093257,0.05075397,0.05825718,-0.085875615,0.06901723,0.025305832,-0.088105805,0.050220907,-0.06972639,0.08099118,-0.040927075,-0.051381994,0.053097915,-0.027821986,-0.044292443,-0.03497826,-0.04726781,-0.01670037,-0.053807784,0.0032188694,-0.09434592,0.052204188,0.025865614,-0.055823274,-0.08412032,0.011635978,-0.031972967,-0.06093328,0.004452817,0.05878036,0.024923768,-0.045762282,0.08531823,-0.040016714,-0.07655681,-0.03803677,0.009157161,0.028420862,0.056650825,0.012382284,-0.08664305,-0.009952046,0.015384832,0.030383194,0.03964425,0.00027144773,0.047226537,0.012734047,-0.054637942,-0.02014524,0.02264217,-0.06649469,-0.08401744,0.0077550095,-0.04667371,-0.05407977,-0.0350844,0.028840683,-0.0125865135,0.045684855,-0.08228229,0.021394825,-0.021144344,-0.024573242,0.038789477,0.012246283,-0.07693504,0.06460118,0.056440048,0.025436666,-0.035263825,0.019145869,0.02145508,0.06518087
0.043479767,0.059691902,-0.094624884,-0.06581227,-0.039856732,0.083902486,-0.029277772,0.053044368,0.010154155,0.05275794,-0.003539793,0.02062512,0.08707505,0.025727049,-0.015958862,0.017469605,0.052232135,-0.06368939,0.041317593,-0.053790513,-0.024153324,-0.08471064,0.048580352,-0.05433522,-0.059770554,0.012806171,-0.011814991,0.02199591,-0.037704792,0.007005578,-0.06597852,-0.08480733,-0.02220743,-0.08063871,0.06351444,-0.006728788,0.061996967,-0.06543577,-0.043405488,0.020497087,0.018411819,0.023612235,-0.006119573,-0.05285765,0.050967596,0.0845066,-0.086936936,0.06070211,0.061840482,-0.070940085,-0.07193824,0.04292314,0.03779271,-0.05211828,-0.006619908,0.044808142,-0.032161646,0.06871563,0.02891939,0.008388171,-0.0566722,0.021681834,-0.036868867,-0.06822483,0.051482424,-0.08586228,0.07117996,-0.015444863,-0.03385495,0.022447748,0.03192715,0.057762567,0.003603113,-0.08218848,0.069447964,-0.087420866,-0.05622533,0.07856113,-0.089191005,-0.03964424,0.059201248,0.04939511,-0.06457713,0.059522975,0.06637344,0.04861316,-0.011943668,-0.010374094,0.026005978,-0.025357883,0.06209039,-0.04129005,-0.009932409,-0.02920332,0.086640276,-0.044455335,-0.07705297,-0.06315436,-0.08637895,0.06809042,0.07618125,-0.02787358,-0.006837346,-0.06189171,-0.06459024,-0.060288474,0.0054514133,0.030919781,-0.07095695,0.01039237,0.07643474,0.021052111,-0.0149904005,-0.069109164,-0.0376837,0.018721418,0.07757346,-0.08728682,0.06151637,-0.024834333,0.015709935,-0.04632417,-0.05582358,-0.0063924333,-0.08821395,-0.057932906,-0.06298227,-0.04940326
0.052160334,-0.042241182,-0.057495005,0.09265292,-0.013274752,-0.07771413,-0.012307997,0.09187779,-0.08451281,-0.02071311,0.020574758,0.027777279,-0.010903432,-0.061410353,-0.03871191,0.05964562,0.017430069,0.030751204,0.05030702,0.072471276,0.08119362,-0.07145591,0.086285464,-0.030138027,-0.005793727,0.041581463,-0.057950985,0.029731188,-0.08668025,0.02421435,0.055912096,-0.057514675,-0.06824109,-0.039608248,-0.052283563,-0.016514216,0.07079,0.07643491,-0.011960717,0.043247566,-0.0412947,0.037890438,0.06390202,0.08477405,0.035969015,-0.056414198,-0.041410446,-0.037366673,-0.058090113,-0.08000815,-0.012495982,0.080657564,0.061488762,-0.00019744468,0.032681372,-0.010667302,0.048397455,0.008056694,-0.04174931,-0.034764227,-0.003343952,-0.0024913433,0.05558174,-0.06370104,0.062512994,0.017539935,-0.033571955,0.040905457,0.025481755,0.061103456,-0.03790277,0.08492207,-0.055217396,0.043867685,0.066094525,0.04610147,-0.013694301,0.070183516,0.043853432,0.022642773,0.050474357,0.049369406,-0.0043648533,0.07463983,0.054539192,-0.016814321,-0.055163033,0.090761796,-0.027334273,-0.15327194,0.020867983,0.044759832,0.031969238,0.018246178,0.051584642,-0.072772406,0.05237398,0.014209888,0.06958597,-0.031981982,-0.021022417,0.033316318,-0.023285491,0.07269003,0.085192926,0.05388464,-0.016119523,-0.037824553,-0.056130752,-0.004366209,0.08447014,0.08529576,0.049848933,0.053595364,0.05533551,-0.037003394,-0.051081568,0.0793113,-0.060565006,-0.02158011,-0.0463684,-0.07014837,0.0001006918,0.05096436,-0.06263818,-0.043615676,0.06683545,0.057088412
0.073369384,-0.06590277,-0.026863454,-0.05955052,0.014178229,-0.08156158,0.04071611,0.05738827,0.058002755,0.062677026,-0.04337717,-0.0028380388,0.0355549,0.05539048,0.031000609,0.028378516,-0.08457998,0.04130979,-0.040141042,-0.041466344,-0.07021126,-0.0007455672,-0.07250363,0.08122522,0.090613425,0.08883419,0.06075234,0.07477999,0.0824924,-0.074019365,0.06440384,0.0638611,0.061454836,0.022014838,0.0638814,-0.025263876,-0.032995507,-0.01513193,-0.087624975,0.05370859,-0.006788329,0.09425373,0.08608121,-0.035173032,0.03405309,-0.02827673,-0.0057546357,-0.063014776,0.053419836,0.05663802,0.026431786,0.026871324,0.079732075,0.068329714,0.03025042,-0.04371812,-0.020396233,0.018911382,-0.041711926,0.060788292,0.04478309,-0.014368131,-0.06508456,-0.07333023,-0.021526169,0.08472327,0.09313236,0.0043408144,-0.038323227,-0.030061597,0.0715436,-0.05306871,0.026314173,-0.0055353935,0.0451745,0.016420778,-0.030051397,-0.071648836,-0.08046639,-0.06580997,0.08357535,0.09129622,0.07772507,0.04650876,0.087255985,-0.013010075,-0.06009574,0.08532458,0.036550764,-0.120416544,0.06697151,0.04929059,0.03955656,-0.06310154,0.025115117,-0.0009863791,-0.031677675,0.07814423,-0.05515383,0.058627542,0.033518452,-0.045998476,-0.062059093,0.026752077,0.07195733,0.04422296,0.074501015,0.057799187,0.09134446,-0.028035581,-0.05534318,-0.018381447,0.07929632,0.017648961,-0.05716343,-0.055982668,0.005115108,0.039043702,-0.027597295,0.090677395,-0.02682373,0.06557294,0.06812004,0.07197061,-0.038412955,0.08737941,-0.05220013,-0.010896583
-0.075767085,0.044143237,0.08426196,0.08702623,0.020900369,-0.049525466,0.021068135,-0.009128607,-0.0016126122,0.08379234,0.07778475,-0.08166423,0.008640283,0.043276615,-0.0764671,-0.051202055,-0.020975664,-0.022896085,-0.022659104,-0.041088898,-0.081594326,0.070146635,-0.013162113,0.051893305,-0.019396475,0.008265418,-0.047671236,-0.00050884945,0.004889161,0.024518117,-0.061019637,0.0338579,-0.0068816426,0.077963464,-0.015573745,-0.066002786,-0.020101728,-0.0033838544,-0.051879156,0.049063284,0.008606829,-0.00032722813,-0.01700896,0.011935208,0.018142331,-0.08021979,-0.079471305,0.025884245,-0.058396216,-0.033311076,-0.021808896,-0.062372856,-0.032417227,-0.027770748,0.07514086,-0.019312529,0.07597077,0.0122149885,-0.02251748,-0.023888834,-0.0033384413,-0.0816538,-0.03373538,0.045872007,0.040726215,0.086151645,-0.02601785,-0.07858677,0.048677925,0.021391349,0.049135923,-0.001757492,0.017145202,-0.027235536,0.08031887,0.041101765,-0.07895839,0.08267847,0.04359377,-0.045761615,0.010499739,0.02811493,0.07508615,-0.020061478,-0.04304229,0.04048822,-0.04663668,-0.066765904,0.06494589,-0.0004601066,0.05752282,-0.021098586,-0.024466319,0.03789212,0.043588143,0.044177335,-0.06063332,-0.04185005,-0.04357489,-0.0013641459,-0.07184035,-0.033254273,-0.005538054,0.06671612,0.02685439,-0.053774435,-0.07707554,-0.005001714,-0.03809626,-0.031140767,0.06407441,0.0851409,0.0813305,0.025787855,0.014227143,-0.0076222783,-0.0016999932,0.08815366,-0.08461576,-0.07895066,-0.041087013,0.068905026,-0.0035368898,-0.049366847,-0.07087376,-0.009112264,-0.041707605,0.05776018
-0.08178041,0.044126075,0.019364467,0.05957632,-0.06928507,0.0014200538,0.018540578,0.0791122,-0.07002947,-0.024700353,-0.016574033,-0.047067963,0.040131554,-0.029102692,-0.04120936,-0.059903935,0.07876533,0.0419676,-0.04248072,-0.056911577,-0.0063015018,-0.014983668,0.043413445,0.026335083,0.07854298,-0.008726275,0.03401876,-0.017348325,0.07288758,0.005250907,0.034139697,0.008533346,0.016436275,0.020041605,0.019165335,0.080643654,-0.06765049,0.005633496,-0.05368064,-0.0023828142,-0.005672618,0.026178401,-0.075152196,-0.009061216,-0.019755809,-0.032296866,0.042606395,-0.067498475,0.033252366,0.0077067525,-0.022053484,0.05880421,0.035219517,-0.025394406,-0.067893386,-0.024514556,0.05818612,0.07857733,0.079457305,-0.020497771,0.015733734,0.062858276,-0.038788453,-0.08449891,-0.019151032,-0.05032008,-0.020643085,0.07653619,0.06872944,-0.076470755,0.08540364,0.07485092,0.07559669,-0.058255453,0.018099679,-0.035096005,0.059381243,-0.04078215,0.019346263,-0.07440642,-0.060078785,0.060911912,0.026561392,0.08210034,-0.072286926,-0.091696374,-0.024282573,0.036760084,0.062714584,0.047286905,0.0394757,0.07859295,-0.055164654,-0.06060961,3.3633183e-05,-0.07302119,-0.02316123,-0.080046035,0.0007765498,-0.077196695,-0.061156217,-0.051572554,0.06468742,-0.008318153,-0.05772149,0.036881335,-0.0054410594,0.07988545,0.020477537,-0.045588486,-0.06990384,-0.041868567,-0.0775184,0.05401104,0.0587347,0.020230286,-0.02780297,-0.032003257,0.079934604,-0.060418144,-0.06632583,-0.009223311,-0.044529084,-0.0030383663,-0.061693247,-0.073404446,-0.065408714,0.0026164975
-0.025102802,0.017690815,0.0025907715,0.00086641515,-0.029867325,0.02388838,0.06789971,-0.035194747,0.07000644,0.026046365,-0.030312838,0.01364035,-0.08167214,-0.036203817,-0.06997578,-0.031769894,-0.008303697,0.023566553,0.009014596,0.041115776,-0.07359992,0.0063324478,0.066607416,-0.0052186595,-0.039783582,0.026752487,-0.0445771,-0.054984383,0.07133762,0.069297336,0.023052499,0.030339967,0.0659749,0.01515491,-0.059530523,-0.03205426,0.04857642,-0.07633001,-0.015722165,-0.06965559,0.03983621,-0.0709429,0.019662816,-0.036436792,0.0142437415,0.0164832,-0.08441785,0.039399847,0.056511886,-0.0071266773,-0.045535415,0.022236455,0.05559929,0.085343614,0.028403796,0.06444571,-0.04366218,-0.040623117,0.07898128,0.023912974,0.027547685,0.070328765,0.07101159,0.070286945,-0.08330335,0.056941897,-0.072436,0.023390904,-0.028177477,0.015976837,0.06069661,-0.07059804,0.08640794,-0.043438677,-0.007822496,0.06296657,0.03593981,-0.0023596266,-0.01858721,0.04453992,0.056417786,0.026490897,-0.03618248,-0.009170109,-0.036021538,-0.04660161,-0.049616564,-0.05242289,0.08105336,-0.00081736635,-0.07147534,-0.07546593,0.0752745,-0.07391809,-0.0012010587,-0.021977121,-0.020638859,-0.0077028708,0.07165326,0.08862119,-0.07934923,-0.010207065,-0.014586265,-0.03518615,-0.054457154,0.012033747,0.03037979,-0.006634209,-0.046303432,-0.021689596,-0.0046640644,-0.009565361,-0.05445063,-0.02726271,-0.06315564,-0.0794381,0.025054723,0.08731763,-0.025893157,-0.03355028,-0.02071013,-0.08056931,0.062374458,0.055435505,-0.019116882,-0.032068737,-0.010459814,0.035477825
-0.022440577,-0.039250024,0.07800532,-0.058291495,-0.056973312,-0.016486952,0.021999791,-0.023355875,0.06121852,0.004581976,0.0048610866,-0.013240185,0.03366592,-0.07800924,-0.0035451737,-0.046155676,0.051451035,-0.026968703,-0.034503862,0.08804472,0.006505992,0.027172,-0.0014535069,0.064002275,-0.030299328,0.044941247,-0.055470064,0.052614428,-0.019565495,0.08111824,0.026707176,-0.08422845,0.09140627,0.04495052,-0.00872033,-0.0055382266,0.053152844,-0.06854072,-0.084807254,0.051095836,-0.039229948,0.023839615,-0.06791306,-0.014390412,0.052842643,-0.06937585,0.016667487,0.010520958,-0.013216372,-0.020945337,0.078444436,0.04665619,-0.031907134,0.036751565,-0.031681824,-0.0037961183,0.02594827,0.08204952,-0.007846006,0.041734632,0.07367759,0.054586764,0.06995492,0.028518436,-0.0054498226,0.017032566,0.03048709,-0.024217252,0.0486173,0.071931794,0.025854707,0.073449455,0.08085494,-0.053522926,0.07200302,0.07609086,-0.06777036,0.026436718,0.084329545,-0.010622146,-0.004914112,-0.038579267,0.08770769,-0.06247873,-0.050010324,-0.041592397,-0.06940756,-0.07674154,0.012612103,0.021123528,-0.009737102,-0.015813598,0.018585118,-0.08834102,0.071034916,-0.07712418,-0.06996338,0.063215874,-0.040097624,0.00847483,-0.0024658972,-0.048983645,0.0834261,-0.04257695,-0.020745851,0.088313185,0.07556476,0.05739073,-0.023955872,0.06747889,-0.014082588,0.01027171,0.07167258,0.018240461,0.01985097,0.08323985,0.036283676,-0.0035524648,0.080265045,0.0067827227,-0.07210487,-0.07358236,-0.04650958,-0.01568515,0.012353789,-0.07943241,0.055347797,0.022956977
0.061164208,-0.024826614,-0.018016523,0.034727994,-0.00048291637,-0.0031632578,-0.032448784,0.06018631,-0.05405305,0.040201236,-0.038433287,0.0075418693,0.013295171,-0.07647052,-0.016752694,-0.02077552,-0.048155893,0.092937,0.050716583,-0.014308048,0.008219643,-0.060443457,-0.024691047,-0.011120648,0.04748089,0.033356674,-0.038865607,0.047780614,-0.028475633,0.078488044,0.031225478,0.05764217,0.053608038,0.012266556,-0.039392922,0.015140391,0.010140124,0.048393432,0.032078713,-0.07774596,0.0139152985,0.040790755,0.07805798,-0.03763654,-0.050187103,-0.08411713,-0.017708156,0.042384874,-0.047407746,-0.054956373,0.02314687,0.08611057,-0.018414464,-0.053936034,0.06666117,0.048888795,-0.021399079,0.08608523,-0.015303546,0.036762744,-0.08001106,0.055986155,0.07744808,-0.045061063,-0.029784385,-0.07765425,-0.07942313,0.012742148,-0.016409868,0.023093406,0.05647964,-0.0063788462,0.065971546,3.3944176e-05,-0.0525651,-0.00042214443,0.044725277,-0.08857025,-0.025341932,-0.034975037,0.06398955,-0.011257466,-0.08487022,0.06207661,0.023753462,0.089941375,0.03247614,-0.06564147,0.025367513,-0.11034654,0.0135262655,0.051116318,0.06819066,-0.03332324,0.058180235,0.07117046,-0.026837522,-0.046165917,-0.06309658,0.003226865,0.033495978,0.049626086,-0.05074594,-0.010886599,-0.06491458,-0.033896193,-0.056853075,0.06818082,-0.049456738,-0.021291858,-0.06710401,0.023619492,0.085033394,-0.06333893,-0.018471558,0.050764035,-0.04305824,0.050757118,-0.046840742,-0.043610785,0.06187263,-0.04617245,0.037958827,-0.012626711,-0.008583226,-0.054955505,-0.024195641,-0.08679887
0.06919657,-0.03266614,0.074069865,0.09565338,-0.0044563296,-0.08529734,0.059174776,-0.032559533,0.013186316,-0.008407247,0.068954654,0.007384677,-0.065695874,-0.027846433,0.07077033,0.08631083,-0.009505026,-0.053260982,-0.0330757,0.068217084,0.06031923,0.034316417,-0.0581945,-0.068399385,0.048630428,-0.0397615,-0.041916933,-0.0026884635,0.067748874,0.04927317,-0.010084459,0.012811198,-0.010245541,0.03673178,-0.05092323,-0.0503254,0.08474041,-0.03784012,0.06408124,-0.03443291,-0.016144613,0.033982668,-0.054562792,-0.050871532,0.039654125,-0.05310641,0.023634773,0.0192925,0.08158996,-0.011805249,-0.015067726,0.0018614577,0.00516772,-0.008912123,0.032524478,-0.017688954,0.07083742,-0.042924188,0.06246452,-0.08620265,0.032959476,-0.077192225,0.014649296,-0.032229245,0.076129615,-0.046023913,-0.061588172,0.019559694,-0.05891791,-0.064160705,0.08552629,0.0014275695,0.052883662,0.012288997,0.0056828703,0.030662417,0.027845211,0.094904184,-0.059047103,0.05536255,0.09432047,0.029318824,0.043073416,-0.013217852,-0.0021797612,-0.060143508,-0.03203757,-0.08827537,0.080186665,-0.36681023,-0.044090923,-0.04891202,-0.01608864,-0.032282077,0.058668908,0.021142194,-0.03350826,0.027429983,0.05093114,0.017127654,0.03569086,-0.03959359,0.05448208,0.0609043,0.00087765185,-0.02374468,0.0131298555,-0.027998287,0.02203645,0.059706014,0.04092098,0.06065231,-0.005754478,-0.05051832,0.012152393,0.03701216,0.010964244,-0.07946157,0.094550624,-0.05338619,-0.03194926,-0.021633597,0.00019273315,0.03441544,0.057355054,-0.051571358,-0.0579197,0.054938976
0.097558014,-0.018177958,-0.028128406,-0.017760184,-0.018723244,0.026696509,-0.075455256,0.08285547,-0.054821406,0.03502778,-0.058119223,0.03744125,-0.055588067,0.02475791,0.012093697,0.06921971,-0.032325543,0.08605695,-0.007875523,0.07001868,-0.015760986,-0.027590096,-0.05698929,-0.0073443316,-0.027889226,-0.0041239937,0.056946903,0.00929573,-0.0021856301,0.043056387,0.0017201242,0.002300354,-0.033985816,0.04406043,-0.06697983,-0.07055091,0.03790003,0.098249055,0.069515474,-0.037417687,-0.03373403,0.027766928,-0.010732303,0.0004989288,0.013260933,-0.04269853,0.03004592,-0.0047717514,0.0075759054,-0.0024646418,-0.03674138,-0.049227044,-0.059959464,0.063420996,-0.034691434,0.045366347,0.024832468,-0.010636458,0.084802024,0.06125384,-0.07079681,-0.020278694,-0.052633494,-0.015856005,0.026724696,-0.03576268,-0.07153963,0.07400841,-0.002972061,0.012489407,0.056522198,0.042972837,0.031003758,-0.01860649,0.071212195,0.081948504,0.053485658,0.074509785,-0.073275894,0.04899378,-0.03445074,-0.04143475,0.01255453,0.005104314,-0.050894294,0.044047546,0.019210618,-0.06661019,-0.06261651,-0.09082854,0.013850165,-0.06398318,-0.019224549,0.034881093,-0.015992874,0.002677526,0.04649082,0.049970698,-0.047183763,-0.066842556,-0.055846717,0.042380445,0.028400674,0.0005586107,0.08419649,0.031907566,0.015935477,-0.044645555,0.03583505,-0.029995935,0.013044468,-0.07089905,0.06788908,0.04188286,-0.06188459,-0.061976593,-0.0077684335,0.02531674,-0.044118136,-0.0013662971,0.07648577,0.023897273,-0.010982716,-0.041879058,0.0039126077,-0.006523131,-0.026281824,0.06156445
-0.054334715,0.04315488,-0.047595397,-0.057057824,0.016466215,0.070806146,-0.03603388,0.012714005,-0.002238967,-0.06746748,-0.0035022874,0.0850798,0.036670327,-0.005359272,0.023928612,0.028285423,0.06773021,-0.018002955,0.059853524,0.074361645,-0.077032655,0.024396619,0.05292395,0.08319722,0.009574083,-0.03351265,0.037021,-0.06207722,0.04615141,-0.026085885,0.03883688,-0.08540153,0.053407077,0.04625115,0.052736424,-0.07186851,-0.021085305,-0.013655623,0.012533272,0.077276826,0.0731072,0.019458786,0.04931354,-0.07307174,-0.02679373,0.03804599,0.068796024,-0.003249794,-0.019145314,-0.030412327,0.0028935932,-0.055376597,-0.066124685,0.08822508,0.03597915,0.011939164,-0.07090042,0.06538459,-0.06824106,0.034903564,0.064343065,0.06297105,-0.028824046,-0.05257206,-0.04740903,-0.058228914,-0.016894372,-0.060148615,0.01867511,0.012026529,-0.0045061843,-0.069655515,0.056439295,0.040607117,-0.022630565,-0.010706185,0.043472134,0.047119744,0.09240113,0.055087477,0.019479124,0.0045073205,-0.06765564,-0.07355324,0.001443714,-0.011927822,0.07024791,0.060386542,-0.06989353,-0.069474235,-0.07971933,0.08974575,0.06848083,0.05717566,0.06796504,0.032133978,0.032232687,0.05162368,0.056846395,-0.026476836,0.027403384,0.012235249,-0.058490068,-0.041625157,-0.0523434,-0.0021464126,0.03287253,0.01613298,0.033517074,-0.06719301,0.06921888,0.021408804,-0.011881428,-0.07109717,-0.046051506,0.029203203,0.017254382,0.009379186,0.0055963644,-0.025516968,0.060605828,-0.0013422401,-0.081822954,0.08787091,-0.0062442767,-0.0016574353,-0.005985843,-0.07923371
-0.07216503,0.01503182,-0.040638752,-0.030488113,-0.03836968,0.06034906,-0.026527151,-0.0050164633,0.055945262,-0.035797693,0.00387386,-0.040907398,0.061221026,-0.034222353,-0.033840284,-0.063651994,0.08418688,0.018519307,0.039011452,0.012901361,-0.0082420595,0.0062651397,-0.034669727,-0.075008996,0.040552344,-0.06442142,-0.032101423,-0.094223045,-0.046085935,0.052071333,0.0031684847,-0.0012775869,0.014075699,-0.04808674,-0.06668885,0.033719964,-0.050763935,0.07913054,-0.06040469,0.0692288,-0.06574508,-0.03841178,-0.0133759575,-0.091720395,-0.0917776,0.056946114,-0.019980177,0.06592283,0.06273078,-0.07946034,0.007803782,0.03721492,-0.03563262,-0.013941832,-0.044079646,0.076062635,-0.028912878,-0.05993399,0.026743438,0.051794652,-0.029222654,-0.019808475,0.013480967,-0.0032181225,-0.057801306,0.07601335,-0.008145945,0.011580453,-0.0919914,0.06739132,0.060923815,0.06575123,0.055564243,-0.09226602,-0.067374386,-0.022332124,-0.05709628,-0.06849024,-0.05117303,-0.04701999,-0.046632506,0.04237154,0.07173414,-0.042667523,0.010950215,0.0052417717,0.013753476,0.012334442,-0.013094714,-0.041684456,0.0043415152,-0.0012819092,0.03236707,-0.0007452172,0.074691355,0.06934044,0.015166185,0.06389804,-0.045869686,-0.08460219,0.022346132,0.049937204,-0.049274553,0.030589642,-0.018280597,-0.017624833,0.05125289,-0.07068224,0.020664033,-0.07467345,-0.091679916,0.002973159,0.03605881,-0.043673176,-0.023077521,0.018587792,0.048872102,-0.08813131,-0.090340674,-0.009277391,0.07501783,-0.081827134,-0.060284004,0.043708,0.011422228,0.0461446,0.014252853,0.06762751
-0.044760287,0.051087003,-0.06422198,-0.09187769,0.0094813,3.3064203e-05,-0.031165212,0.059611086,-0.030274197,0.046962373,0.07884568,-0.037425052,0.026215414,0.032943454,-0.07297547,0.036870178,0.05530477,0.09213971,0.033986043,0.081968926,-0.06264518,0.07034849,0.0733491,0.0851395,-0.039606843,0.015484592,-0.03565011,-0.04620228,-0.009594867,0.04764658,-0.065797046,0.052110963,-0.06540638,-0.019371407,-0.07806286,-0.07395076,0.0001838489,0.071793966,-0.027998267,0.03713308,-0.07832845,0.022930935,-0.00088896696,0.025753243,-0.0018672157,-0.014000529,0.028554479,-0.018761383,-0.045078453,-0.02859509,0.043876927,-0.024180027,-0.028846694,0.06844627,0.07779208,0.0025622048,0.009737654,-0.07042337,0.030972915,0.07035353,-0.026517974,0.05197938,-0.026818145,-0.043150526,0.07426742,0.06866723,-0.06843308,-0.07822176,0.059940822,0.068327524,0.07532884,0.04717734,-0.033489633,0.05437644,-0.0523605,-0.04441278,0.06605473,-0.023340214,0.053687915,-0.04411833,-0.08611981,-0.07209819,-0.025028912,0.022890264,-0.057801787,0.004608822,0.06402907,0.031971734,0.044749107,-0.0039573233,-0.04189965,-0.006977355,0.0028543193,0.08110854,0.060082596,-0.054909848,0.023709962,0.04645407,0.022330517,0.06893001,0.07040695,-0.017830905,-0.001023357,0.07782709,-0.072624505,0.016466068,-0.060641944,-0.07232912,-0.05372271,-0.063377574,-0.059276696,-0.01975927,-0.06206395,0.07289416,-0.061937287,0.03613458,-0.07253775,-0.0629868,-0.043882336,-0.07597073,-0.059794344,0.06043916,0.023084449,-0.06936348,0.053100467,-0.0025509696,0.05895877,-0.013052605
-0.064724885,0.014479203,-0.05538689,-0.010874144,-0.09759738,-0.024736343,-0.07803078,0.03520347,-0.015923059,-0.019156393,0.04967094,0.05490864,-0.056199946,0.07338004,-0.08180179,-0.07919199,0.0048790285,0.011480813,-0.071226366,0.08372592,-0.01346238,-0.032886025,0.03664077,0.05201265,-0.06879034,-0.023261197,-0.09460054,0.016524648,0.04131823,0.055579223,-0.027144825,0.012846222,-0.05287976,-0.015563788,-0.057719987,0.04529859,0.016831921,-0.02888446,-0.08221699,0.020829026,0.008362662,-0.013447887,0.042984806,0.043942615,-0.02078403,0.058210865,-0.059253726,-0.049252603,-0.028063938,0.005879063,0.060888667,0.05443648,-0.060762636,0.06888414,0.040977024,-0.018698035,0.004995531,-0.07478172,0.03669746,0.064263456,0.0028087818,-0.033806182,0.059993535,0.013042687,-0.029294515,0.061306573,-0.028718686,0.00045964448,-0.055151306,0.021126688,-0.035979368,0.06711364,-0.081961535,-0.046711758,-0.089996755,-0.07706741,-0.017892137,-0.031534635,-0.05567606,0.045960337,-0.014750336,-0.053392693,0.02254696,-0.0891538,0.0058430373,0.010694831,-0.06297789,0.011526071,-0.02714688,-0.07991857,-0.07998847,-0.07913936,-0.037099924,-0.008695468,0.020103088,-0.085015334,0.021770343,-0.030977352,0.064404,-0.08925276,0.03256471,0.060387086,-0.01913154,-0.071428746,-0.06282832,-0.0033954342,0.0028427017,0.0560367,0.072580285,0.054456428,0.057765145,0.03661574,0.0009851088,0.01950337,0.04545594,-0.053262733,-0.048555046,0.04800067,0.01562809,-0.064258635,0.033647347,-0.05021308,-0.06568946,-0.024550254,-0.045480665,-0.046956982,-0.024874758,0.005091497
0.04636617,0.015597263,-0.047115434,-0.07881641,-0.012612371,0.0011934406,0.071950614,-0.026992854,-0.023210902,0.036481027,0.08263807,0.0029806462,-0.07775155,0.044777747,-0.08054563,0.0348208,-0.06446741,-0.086984,0.06560362,0.08824501,0.08696762,-0.08735969,-0.015068794,-0.04771259,0.07560144,0.008879414,0.02091509,-0.08297273,-0.021366544,-0.038213335,0.045723367,-0.011766399,-0.082829334,0.07744999,0.038522482,0.08543439,-0.06391424,-0.03464359,-0.06781635,0.003646893,-0.046776004,0.025263378,0.022648737,-0.029109636,-0.069427915,0.00030450043,0.017268997,-0.031218339,0.05187294,0.08198972,-0.08693274,-0.013764813,-0.08828632,-0.05994758,0.015501411,-0.0010676113,-0.04659959,-0.060066864,-0.06384903,0.014603209,0.062827066,0.061773002,4.804741e-05,0.021446161,0.009016538,0.078676015,-0.022167599,-0.06520684,0.06719633,0.03341262,0.057808943,0.05422659,0.025785472,0.013410316,-0.029803164,0.08173939,-0.05279257,-0.005307447,-0.014058587,-0.0635267,-0.012052102,-0.0009141862,0.08754978,-0.07835503,-0.0042821937,0.086264305,-0.06970255,0.0043587005,-0.074859194,-0.05805329,-0.018811107,-0.044955976,-0.03305064,-0.06982694,0.035761684,-0.007174911,-0.070958205,0.045656025,0.06466476,0.010065026,0.0015973129,0.027600368,-0.012835991,-0.013916088,-0.044817757,0.050846368,-0.08338121,-0.018227406,-0.04465001,-0.08782557,0.07688371,0.010917435,0.061001357,0.0075833453,-0.04651636,-0.08303194,0.023204263,-0.06863111,0.0085795075,0.017687747,-0.06885005,0.057409424,0.0061731013,-0.030705675,-0.012959229,0.079783246,0.028765097,0.021925306
-0.09377927,0.059893623,-0.045375194,-0.069266774,-0.06000427,-0.057420433,0.06550627,-0.06932466,0.004230606,-0.07021577,0.0010733112,-0.09264832,0.016165687,-0.08807639,-0.044068493,-0.050647076,-0.054978132,-0.0026144052,0.012083192,0.046384074,-0.021639133,-0.029888522,-0.07270055,0.06412037,-0.040674023,0.006996847,0.07841229,0.019211095,0.02053994,0.06829093,0.060998596,-0.023903321,0.045399435,0.06304744,-0.089401156,0.044190384,-0.039928474,-0.070666164,0.077463485,-0.08205003,-0.034857634,-0.053245943,-0.048466887,-0.0024838848,0.013139662,-0.06720082,0.04993176,-0.023858944,-0.025304079,0.07562148,-0.0149432765,0.060550597,0.002997568,-0.0037998206,0.0022193175,-0.06369091,-0.06296153,0.026637228,-0.050753653,-0.050621748,0.03919737,0.06374351,0.056259472,-0.08229802,-0.09607089,-0.02211136,0.078485,-0.0027995615,0.039311837,-0.020093035,-0.051986642,-0.053952664,0.036675535,-0.0021748303,0.005728038,0.008932368,-0.021946887,0.060614835,0.055099778,-0.0127527565,0.059796456,0.051397905,-0.025926478,-0.07100875,-0.005025146,-0.027483942,-0.0044355127,-0.07165642,0.005897748,-0.0843896,0.08003096,-0.03516044,-0.03881725,-0.036732253,-0.06730403,-0.073814414,0.049663454,-0.05554767,0.041349277,0.044289686,0.045366954,0.03484566,-0.04529465,-0.012764124,0.03758271,0.038514905,0.060666673,-0.05389131,0.030718926,-0.055703174,-0.023224782,0.021908462,0.01760005,0.07800252,-0.01928519,-0.06783612,0.056457,-0.03990466,-0.03266868,-0.064206354,-0.019475583,0.052137412,-0.02559749,0.01656487,-0.03708775,-0.0055333436,-0.011142238,0.007294123
0.021966444,-0.057398286,-0.06595033,-0.07174426,-0.015179418,0.045234483,-0.03174764,-0.030467078,0.008529911,-0.030222706,-0.062352404,0.057172894,-0.048937242,-0.077916645,-0.08465924,-0.0048177536,-0.07897689,0.02153529,-0.02326281,0.074992016,0.05073136,-0.009565448,-0.011820768,0.028068004,0.04560889,0.09252902,-0.037136313,0.035459653,0.040213645,-0.043615647,-0.09215276,-0.056293365,0.07637726,-0.059426244,-0.0105787115,0.0022682713,0.07477484,0.006227154,-0.05617123,-0.011313046,-0.08015302,0.010147299,0.078767814,0.061309,-0.08009098,-0.083217315,0.008582932,0.0042730607,-0.020215843,-0.060943224,-0.046130396,0.008798513,0.056336522,0.048289735,-0.05720728,-0.039237756,0.0079410635,0.03271826,0.05224186,-8.163844e-05,-0.021736994,0.05725794,0.077312544,0.051563065,0.00044704886,-0.061065376,0.050226387,-0.08614572,0.03693974,-0.027222184,0.01102159,0.024651133,-0.046476077,0.0053348662,0.045328513,-0.052502476,0.041028608,0.08397726,0.044422515,-0.0628209,-0.07359266,-0.026292276,-0.017513912,0.07423214,-0.060442023,-0.040276088,-0.028429398,-0.047117386,-0.083776884,-0.06665227,-0.0073602307,-0.019006602,0.056438092,0.024362454,-0.034060795,-0.044327192,0.0023358203,0.074349776,0.04708338,0.060482454,-0.08498732,-0.04640021,0.0051733674,0.01213279,0.04895645,-0.063967094,-0.010853833,-0.031135932,0.05352583,0.065877244,-0.054054998,-0.07489712,0.04641391,0.065374196,0.070407994,0.068391666,0.017420037,-0.02796578,0.018442439,-0.0072023664,0.014615949,0.05325666,0.06386966,0.07145055,-0.019672927,-0.08224935,-0.055176113,0.011905631
0.061691713,-0.070241645,-0.059547752,-0.009807835,0.023706991,-0.08601965,0.051436633,-0.0064094923,-0.03529813,0.08618598,0.028739935,0.004351409,0.04158131,-0.045220282,-0.072373554,0.014773713,-0.074520715,0.076170556,-0.040263865,0.070607044,0.04642415,-0.019017763,0.045421783,-0.055688147,-0.05034775,0.060998764,0.010559229,-0.08320113,-0.0632974,-0.055794965,-0.055269364,-0.05113935,-0.018030537,-0.050411783,-0.021001985,-0.04701011,-0.0036278532,-0.0016572983,-0.01747068,0.042304456,-0.022696225,-0.07083884,-0.064998396,-0.0771124,-0.087864004,0.042037413,0.04141693,-0.014374878,0.049510736,0.028875638,-0.022823771,0.040376976,-0.027217265,0.037825815,0.021079471,-0.031162873,0.06980519,0.08475903,-0.027210984,0.0371199,-0.030789232,0.08795504,0.051447824,-0.054415878,-0.0037280677,0.051885203,-0.062907286,-0.06781487,0.04080717,0.06663354,-0.072906114,0.083003014,-0.06142331,0.036459226,0.0086281765,0.02681667,0.08246056,-0.03394486,0.027232658,-0.031614594,0.008420424,-0.004044654,-0.07849042,-0.0047834353,-0.015944395,0.025880894,-0.08346161,-0.08743549,-0.07868754,-0.026824571,0.019655803,0.055628646,-0.013442189,0.035375692,-0.047019783,0.0390007,0.08228361,0.06320041,-0.067132235,0.06408146,0.066661604,-0.03181989,0.045278486,-0.07622545,-0.023501052,-0.028728956,0.05361808,-0.024104161,-0.08788017,0.081227146,0.065974146,-0.028959984,-0.037465807,0.030574081,-0.029483723,0.06528142,0.0074363267,-0.031422995,-0.013306339,0.07453519,-0.059934326,0.0030755082,-0.029398901,0.012809344,-0.04795702,-0.034243375,0.08595433,0.015838744
-0.06722603,-0.003095977,-0.0875546,0.04376413,-0.039890707,-0.0314324,-0.07955629,0.013433721,0.049716905,-0.054745737,-0.02957493,0.042335786,0.050521333,0.00089727185,-0.025370372,0.03665875,0.016373586,0.058384366,-0.044053443,0.001616209,-0.05907853,-0.05722544,-0.0878828,-0.032292683,0.045055173,0.07485731,-0.06927225,-0.056368105,0.051662162,-0.025981301,-0.0684087,-0.012907419,-0.028876504,-0.055418342,0.02537651,0.043120567,-0.061892364,0.006014749,0.016015528,-0.056632508,0.08769353,-0.08464753,0.008271991,-0.054231975,-0.048503634,-0.0724035,0.014635303,-0.021743389,0.014240624,-0.022301396,-0.03572787,0.009661259,0.04124819,0.06344627,0.011988303,-0.013107827,0.07010629,-0.04418043,0.029928194,-0.08337812,-0.019300643,-0.040126726,0.0061702514,0.07276908,0.068831064,-0.008910749,0.050437056,0.0038009374,0.044220965,0.071562625,-0.033350963,-0.006861383,0.035295445,-0.041598093,0.04203198,-0.0005576211,0.0753118,0.042636905,-0.0036755118,0.020672515,0.0038510847,-0.0057443953,0.077356964,0.0038402637,-0.03951125,-0.016523395,0.024427017,-0.08374084,0.01958276,0.0044834553,0.073962554,-0.092296444,-0.011121409,-0.014877266,0.025014207,0.025149072,0.024660332,0.06982146,-0.056754697,0.016179165,0.07633549,0.06027161,-0.077743,-0.06434575,0.032711312,0.030731205,0.053919632,0.012057571,-0.080771886,-0.09077299,-0.053675592,0.06946852,-0.08584927,-0.06882904,0.03629457,0.031881645,0.0049661486,0.055434693,-0.008098692,0.015783729,0.07851474,-0.015185815,-0.0981527,0.015861956,-0.07177026,-0.08229366,-0.027706632,-0.03049903
-0.07836592,0.07804915,0.038704727,-0.00044193078,0.035554066,0.023614056,0.045814108,-0.009590098,0.05938439,0.0785953,-0.050151452,0.074176095,0.035521235,-0.06968977,-0.060588393,-0.018849978,0.0030483431,0.044683866,-0.08404934,0.01623154,-0.053753525,0.017932767,0.08082271,0.011804838,-0.03052368,0.033977874,-0.059670437,-0.06753047,-0.022575853,0.08195806,-0.01710048,0.03214066,-0.046556342,-0.08582108,0.058618393,-0.086056516,0.039314765,0.06706932,0.069831364,0.03241847,0.049700733,0.048080992,0.021866132,0.07820724,-0.07883156,-0.023490451,-0.0394785,0.023304641,0.042139757,0.06260724,0.042786725,0.07799165,0.06975713,-0.070194446,-0.055001553,-0.028092034,-0.079875745,-0.098983474,0.024705086,-0.030376993,0.064580284,-0.03591983,0.03752911,0.03828877,-0.066069305,0.06155388,-0.04233258,-0.01730254,-0.05952982,-0.050310608,-0.053163823,0.049658068,0.08006818,0.06679076,-0.03141894,-0.0023170037,-0.024641091,0.013177391,-0.050976995,0.00866614,0.06868596,-0.08695667,0.043281935,0.033395167,-0.027601356,0.037338756,-0.068771064,0.0070120976,0.025084782,0.056916352,-0.029763356,-0.086515255,-0.055985756,-0.07670355,-0.057859078,0.032920178,0.007510031,0.076715805,0.008211386,0.03437219,-0.03366392,-0.060207047,-0.07154849,-0.033114098,0.057586987,-0.02828457,-0.021429585,-0.057218086,-0.10316408,0.061626256,-0.03954647,-0.0119872065,0.07581982,0.019904343,-0.08768972,-0.07481393,-0.009045899,-0.03540648,0.075851366,0.018047428,0.030681461,0.053438306,-0.09589414,-0.050075796,0.021082401,-0.016549213,-0.020642398,-0.056856297
0.05139017,-0.08488487,0.061295226,0.044396766,0.023047686,-0.030664297,0.086334154,0.08314837,0.02664036,-0.028710354,0.033227995,0.07911009,0.088081434,0.05526627,0.055338856,-0.00095931493,-0.07741999,-0.090125114,0.08116616,0.030624026,-0.036276612,-0.0063936766,0.03560677,-0.02790801,-0.05066494,-0.078853436,-0.061472815,-0.037183683,-0.078935176,-0.054448523,0.016483318,-0.0375687,0.050770584,-0.035484813,0.080286026,-0.07860542,0.05397308,0.04123655,0.032638688,-0.013446277,0.07641575,0.08130658,0.062392414,-0.07802872,-0.03147157,0.062171068,0.008819849,-0.022825057,0.075635456,0.0634305,0.032241836,-0.039344218,-0.04746976,0.085519835,-0.028440904,-0.025503516,-0.051450413,-0.013658661,0.03312186,0.045374792,-0.019211428,0.09274519,0.032537784,0.0836234,0.087149575,0.053353608,0.06584297,-0.024637079,-0.050419472,-0.061649438,-0.078028254,-0.062428556,-0.045633603,0.05470406,0.085721165,-0.0012398286,-0.019860743,-0.0084894495,-0.01672592,-0.017122142,-0.07126052,0.08993495,0.026655963,0.07163947,0.087977946,0.063562356,0.026540998,0.00045897783,-0.010746498,0.039779767,0.03516556,0.0327743,-0.016995685,-0.0074844677,0.01585479,0.09209326,-0.01364127,-0.053292412,-0.03197385,-0.050851673,-0.027606439,-0.039630856,-0.053826824,0.032311324,-0.040998727,0.08026562,0.031186532,-0.073539674,-0.04312538,0.036664918,0.023339186,0.055154327,0.026039787,0.0048768856,-0.044131197,-0.008137102,-0.07673127,-0.034375582,-0.048445962,-0.01862039,-0.03293419,0.023828058,0.049216837,-0.08610187,0.07218029,0.07330284,-0.026662529,0.051161543
-0.080334544,0.049771838,0.022748105,0.07349084,0.07547815,0.087932825,-0.03768709,0.040349927,0.056695603,0.04579247,0.0066402196,-0.0742696,0.08468578,-0.021196323,-0.035815857,-0.018434241,-0.002008866,-0.08510834,-0.060856324,-0.06329905,0.023050955,0.012462327,-0.06874782,-0.053380642,0.06710137,-0.059330195,-0.08457824,0.052266255,-0.017063173,-0.062253676,0.06913136,0.012148976,-0.055945102,0.08210363,0.06064243,-0.04601811,0.06677772,0.0073869983,0.037838448,-0.050616447,1.3213037e-05,-0.05238421,0.032385804,-0.07414988,-0.06959625,-0.0015272438,-0.040600132,0.06744285,-0.08150713,-0.05736573,-0.038206752,0.02600432,0.06767452,0.059704363,0.059309956,0.008228142,0.06971428,0.060642302,0.058819473,-0.0487501,-0.0036259883,0.045903105,-0.003253171,-0.06645072,-0.015853714,0.035345178,0.021172393,-0.046447985,0.0121800285,-0.08161887,0.03630396,-0.031955928,0.008266862,-0.0508389,0.029241135,0.017671825,0.008814065,0.025537707,-0.022436066,0.07028876,-0.054001868,0.036464397,0.0097361915,-0.052792948,-0.02393244,0.086747244,-0.02450974,-0.01689583,0.00802025,0.051918164,-0.086486205,0.03131644,-0.06866608,-0.020927543,0.064630345,0.0114759635,-0.025367124,-0.03393681,-0.057873182,-0.009110883,0.0092752045,0.030282516,0.044581577,0.064067066,-0.051461343,-0.05177499,0.03091583,0.03623317,-0.08326585,0.038206182,0.040797632,-0.061482947,-0.07057227,0.030630127,-0.08760622,-0.061165687,0.0019323801,0.02581083,0.061664328,0.0037691568,0.055608347,0.0024730926,-0.0007642046,-0.026549943,0.086108066,0.036294084,-0.035454206,-0.06748035
-0.025727492,0.094631635,-0.013773537,0.05364572,0.023079578,0.033387795,0.009837032,0.025633695,-0.07071262,-0.03816613,-0.069122,-0.00030770528,-0.08787593,0.085926615,-0.019052057,0.049780928,0.042842798,-0.04918472,0.07298496,0.049961157,-0.04061967,-0.021487,0.036905866,-0.05256389,-0.020342635,-0.023424657,-0.057277054,0.06373268,-0.048665818,-0.033656146,0.062000733,0.07829974,0.031330246,-0.036126412,0.05519113,-0.0024707338,-0.0028787707,-0.082395576,-0.022722198,-0.0534329,-0.011982623,0.0202533,0.029408941,-0.056036636,-0.020693228,-0.034506984,0.07832311,0.08086266,0.025196908,0.07800896,0.03206773,-0.06787479,-0.04906462,-0.03927666,-0.059264015,-0.053476196,-0.05243715,0.026161343,0.06849451,0.028595276,-0.038670197,0.05484032,-0.04404195,0.014548272,0.039477948,0.050522845,0.073131405,0.032465097,0.0395039,-0.08110942,0.0554213,-0.007813777,-0.08572984,-0.035416003,-0.07136599,0.01446129,0.06376822,-0.011220725,0.06955967,0.036588278,-0.032261055,0.049591597,-0.028642928,0.084027894,0.01948678,0.07339154,0.027112545,-0.059924245,0.016754547,-0.2680875,0.018509405,-0.038367145,-0.00024656163,0.031887826,-0.081460424,0.044357356,-0.0013341268,-0.06806703,0.060443334,-0.025669562,-0.016244676,0.0666892,0.068259716,0.038873352,-0.06838295,0.05912718,-0.02606442,0.06380971,-0.05398654,0.0426326,-0.004691266,0.049763475,-0.07872653,0.046556484,0.08767477,-0.026126463,-0.080778114,0.022434618,0.030574625,-0.07044123,0.011140875,0.050557546,-0.051143732,0.029101893,-0.0061462433,0.06413415,0.019741546,-0.02968393
0.0029123367,0.037918,0.011780433,-0.024824884,-0.03604113,-0.024459017,0.007164848,-0.031432644,0.05904629,0.045772467,0.04339605,-0.031829543,0.045012474,-0.011104113,-0.036768794,0.05700536,0.008715768,-0.045795374,-0.060453594,0.06265954,-0.009899957,-0.009247714,0.048019957,-0.0400989,0.08639218,0.08673167,-0.033212706,-0.010198083,0.039377622,0.058447942,-0.06534377,-0.049656287,-0.05129109,-0.03266527,0.08485228,0.0639297,-0.013056893,0.08052537,-0.075076304,-0.014488538,0.04599342,-0.0043989085,-0.060152728,0.035932623,-0.039337423,-0.021833826,0.07923227,0.050934825,-0.08133977,-0.053019732,0.06835575,-0.048824742,0.038108516,-0.03023069,0.08084223,-0.008043399,0.059148118,0.06324374,-0.044878934,-0.021196766,0.025217861,0.036161575,-0.04807854,-0.07520207,-0.024511248,-0.019095019,-0.07716034,-0.06819503,-0.07259994,-0.021335103,0.07451269,-0.04998318,-0.030745208,-0.05080478,-0.05198544,-0.037511833,-0.032923747,-0.04034605,0.03322415,-0.039352953,0.022843044,-0.004558656,-0.08530189,-0.026767422,-0.044314396,0.0034903807,-0.087300494,-0.051997453,-0.06660641,0.0033799664,-0.04719622,-0.0070027513,-0.06571875,-0.0032561074,0.0021419134,-0.06873919,-0.005989362,-0.07804401,0.018719733,-0.06818353,0.011589034,-0.06454853,-0.05303635,-0.07448877,-0.055909775,-0.06982344,-0.08050424,0.057558402,0.061630536,-0.05293035,-0.06776919,-0.030916482,0.06959751,-0.034863103,-0.0037855033,-0.057332788,0.009883815,-0.02096911,-0.066023365,-0.061122622,0.0749462,-0.07367896,-0.044451848,0.007992223,-0.025779488,-0.06647638,0.020725945,0.0062147635
0.08003857,0.015826331,0.051200073,-0.06551933,-0.00589724,-0.031340826,0.08247043,-0.024183176,0.052461036,0.020461515,-0.07602749,-0.014016482,0.012776375,-0.0015100478,-0.042770285,-0.014189116,-0.048044097,-0.07822088,-0.037015215,0.013510646,-0.07215281,0.034244407,0.01932807,-0.06743527,0.0071315626,0.041622236,-0.03260164,0.006024165,-0.023844453,-0.05656303,-0.08223767,-0.004009419,0.005729611,-0.06818046,0.057086166,0.04473286,0.027106028,0.05671835,-0.030702187,0.03817688,-0.023146449,0.058275834,-0.029758856,0.050983313,-0.02095342,0.0628013,-0.038800314,0.014737541,-0.029751081,-0.022842264,-0.031608354,0.053491186,-0.050186843,-0.03451636,-0.02235181,0.056343835,0.058095258,0.04740644,0.07052402,0.024276806,0.060367048,0.00661106,-0.07985873,0.04293046,-0.07366501,-0.031108588,0.015183128,0.015889151,0.005981723,-0.0019298304,0.05176359,-0.017636485,0.07989779,0.029942479,-0.06332131,-0.060864832,0.08586758,-0.008316068,-0.039449785,-0.06892722,0.05947169,0.05097442,0.08522094,-0.05127413,-0.027316405,0.034727506,0.08278412,-0.08714802,0.021997873,-0.036623135,0.0763352,-0.027081057,-0.076283455,0.009218043,-0.056154057,0.060658395,0.035227083,0.07464006,-0.023533989,0.036138456,-0.030130982,-0.0070853066,0.037810568,0.0350837,0.011476018,-0.025703466,-0.03584228,0.06538574,0.03896911,-0.030603848,-0.06210398,-0.08226596,0.031657815,0.026325585,-0.02304734,0.06333566,-0.01686209,0.03652426,-0.053545292,0.03638416,0.004026615,0.041954983,0.04214706,-0.0122988615,-0.02379356,0.002895699,0.08343022,0.051241506
-0.07156457,-0.036449175,-0.08950247,-0.023295393,0.04491104,-0.0829626,0.0045450316,0.0072827465,0.0030831683,-0.024372391,-0.02529929,0.019628668,-0.087266766,0.009407573,0.029732648,-0.04238481,0.01622149,-0.08280182,-0.049735945,0.031858247,-0.007842186,-0.008660292,-0.028106676,-0.067898795,0.023019662,-0.06808709,0.024466362,-0.0718674,-0.004313772,0.040942576,-0.09160212,-0.0053961664,-0.08292035,-0.041728392,-0.0100915395,0.07187743,0.059484735,-0.06767352,-0.058327287,0.031419884,-0.08418486,0.056373328,-0.022076132,0.008566335,0.010963186,0.05816778,0.086775795,0.0041035926,-0.0029761544,0.07347774,-0.021649264,-0.07429468,-0.081551045,0.023088114,0.052576624,-0.03538683,-0.060663767,-0.05142182,-0.06400958,-0.041331295,0.08419601,-0.05706605,0.026256615,0.026437933,-0.085291795,-0.07863699,0.06771324,0.045607314,-0.01941417,-0.08718925,0.069154955,-0.048013486,0.07413116,-0.054443557,0.031191295,-0.014864869,-0.084834345,-0.0064850263,-0.0885945,-0.040988557,-0.07107103,-0.0384138,-0.0006683248,-0.05038089,-0.014463107,0.06085143,0.04641255,-0.09406459,-0.044287164,0.055244308,0.0128047075,-0.035599675,-0.07681392,-0.064029604,-0.06279634,-0.01923393,0.043352425,-0.022647435,0.08051656,-0.03698487,-0.0469867,-0.094526276,-0.041455124,-0.031375032,-0.010809305,-0.08076607,-0.052290447,-0.08258835,-0.037302587,0.029052356,0.010252791,0.026540361,0.061803915,-0.030177744,-0.01847406,-0.036960427,0.002525166,0.073138855,0.07174517,0.074246705,-0.087879874,0.064905725,0.07236075,-0.025039433,-0.020681426,0.015570099,0.06408635,-0.07397834
0.07660678,0.012571317,0.029980307,-0.058976166,0.05823173,0.08120006,0.04444919,0.048655618,-0.03771931,0.06191611,-0.033210333,0.024834003,0.028847948,0.05119897,0.07679963,-0.012043367,-0.07587973,0.018395549,-0.060949292,0.019860074,0.02096733,0.055327665,0.01950022,-0.07934178,0.074315816,0.035178978,0.024152678,-0.029194312,0.061929967,0.039227918,-0.057570405,-0.009804211,0.057689324,-0.023024328,0.0380897,-0.050304387,0.039359093,-0.08154081,0.0865538,-0.07720093,0.011767695,-0.063340664,-0.023788078,0.037677642,0.0039585084,-0.063558556,-0.023433184,0.075263634,-0.049754843,0.0018525296,0.07512945,0.028660499,-0.039192658,-0.092096545,-0.098277725,-0.016235914,0.0728807,-0.06571599,0.07698874,0.068371795,0.048216965,-0.070978515,0.007608786,-0.03138548,-0.09018903,-0.026641527,-0.063428104,0.043141168,-0.047523446,-0.010405772,-0.0027823932,-0.043140996,-0.07411103,-0.09098337,-0.027834738,0.039567012,-0.007712873,0.08079601,0.0631865,0.06908611,0.05040297,0.028621055,0.066375665,0.02178878,-0.02493543,-0.024824047,0.023811258,0.05692074,0.033024505,0.0057446603,0.016686268,-0.0731845,-0.053510103,0.058402956,-0.008768473,0.017911663,0.060042348,-0.04002229,0.046910025,-0.013602982,0.032941233,-0.037634723,-0.016494758,-0.07881452,0.07569618,0.018290257,-0.029411653,-0.00905249,-0.009835309,-0.03519731,-0.0074024172,-0.079385154,0.023456523,0.028192332,-0.06742277,0.07640322,-0.001646038,0.064517334,0.07535142,0.07122331,-0.041921906,0.00602819,-0.031070614,0.07360911,0.0023865968,-0.050048772,0.056484055,-0.0065040803
-0.054476015,0.0007402337,-0.09272712,0.025518741,-0.04245666,-0.03065023,-0.05805092,-0.08836772,-0.025343385,-0.06300146,0.064622164,0.045841824,-0.08269748,0.078807615,0.03878754,-0.005620071,0.0007952486,0.06986036,-0.06722386,0.08585348,-0.032261543,-0.07937103,0.038427886,-0.06660026,-0.05663014,0.028707098,-0.0607935,-0.036817633,0.079705514,-0.057975415,-0.04052721,-0.077129066,-0.044573773,0.04682988,-0.037838683,0.071228385,0.014413792,-0.0676862,0.06115911,-0.08633396,0.047509927,-0.0028994728,0.009639354,0.045367897,-0.045303755,0.028457256,0.0040961676,-0.050402932,-0.033286512,-0.01907544,0.002030533,0.08136513,-0.06511453,0.031127369,0.05696314,0.056747872,0.016781483,-0.08269421,-0.093849994,0.060515802,-0.07612576,-0.059328053,-0.07668754,0.009342295,-0.017074345,0.05903332,-0.0617296,0.02614678,0.035982326,-0.031985737,-0.06576378,-0.08157251,0.02913721,0.040049035,-0.0509094,-0.055379577,0.024900062,-0.020807086,0.026490564,-0.006252648,-0.014920605,0.026947653,0.00011251418,0.074324496,-0.03616903,0.08737142,-0.0048986957,0.037901178,-0.074806325,-0.006444959,0.06354529,0.04248236,-0.050549757,-0.04421908,-0.06609029,0.058617473,0.042610757,0.005151968,0.016747229,0.011766284,0.061440468,0.016519697,0.01958799,0.016978657,-0.02808528,-0.018600205,-0.03691946,-0.07569965,0.058303557,-0.041907158,-0.09070573,0.032118835,0.038512513,-0.07447446,-0.010203564,0.023040934,0.0155973835,0.0032538765,0.028347213,0.006251315,0.04953493,0.02521273,0.013484529,-0.0015971337,-0.02489238,-0.062405806,-0.04302526,0.082044505
-0.079564214,0.041056637,-0.057583593,0.07930079,0.033095676,-0.0061872522,0.024501774,0.012791668,-0.042441864,-0.02685199,0.06478278,-0.025105465,-0.0043461407,-0.0009882752,0.041589107,0.04884256,-0.09253499,-0.028374754,0.053186838,-0.028137572,0.035304107,-0.029596485,-0.058191985,0.015116537,-0.028316988,-0.035915688,0.07503382,0.07993805,0.032848917,-0.025733285,-1.2844743e-05,-0.014168569,0.055105295,0.04555524,-0.034524463,0.078979276,0.0027888664,0.013068897,-0.07901741,-0.028571138,-0.057915185,-0.034462787,0.04193403,-0.046527177,-0.012077341,0.0012117219,0.04535202,-0.08286101,-0.0674696,-0.041436475,-0.081401564,-0.06376345,-0.048799887,0.0619018,0.07629118,-0.065814234,0.08358028,-0.051916067,0.009038185,-0.0437879,-0.050584108,-0.024865545,-0.008863935,0.07534251,-0.03412746,-0.0010470542,0.058636446,-0.04626525,0.07269369,-0.009895816,0.066409566,-0.073340766,-0.061716337,0.081636235,0.07906008,-0.073463425,-0.0883739,0.03354652,-0.06112864,0.014045241,-0.013887966,-0.010769445,0.07118008,0.07710451,-0.0042780475,0.046779007,-0.033608064,-0.009354599,-0.023177838,0.08035751,-0.059222538,0.0037507003,0.073553614,0.0665517,0.0689269,-0.046112556,0.061330967,0.00064505276,-0.014127423,0.039747924,0.030451456,-0.081500046,-0.05227486,-0.02951331,-0.0033157452,-0.035316963,0.041968063,-0.08392664,0.004822676,0.04082273,0.06486022,0.004675255,-0.016043156,-0.035823945,-0.039692175,-0.02547484,-0.07069605,-0.006889294,-0.066476665,-2.5920312e-05,0.059592422,0.037428636,-0.0060043423,0.026012992,0.03274179,0.0015575051,-0.08581979,0.079521865
-0.02180351,-0.049248178,-0.0134185,0.03393403,0.035404425,0.019995507,0.06891567,0.086638786,-0.0024721234,0.06483222,-0.01793851,-0.059187114,-0.06778141,0.027193375,0.036944438,0.08605934,-0.06650194,-0.07773172,-0.0009882337,0.008693704,-0.024681987,0.076386556,0.00813124,-0.023227839,-0.0424439,0.03225401,0.060178135,0.028011214,-0.07991789,-0.033620767,0.011637184,0.023445534,-0.061265156,-0.05510122,-0.074210405,-0.03732367,-0.05988621,0.0023256382,0.042979795,0.054996874,0.012681312,0.06488616,-0.012157521,0.05095435,-0.06383317,0.00031055906,0.057705007,0.040640917,0.083952755,0.005189868,-0.06572292,0.04016647,-0.072303645,0.017707475,0.03410659,0.042839475,-0.03530789,0.07890574,-0.018050998,0.06841862,0.06785581,-0.018424904,-0.0032705846,-0.0038941158,0.017206615,-0.042205185,-0.011254708,0.04022524,-0.06193374,-0.04328238,0.07236708,-0.034271434,0.009744626,-0.07875533,0.03312485,-0.047887955,0.02316278,-0.044134963,0.01596792,-0.031169439,-0.0119165685,0.06991872,0.03273833,0.010435388,-0.06832124,0.032758195,-0.06340739,0.04385818,0.083973706,-0.07579849,-0.058901932,-0.021599175,-0.039182425,-0.0112964595,-0.049010366,0.06782124,-0.052537773,-0.015433817,-0.06697318,-0.029802576,0.08353398,-0.05838561,-0.064069666,0.02142428,-0.079027966,0.037463628,0.08692031,0.050193273,-0.07260105,-0.06766132,0.08412668,0.01109157,0.05721405,0.042700563,-0.08189968,0.023605153,-0.044782843,-0.06898583,-0.0022811557,0.06775117,0.024420867,0.07187875,0.018058386,0.060119316,-0.031062068,-0.08362248,0.080294505,-0.04832522
0.075787105,0.050633367,0.071322046,-0.03320186,0.049278095,0.08436049,-0.07660361,-0.0770881,0.055588838,0.003374559,0.075759284,0.07346285,0.08658075,0.07695765,0.061083283,-0.049319144,-0.0037729098,0.0925739,-0.05623458,-0.015388517,-0.01775733,-0.047458827,-0.055411648,-0.06453185,0.026773017,-0.08944282,-0.04747139,0.09398011,-0.044668283,0.062070984,0.0043942654,-0.03748409,0.055536218,-0.028265363,0.06330814,-0.029991997,0.0032338845,0.05156638,0.06055675,0.038613476,-0.05454956,0.0027353347,-0.08349358,-0.085410625,-0.022062091,0.06958625,-0.011936967,-0.029724855,0.040799674,-0.088908486,0.08197024,0.031338647,0.017090093,0.056031775,0.02367546,0.013670218,-0.0894205,0.062377088,0.021280432,-0.0059147514,-0.07868186,-0.040054128,0.012290616,0.04506342,-0.06514942,0.039955568,0.035527255,-0.01771509,0.044857956,-0.018966567,-0.040847287,-0.004592728,-0.06751367,0.016958011,0.006170296,0.006568215,-0.06623071,-0.022534568,0.072147764,-0.07478867,0.061726056,0.02521826,0.016409142,-0.041471444,-0.073574506,-0.036727447,0.020191366,-0.07149078,0.06565735,0.0064634085,0.010813861,0.076209486,0.051921617,-0.060582772,0.066911064,0.060208257,0.0744548,0.045216218,0.009089063,-0.06426869,-0.008041412,0.043415178,-0.042249642,0.026794672,-0.054620054,-0.023362704,0.031436328,-0.08780445,-0.07832692,0.009696165,0.028367877,-0.023163972,-0.011795975,0.029704034,-0.027776675,0.038332283,-0.056527358,-0.026608385,0.06437127,-0.068516456,-0.023129346,-0.053162497,0.042096116,-0.022500116,-0.016435543,-0.03247909,0.06747108,0.068477646
0.02823358,0.05484879,0.050918113,-0.030946191,0.012273832,0.02784718,-0.055844426,-0.05978898,0.0288276,-0.049979176,0.03834857,-0.034446035,0.03326913,-0.0026209543,0.04696297,-0.030973054,-0.062631145,0.07787505,-0.039776325,0.012561355,0.072858736,0.04452142,0.016276909,0.08742227,-0.0051679676,0.05830554,-0.0035342476,-0.023825057,-0.06020393,-0.07673725,0.08539486,-0.01091007,0.0025570514,-0.06667015,-0.02699513,0.07115118,-0.028614517,-0.043573473,0.006722085,-0.025337432,0.010875077,0.042860936,0.026368314,-0.032400053,0.06773326,0.07949562,-0.077799216,0.005409056,0.09184001,0.009838603,0.058167174,-0.014766412,0.040717807,0.04307468,-0.013034157,0.070929095,-0.024253698,-0.07551984,0.033066295,0.04493501,0.043388832,0.06355287,0.06173958,-0.03113414,0.030353468,-0.04384893,-0.0065520764,0.09190708,0.049094066,-0.035321902,0.09327621,0.03997851,-0.026228921,0.01213534,-0.030272238,-0.052527536,-0.037382968,-0.0006443478,-0.014845221,0.025003597,-0.054765485,0.07373676,0.016813306,0.0362229,0.076261744,0.087841496,0.07357387,0.023392297,0.013338516,-0.032014765,0.029720377,0.075372756,-0.001920879,0.08596595,-0.041479528,-0.0048900577,0.015385886,-0.03134768,0.023904337,-0.06465684,0.034734234,-0.0037451722,0.00363545,-0.054733295,-0.034629863,-0.046072595,0.08514224,0.071824424,0.08299138,-0.046418797,0.011139275,0.0515506,-0.01610312,-0.035357803,0.056592107,-0.008460758,-0.018523742,0.059268527,0.021255746,0.053106252,-0.049386602,-0.06584945,0.08169537,-0.07957158,0.061169554,-0.0054280716,0.0769971,0.008610011
0.047309328,-0.08758348,0.034814462,0.009620544,0.0010532324,-0.025965165,0.009939302,-0.06432593,-0.025139678,-0.029424557,-0.0144326035,-0.026391236,-0.063373476,-0.016788522,-0.04234701,-0.027232016,-0.049531586,0.03430004,-0.04581688,0.04927859,0.018017668,0.0182854,-0.034212653,-0.08451991,-0.046320066,-0.026048023,-0.046020295,0.0041284105,-0.030159684,0.06331678,-0.043147143,-0.034259003,-0.009180142,-0.058766287,0.013505691,-0.017173093,-0.07071625,0.017562825,0.04719096,0.050707106,-0.006567143,-0.005815098,-0.0023967687,-0.08643962,-0.04724077,0.0731663,-0.03641845,0.014572902,0.064869486,0.02785962,-0.08378125,-0.013894847,0.0015622783,0.061495088,-0.018623767,-0.08973755,0.07791392,0.04276738,-0.07184826,-0.063078955,-0.016086968,-0.08309949,0.042081952,0.005939239,0.014341575,0.020515813,-0.056706112,-0.016036877,0.055271424,0.012053345,0.04980105,0.038842887,0.07177204,0.018733982,-0.003316404,-0.010499888,0.037568636,-0.059635364,-0.025306346,-0.09049593,0.020262415,-0.0562796,-0.07432034,-0.0272732,0.059289977,0.020412993,0.022866525,-0.08187558,-0.030664857,0.054753587,0.026027206,-0.053785145,0.0018717828,-0.029317463,-0.015296229,0.03700355,0.009857031,-0.044326086,0.023813637,0.061785758,-0.05895497,-0.05937043,-0.072574615,0.0600575,0.017565642,0.035537295,-0.065676995,0.07492041,-0.010973129,0.044231154,0.06728919,-0.07910603,-0.029839747,-0.07654766,-0.02994658,-0.004812949,-0.06429399,0.046874963,-0.0199098,-0.013690644,0.08038904,-0.046517074,0.05719496,-0.045323476,0.058474008,0.04933966,0.013942968,0.083421886
-0.008792948,-0.052382506,-0.0124671385,0.03338179,-0.05090178,0.0026112606,0.054814283,-0.042915232,-0.032752022,0.07429765,-0.038828187,0.04989419,0.037730183,0.09578583,-0.0178481,-0.03716372,0.0070486437,0.08377699,0.02714204,0.060208816,0.0509668,-0.0674907,0.05615472,0.010707363,0.05608425,-0.077942446,-0.008490519,0.003953225,0.08556965,-0.068927445,0.037194043,0.053825654,-0.06971963,-0.0130323,-0.028015947,-0.010882429,-0.070581906,0.01667322,0.03790878,0.043179255,-0.06712847,0.012070554,0.090448126,-0.07150879,0.06135771,0.07079981,-0.0539779,0.051890805,-0.049118914,-0.029340845,0.08060166,0.069173545,-0.03651056,-0.0007600347,-0.03322997,0.09046667,-0.009379699,-0.058945853,0.05378763,0.058472347,-0.08741606,-0.013259474,-0.07918898,0.020782288,0.048573967,-0.04562835,0.021023015,-0.012516238,-0.08516523,-0.026660968,-0.03336986,0.034846094,-0.02002558,-0.0595568,-0.051239528,-0.06655616,-0.031491682,0.062714756,0.008468246,0.08941904,-0.0040567955,-0.06335184,-0.008552387,0.0151903005,-0.031634416,-0.003864866,-0.02498458,0.057878926,-0.006248994,0.03714521,-0.03385045,0.07289402,-0.035906848,-0.02279865,-0.055722684,-0.07260913,-0.0029367607,-0.047066845,-0.047683284,-0.0656199,0.077338204,-0.0060490794,0.068608396,-0.05845219,-0.05848831,-0.05908894,-0.016232492,-0.030099371,0.036875065,0.067975275,0.0603465,0.05403096,0.011559606,-0.06688847,-0.05527407,-0.054786075,-0.019382179,-0.074323066,0.06932623,-0.01972837,0.052140407,-0.08240894,0.076369174,0.0578122,0.011973582,0.053990353,-0.0002093729,-0.05356758
0.047754683,-0.05881319,0.04231533,0.07242835,-0.026439529,-0.06973363,0.06714769,0.03228484,0.05575439,0.03384327,0.036239818,-0.0036572313,-0.053659394,0.043043982,0.08711894,0.018713411,-0.030118002,-0.017710658,0.09018484,-3.4055112e-05,-0.06762853,0.039475843,-0.0003171788,-0.031001577,-0.053714868,0.07190768,0.05214918,-0.03336586,-0.012408801,-0.06662948,-0.07087215,-0.033267222,0.037975285,-0.023678226,0.04027827,-0.014894966,0.06800093,-0.012803086,0.067672096,0.07085308,-0.050426524,-0.006462343,0.0333351,0.08959146,0.050904784,0.069945075,-0.08526817,-0.041508395,-0.022589311,-0.035963986,-0.075423345,0.00068198866,0.06200857,-0.0334724,-0.019370915,-0.05615733,0.03130527,-0.054025777,0.009642878,0.010482258,0.017556174,0.07041282,0.03863034,0.04335144,0.06598802,0.056904007,0.060410846,0.051791713,0.04100555,0.0029834278,0.06663325,0.06085472,0.0789097,-0.07069461,0.074991874,-0.00033658853,0.012793781,0.09059412,-0.05125449,0.003210869,-0.04940896,-0.037389748,0.028007107,0.08168928,-0.05682676,-0.044590347,-0.009487551,0.07952204,-0.04047441,-0.052482005,0.064408354,-0.050123896,0.024950715,0.09475443,0.07855885,0.029938858,-0.07851894,-0.01676339,0.044395927,-0.06765647,0.031753138,0.076742165,0.013427712,-0.008952527,0.04125107,0.039102614,0.079354204,-0.06261357,0.051080517,-0.0021387574,-0.0697875,-0.02951417,0.06221588,-0.06562969,0.076716684,-0.03174826,0.033388242,0.09015524,0.07925458,-0.010754813,0.084820285,0.07945825,-0.009444302,0.08833343,-0.04618204,-0.06252093,0.03404777,0.07710662
0.0034273593,0.05434498,0.06750611,0.08692237,0.034058094,-0.020684713,0.00047035882,-0.02285333,-0.0024930388,-0.02873098,-0.009212026,-0.039267544,0.08335013,-0.06986551,0.059635974,0.045619536,0.049958423,-0.038765587,-0.092385165,0.06884385,-0.0796379,-0.013066566,0.034367234,0.08211804,0.05738908,-0.06503158,0.0030862966,-0.03896878,-0.05827733,-0.0271343,0.06273434,-0.065943904,0.0047773956,-0.005704481,-0.004889772,-0.060708743,0.027520308,0.02638029,-0.050599303,-0.039429758,-0.0128513435,-0.07728407,0.010596434,-0.027039658,-0.027076973,0.0005365188,0.07315399,-0.05843147,0.043917116,0.085300714,-0.086701386,0.03499356,0.07924959,-0.08742166,-0.06855355,-0.03535858,0.033054486,-0.07206965,-0.06946454,-0.07367065,0.0867166,0.034908276,-0.07844707,0.07524897,-0.07021219,-0.01602461,0.045234095,-0.07158829,0.06351873,0.0054288935,-0.03135741,-0.008549962,0.02313331,0.041358046,-0.03304674,0.02324645,0.0032146876,-0.003923376,-0.06315641,0.08095362,0.07941234,0.065228894,-0.046135403,0.045467004,-0.030942054,-0.08334751,0.0348648,-0.005384819,0.05060317,-0.054015104,-0.053197518,0.051308393,-0.08077738,0.036814593,0.054699294,0.0703005,0.016860625,0.0034891365,-0.06639423,0.03256137,-0.0075184074,0.043645,-0.08142141,0.038519166,0.075811945,-0.060318924,0.0171762,0.017877301,0.04567997,-0.03321576,-0.033740733,-0.00989117,0.052770425,-0.087241374,-0.032280765,-0.06306036,0.04421192,0.06533291,0.008731773,0.03131153,0.023816954,0.079593964,-0.015547729,0.07201614,-0.00932989,-0.07838416,0.0024431895,-0.059162445
